let pretrained = JSON.stringify({"layers":[{"out_depth":1,"out_sx":24,"out_sy":24,"layer_type":"input"},{"sx":5,"sy":5,"stride":1,"in_depth":1,"out_depth":8,"out_sx":24,"out_sy":24,"layer_type":"conv","l1_decay_mul":0,"l2_decay_mul":1,"pad":2,"filters":[{"sx":5,"sy":5,"depth":1,"w":{"0":0.5064287425277394,"1":0.3993111356815966,"2":0.282277430718104,"3":0.05726333699624554,"4":-0.39441421359083245,"5":0.24333892490978648,"6":-0.10050833410346842,"7":0.004583330354818776,"8":-0.04773750023824982,"9":0.343874330496222,"10":0.01766186592074549,"11":0.08021860240443737,"12":0.010941475251042058,"13":-0.3150124853138375,"14":0.16854927075639964,"15":0.20352022750257898,"16":0.19457109193327338,"17":0.0918681829860552,"18":0.012307203232795634,"19":0.22604616320550835,"20":0.2768225385328794,"21":0.2570265983633854,"22":0.3099340297017378,"23":0.07922898107384901,"24":0.10748334860145758}},{"sx":5,"sy":5,"depth":1,"w":{"0":-0.1791059838841442,"1":-0.1293512554177985,"2":-0.12240054056442061,"3":-0.1293625694707129,"4":0.14641877309885398,"5":0.8643687591901938,"6":0.35913890509880275,"7":0.5284534040780584,"8":0.0012267962076828527,"9":0.3904038425324582,"10":-0.12078216947603841,"11":-0.1087574318876493,"12":0.19163043801008592,"13":0.5081137276708133,"14":-0.028879425314115484,"15":-0.14033256497606023,"16":0.05338433600080655,"17":-0.11979397043813712,"18":0.23800462951700987,"19":-0.09036288334308834,"20":0.11335906075883999,"21":0.3201193162997795,"22":0.008389373832374456,"23":0.01638911420639301,"24":0.11608393618756603}},{"sx":5,"sy":5,"depth":1,"w":{"0":-0.04773419291834394,"1":0.026863371465103925,"2":-0.07208426045737812,"3":0.0005077911018653261,"4":-0.05676267267057494,"5":0.5023450049666061,"6":0.42267171825175853,"7":0.16420772024349492,"8":-0.07965629585350492,"9":-0.41105238205407274,"10":-0.33526321175561735,"11":-0.18420839757153265,"12":-0.34072930766599807,"13":0.062491393320814284,"14":0.32458803751348225,"15":-0.03453033064509219,"16":0.20882363396052886,"17":0.02422968271354967,"18":-0.08396178899792331,"19":-0.022415579168932376,"20":0.120908860555072,"21":-0.16242043267320494,"22":-0.16689775602204457,"23":-0.44291663867642656,"24":-0.017669909024769826}},{"sx":5,"sy":5,"depth":1,"w":{"0":-0.008318874480128413,"1":-0.0802122910674342,"2":-0.07250426203648769,"3":-0.08164534463804445,"4":-0.02474830484844117,"5":0.23400720483388704,"6":0.33472620183230367,"7":-0.279435398061949,"8":0.2022237483992562,"9":0.076662544767994,"10":0.17446745354805246,"11":0.032772444153616534,"12":0.6528966156347664,"13":0.0758399623805828,"14":0.2042198372463266,"15":-0.4893150419642666,"16":-0.22268340192087155,"17":-0.09553281221903398,"18":0.39113119832966764,"19":0.2687766141071662,"20":-0.11329227331934406,"21":0.07453811922881015,"22":0.06236576249039401,"23":0.08785824014764128,"24":0.2909681829423629}},{"sx":5,"sy":5,"depth":1,"w":{"0":0.2688806097230839,"1":0.345429194990244,"2":0.09694226075753873,"3":0.18482496568023923,"4":0.12364505925172059,"5":-0.14957557097686447,"6":-0.14366576350070814,"7":0.2099208778513147,"8":-0.10927062319343776,"9":-0.5152743016057147,"10":0.29986959922914214,"11":0.18932815179403795,"12":-0.1476433352843413,"13":-0.51903004247923,"14":-0.34813653689081897,"15":-0.22233478385004737,"16":-0.4970397406054269,"17":0.5571571447674946,"18":0.4614622935141103,"19":0.1351091385093096,"20":-0.47413155946089164,"21":-0.24280714539419332,"22":-0.24876916698128707,"23":-0.5005072841989462,"24":-0.2535934871507748}},{"sx":5,"sy":5,"depth":1,"w":{"0":0.034114414678341705,"1":-0.05527689762598782,"2":0.01510727878721093,"3":-0.14868012477097858,"4":-0.21591292858930428,"5":0.4488445514823751,"6":0.42445664618795526,"7":-0.16848421255268595,"8":-0.13315870691196113,"9":-0.36105967394034494,"10":-0.3687752821429727,"11":-0.387102638030137,"12":0.26154705754466595,"13":0.4628683101070779,"14":0.24434063540970158,"15":-0.23921763005150873,"16":-0.08740450866178186,"17":-0.040975280896987265,"18":-0.08270529900223063,"19":0.004353716015119702,"20":-0.10685731683298799,"21":-0.06524021790157966,"22":-0.25365756182535076,"23":-0.24522681438102045,"24":-0.24267453646484324}},{"sx":5,"sy":5,"depth":1,"w":{"0":-0.04053053451805754,"1":0.21040718740852693,"2":0.3053079623741029,"3":0.2923942693003199,"4":-0.17263496768177963,"5":0.21092866908966218,"6":0.28260185603280225,"7":0.34988673074952925,"8":0.31525290788878607,"9":0.48339251159144314,"10":-0.2777928835907773,"11":0.26730184521851313,"12":0.3512309874378707,"13":0.8094962873178698,"14":0.3356199935778638,"15":0.11634002856849894,"16":-0.3322343640769679,"17":-0.06417189866809588,"18":-0.10608046833316377,"19":0.31533894667154505,"20":-0.014408006088766844,"21":0.17432825608219954,"22":-0.24829509372084424,"23":0.11612573042705437,"24":-0.15264899267907311}},{"sx":5,"sy":5,"depth":1,"w":{"0":-0.29074247015939403,"1":-0.2649205416821233,"2":-0.2451236901659789,"3":0.09480928503173526,"4":-0.14436993587622216,"5":0.6876130285269205,"6":-0.19251778022485544,"7":0.07126505090136177,"8":-0.11236437377710626,"9":-0.4380352731757686,"10":-0.5894410448396477,"11":-0.21394526877341705,"12":0.13338967594487755,"13":0.4257630734428094,"14":0.313749847062467,"15":0.05891116824594165,"16":-0.39270129384667585,"17":-0.5148963846009997,"18":-0.3116394116808977,"19":-0.39320773515071816,"20":-0.07464792767920994,"21":-0.01216780896317049,"22":0.6461390525824625,"23":0.22630181834836147,"24":-0.20696414910368272}}],"biases":{"sx":1,"sy":1,"depth":8,"w":{"0":-0.0005001871175809084,"1":-0.032179709878151275,"2":0.06239882994794346,"3":-0.007465107755766125,"4":0.20100673160901267,"5":0.0005850663344182135,"6":-0.004326831013321901,"7":0.02998490499795415}}},{"out_depth":8,"out_sx":24,"out_sy":24,"layer_type":"relu"},{"sx":2,"sy":2,"stride":2,"in_depth":8,"out_depth":8,"out_sx":12,"out_sy":12,"layer_type":"pool","pad":0},{"sx":5,"sy":5,"stride":1,"in_depth":8,"out_depth":16,"out_sx":12,"out_sy":12,"layer_type":"conv","l1_decay_mul":0,"l2_decay_mul":1,"pad":2,"filters":[{"sx":5,"sy":5,"depth":8,"w":{"0":-0.11833740367530049,"1":0.15031197996761989,"2":0.09211780609484449,"3":-0.09561532236675153,"4":0.030471465970523096,"5":0.007557491463556814,"6":0.15468046505779157,"7":-0.018517354370152384,"8":0.1079160548743142,"9":0.02650789781805287,"10":0.05368968043613749,"11":0.14804806822857017,"12":-0.005282336177537414,"13":-0.0055679759574167546,"14":-0.022452129006366662,"15":-0.04417363315941886,"16":0.004903377986204562,"17":-0.013206476132301623,"18":-0.08327777353062829,"19":-0.06985151025015908,"20":-0.046677649885866,"21":0.01925705787180764,"22":0.08805586594109625,"23":-0.10146971917042018,"24":0.11174490304830291,"25":-0.03633457580808551,"26":-0.24454644623198385,"27":-0.06609770317654115,"28":-0.011671804158842353,"29":-0.12420450576023037,"30":0.0844495045479468,"31":-0.10005523360914896,"32":0.11558693854332394,"33":0.05179401586075809,"34":-0.19436813444999568,"35":-0.12072721697861308,"36":-0.2486136107877218,"37":-0.10225601436552502,"38":-0.12597207072554178,"39":-0.05515394166440132,"40":0.03309097747126412,"41":0.028742658106461053,"42":-0.21001487640054128,"43":-0.0025961093461360583,"44":0.012984260141193716,"45":-0.1002849532585921,"46":0.02492905583286798,"47":-0.08763952435439222,"48":0.007105476598481281,"49":-0.1023249042026402,"50":-0.13433597081334284,"51":0.13512391045895705,"52":0.09043928618310894,"53":-0.010429950792924627,"54":0.06856892557900433,"55":0.20681601218787857,"56":0.029959205371592378,"57":0.07434655155149678,"58":0.010589320713500086,"59":0.16990889103465298,"60":0.03480254509116666,"61":0.13074405552900323,"62":0.012277810994303421,"63":0.0183582176902747,"64":0.09398414571364042,"65":0.039452940478530374,"66":-0.1033111119719148,"67":-0.011847911838416204,"68":0.03887611030881602,"69":0.1442857378875985,"70":0.11555544155556575,"71":-0.04081610626126719,"72":0.022609046881827525,"73":-0.031021269371682217,"74":0.19461446781104141,"75":0.16396240026891995,"76":0.09437182427596277,"77":0.09057976898899947,"78":0.18652505557505591,"79":-0.10490593300358744,"80":-0.05105861838559112,"81":-0.055036952497118784,"82":-0.10368521305071457,"83":-0.09563847796199132,"84":-0.04799512250300563,"85":-0.10122467427292382,"86":-0.22967299042370395,"87":-0.08187641139312347,"88":0.04107608767509633,"89":0.048047856522011996,"90":-0.0718333170007877,"91":-0.05203126819886127,"92":0.006400822287345922,"93":-0.034314589161903726,"94":-0.07757427940351878,"95":-0.01878587896072257,"96":0.019165818752483677,"97":-0.23323372972747242,"98":-0.08866382589611013,"99":-0.1234644194240223,"100":-0.05092312979324552,"101":-0.11382125374360161,"102":0.05509462341966728,"103":0.03565826269232855,"104":0.006887085166775522,"105":-0.03771379143032537,"106":0.02990870841247787,"107":0.05181320665522557,"108":0.025207161345583134,"109":-0.09914495488230282,"110":-0.01259898770586202,"111":-0.10281393372191788,"112":-0.02095178814546993,"113":0.0012017592695115296,"114":0.07511397721474906,"115":0.1417536884610522,"116":0.021483499062889103,"117":-0.026800972477868196,"118":0.08201967255895283,"119":-0.08059470882573705,"120":-0.08853336576281579,"121":-0.07397124561488455,"122":0.045642009876118605,"123":0.07639453314817239,"124":-0.022392112099844257,"125":0.12115453995234564,"126":-0.09481936143559024,"127":0.09695379934649397,"128":-0.044695281460003546,"129":-0.055086894173810144,"130":0.25036766897184454,"131":0.015401123019210376,"132":0.18562709371018604,"133":0.12673478221203166,"134":0.042120236093055194,"135":0.06142857953175636,"136":-0.2345615317657025,"137":-0.12573551752757564,"138":0.0841583071795463,"139":0.022238404574195302,"140":0.23241626460692189,"141":0.04006067067477877,"142":-0.0655499471463188,"143":-0.05853953369635002,"144":-0.07678446609872391,"145":-0.027718218098128116,"146":-0.044833303939986587,"147":-0.030512149016726543,"148":0.1372445754252665,"149":-0.1261361261422686,"150":-0.07971739564566138,"151":-0.03834939628163073,"152":-0.21018562485269518,"153":-0.10547443898896934,"154":0.08212749780445379,"155":-0.09714988991080084,"156":0.11584936349577091,"157":-0.008586140269966284,"158":-0.14751587774198013,"159":0.005787385107693523,"160":-0.054034975136766215,"161":-0.08415807392085792,"162":-0.19420359354895197,"163":-0.12049220913276053,"164":0.002879177661759477,"165":-0.10256536445729059,"166":0.010198358871691952,"167":-0.11503329786462035,"168":-0.007157522238386004,"169":-0.007008021391464615,"170":-0.10684291560126166,"171":-0.23848503202528765,"172":-0.007933424931174923,"173":-0.18809504826732443,"174":-0.054905420187494135,"175":-0.023464200088509333,"176":-0.017553359379546937,"177":-0.07538981901517855,"178":0.01922168186411571,"179":-0.11937110823352068,"180":-0.09953743777711237,"181":-0.14784352088341174,"182":-0.05614716803611275,"183":0.014592576032952767,"184":0.08864894904882763,"185":-0.0319391950309307,"186":-0.04760675800170075,"187":0.032426042447022164,"188":-0.03271516565494815,"189":0.04218547563750091,"190":-0.0727627958599178,"191":0.09583389063554484,"192":0.06794041544401926,"193":0.12558765505047628,"194":0.09390452628116629,"195":0.03344686800438104,"196":-0.008438345777937796,"197":-0.01307111563463288,"198":-0.037630076627695616,"199":0.0816393871052164}},{"sx":5,"sy":5,"depth":8,"w":{"0":-0.01486198758203557,"1":-0.06612661172208556,"2":-0.10354017971014517,"3":-0.15121058401278203,"4":0.08888999412014906,"5":-0.03362730026005461,"6":-0.18528677469109467,"7":-0.14639325654077429,"8":0.09757470330817174,"9":-0.07443242694828522,"10":0.043343425101951605,"11":-0.002051856970708718,"12":-0.1670799211860108,"13":0.08164545390388647,"14":-0.20103394171038508,"15":0.13505725770062973,"16":0.020839793282048526,"17":0.07332808245853524,"18":0.10402269795784745,"19":-0.06393717120907545,"20":-0.054957631938879564,"21":0.19806646957954502,"22":0.043755641570002765,"23":-0.021798085611726265,"24":-0.04218569040682652,"25":0.12706989387372297,"26":0.12804137409568517,"27":-0.17490583878835636,"28":0.06602151463271963,"29":0.14227257065712842,"30":0.15668774808222594,"31":0.323664487226521,"32":-0.10543254186811521,"33":-0.012983367906896068,"34":0.057350986800114204,"35":0.22138769034292322,"36":0.1513634388518629,"37":0.23736240771010128,"38":0.2340996086297151,"39":0.010896171383549836,"40":-0.23219594901515858,"41":-0.14529947754352254,"42":-0.06545363538326071,"43":-0.2491081353814287,"44":-0.18414615683820065,"45":0.0031469530025233935,"46":-0.18822511415200158,"47":-0.2604415404150544,"48":-0.27461473881052134,"49":-0.06322958478222115,"50":-0.1321634196100997,"51":-0.16560277679786026,"52":-0.15203536452604538,"53":-0.06639301812157597,"54":-0.2107728023062243,"55":-0.10320578161446438,"56":-0.15594677182692224,"57":-0.24981762129361093,"58":-0.093286153627914,"59":-0.2406623225783686,"60":0.05644141203399985,"61":-0.19681368120959108,"62":-0.022389503473107714,"63":-0.1036276126769328,"64":-0.013824240754809902,"65":-0.226925787228806,"66":-0.2824024170199919,"67":-0.16740260125437753,"68":0.06515079685460573,"69":-0.2917422276793452,"70":0.01700017634542309,"71":-0.17418967097829416,"72":0.14843305534326207,"73":-0.10027728445047922,"74":0.033103582312063916,"75":-0.08316611856648667,"76":0.006637604884076731,"77":0.08966970849176968,"78":0.11778107253152574,"79":-0.06618972406438985,"80":0.06297172360682983,"81":0.05647333809976019,"82":0.04925332973499697,"83":-0.21267218122527565,"84":-0.12370312388221659,"85":-0.019785420236063427,"86":-0.19644735665955332,"87":0.061870232641241814,"88":0.12395712996220078,"89":0.19092420891171227,"90":-0.15356898768646865,"91":-0.11051830137553592,"92":-0.024077987176975846,"93":-0.15833189229707406,"94":-0.2079541858979132,"95":-0.0636895827308307,"96":0.011657960696111054,"97":-0.07291449638621067,"98":-0.19098236757745923,"99":-0.014747627046814968,"100":-0.030733701327424316,"101":-0.06442586670732892,"102":-0.15199470251562838,"103":-0.061220869126197786,"104":-0.06777751251364895,"105":-0.061946311175881875,"106":-0.15096522558563896,"107":-0.22991809467361626,"108":-0.04458426018557059,"109":-0.16695529982641372,"110":-0.2040501828257733,"111":-0.17460720678477187,"112":-0.15610317216482103,"113":-0.08903750322566772,"114":-0.19971739222549686,"115":-0.040606032564569405,"116":-0.20297135792697288,"117":-0.035845245445785164,"118":-0.053433629943130286,"119":-0.05925118229212202,"120":-0.20849059916870005,"121":0.018843095792783184,"122":0.04459702908601259,"123":0.13291645282516384,"124":0.08042332063738578,"125":0.14980095153243803,"126":-0.04993419538554169,"127":0.31014579020250005,"128":-0.03577243561091069,"129":-0.058711634565146276,"130":-0.03845030778602447,"131":0.027061319497590445,"132":0.08555297992824844,"133":0.00039786090871417426,"134":0.030890875540118892,"135":0.042134837249902676,"136":-0.16803977475445145,"137":-0.4173941284818737,"138":-0.26647657207721526,"139":0.008725615405182924,"140":0.12415438702971479,"141":-0.16939385525936573,"142":-0.08247293347280721,"143":-0.10442283960368011,"144":-0.09594538010070035,"145":-0.07888890855415519,"146":0.017879567471129836,"147":-0.10452563476225432,"148":-0.06666770133655098,"149":-0.07813971064980393,"150":-0.10463398496869122,"151":0.09800068910208061,"152":-0.01182903790936973,"153":-0.12916040684199268,"154":0.06071921607046793,"155":-0.1625449980620271,"156":-0.027582883585310844,"157":-0.014779964147002615,"158":-0.016734479066331093,"159":-0.08148135474480742,"160":0.1847445076223656,"161":-0.04031199160571473,"162":-0.14456983463904072,"163":-0.08139007219599524,"164":0.19086671488087117,"165":0.016221939515994706,"166":0.14085083233682608,"167":0.0117637975103673,"168":0.06771494150162237,"169":0.005146563937322291,"170":0.036844484870849056,"171":0.012830019182684949,"172":0.04905687872397606,"173":0.11856679619464137,"174":-0.08122357080487674,"175":0.18761088847000695,"176":0.005080444488373316,"177":0.14717689459199984,"178":0.1564345959327333,"179":0.02545948620425246,"180":-0.11772476035270013,"181":0.09321359565928042,"182":0.005703125060252029,"183":0.24473902357244734,"184":-0.13365558083464524,"185":0.10605688081278189,"186":0.09053733134676402,"187":0.11697057223194879,"188":-0.1658014703990195,"189":0.10394707860956362,"190":-0.003279192574066775,"191":0.05460166286941017,"192":-0.08129024883031917,"193":0.14056056019407312,"194":-0.017034346970093022,"195":0.08244062817797546,"196":-0.006748116165807875,"197":0.16025969515949687,"198":0.16461051654898026,"199":0.12275659664878007}},{"sx":5,"sy":5,"depth":8,"w":{"0":-0.08697219049439261,"1":-0.14099926791595035,"2":0.17100305588402484,"3":-0.018989547374448027,"4":0.13528924602151218,"5":0.15415270720756652,"6":-0.027940288454523506,"7":0.11648400076867789,"8":-0.19140325151542786,"9":-0.10316651289746841,"10":0.06124763407563558,"11":-0.04731284692708789,"12":-0.0027825259367367195,"13":-0.05887382043708114,"14":-0.09816106631729613,"15":-0.042126971225769694,"16":-0.009006969997934025,"17":-0.052225216947278386,"18":-0.13923809212779123,"19":0.050323132367014016,"20":-0.12021045202683299,"21":-0.01105323414050857,"22":-0.23565025128694037,"23":-0.08727995423006918,"24":0.014839603703094673,"25":0.050088218043583904,"26":-0.10686975018236426,"27":0.03734381726641759,"28":-0.14798268101622786,"29":0.040012959867746944,"30":-0.13215433746425356,"31":0.05024372261115965,"32":-0.10189537518187282,"33":-0.08814952415831756,"34":0.015323869075634034,"35":0.01062637614280024,"36":-0.04105972511266654,"37":-0.05461102088799546,"38":-0.2537255854644782,"39":-0.007502852010266481,"40":0.03078605441257989,"41":0.07563184059469996,"42":-0.13579867020418357,"43":-0.029548229298797538,"44":0.13007034491093178,"45":-0.09234170703222228,"46":-0.04502117704161054,"47":0.2470483774016823,"48":-0.20973736887591143,"49":0.1284129488421441,"50":0.07943442958721011,"51":-0.10731157624441603,"52":-0.20420592319632397,"53":0.09262437583894989,"54":0.026527432801867187,"55":0.09756142289122881,"56":0.11172715500337506,"57":0.025704121577988643,"58":0.07267396801746616,"59":0.15698492497970623,"60":-0.1117910450308934,"61":0.0502163269937585,"62":0.045723995147455336,"63":0.06431407578814756,"64":-0.12702033637155788,"65":-0.018465397342241664,"66":-0.03481891772845057,"67":0.12385882702997117,"68":-0.006893151322310016,"69":-0.1598428737922607,"70":0.0651745598679745,"71":0.0644152406142296,"72":-0.0660975193778312,"73":-0.13203094059203693,"74":0.13368339672534266,"75":0.10598439735075521,"76":-0.09767448814684904,"77":-0.014746594347263607,"78":-0.03436437833740611,"79":-0.05973185753076896,"80":-0.05755784068386229,"81":0.039465072806096346,"82":0.10878304656396101,"83":-0.00029261985682855563,"84":0.04535691066110468,"85":0.040029841932783645,"86":-0.007436135241588656,"87":0.18917915495376245,"88":0.03701160085108099,"89":0.08924796496814778,"90":0.12987329238211898,"91":0.08399331832815309,"92":0.08869148195861515,"93":0.1487967486297004,"94":0.04027977092268769,"95":-0.008698608438686953,"96":0.07848751250427885,"97":-0.10903292820007787,"98":0.011365373629643453,"99":0.09502853621760271,"100":0.09612322758426066,"101":0.16879231660145974,"102":0.01420279942433362,"103":0.05484386319176521,"104":-0.04725309535172717,"105":-0.12472023114109618,"106":-0.07894014563665586,"107":-0.0226516305434275,"108":0.08343536800382204,"109":0.017103749355151823,"110":-0.08871279727630933,"111":0.04663470670605391,"112":-0.016018336154745134,"113":-0.10333523113485259,"114":-0.14626113451612274,"115":0.0071459381976552855,"116":0.033627529192593486,"117":0.033472568166991894,"118":0.06018630178356826,"119":-0.05014383367906951,"120":-0.02130192734750941,"121":-0.09992596926032128,"122":0.07996040359357226,"123":-0.05627276438387803,"124":0.017906165441002042,"125":0.056179131361843826,"126":0.1463913592594403,"127":-0.05887299492247967,"128":0.10327864582936083,"129":-0.04333626745754404,"130":0.04233127091406238,"131":0.037272201608854374,"132":0.01673277076895352,"133":-0.10868953676336957,"134":-0.09197483737128888,"135":0.0231773962046955,"136":0.06938371248867965,"137":-0.012200569984121909,"138":0.08071693677942149,"139":-0.10177086384784866,"140":-0.30470130300209036,"141":0.053927788036247495,"142":-0.002997104310400843,"143":-0.033424517090160304,"144":0.03839549827527809,"145":0.03300297371532087,"146":0.12196721537684735,"147":0.027400127520710568,"148":0.07079318509789416,"149":0.14172656669025183,"150":0.007706215132097946,"151":0.03913101595771102,"152":0.02922077208124059,"153":0.010928167550009431,"154":0.01308691842633635,"155":0.030986896927079313,"156":-0.012370742759639997,"157":0.036966428718904286,"158":-0.023319051007140205,"159":-0.06776698953813921,"160":0.19907440060596193,"161":0.0310211154796203,"162":-0.0008723911332466164,"163":-0.0419819134779329,"164":-0.12613969628366833,"165":0.010922904247427182,"166":0.04166652362908828,"167":-0.0532879838873042,"168":-0.11877095837532416,"169":0.03376825067810445,"170":-0.12311961556062019,"171":-0.09295445724892125,"172":-0.1887250584393082,"173":0.03182598120305333,"174":0.057713373165383726,"175":0.07744519752184141,"176":-0.27471182924209353,"177":0.040709328515558973,"178":0.021722740820227574,"179":-0.05809950303974259,"180":-0.04249983003856133,"181":0.03831121507239186,"182":-0.00773129038567905,"183":-0.13924466312839934,"184":-0.05375890857648911,"185":-0.014363980172272932,"186":-0.1403751215227055,"187":-0.08588448630906996,"188":0.03334253960046289,"189":0.05119521469559121,"190":0.09850654717574059,"191":-0.2274163206761921,"192":-0.07457170544759315,"193":-0.13822722994828687,"194":-0.028729806979346132,"195":0.018981940334729035,"196":-0.006207540396465529,"197":-0.02325022058759167,"198":0.051520371874213385,"199":-0.12843062852090487}},{"sx":5,"sy":5,"depth":8,"w":{"0":0.041144949326214986,"1":-0.02590473580577959,"2":0.05757454186953488,"3":0.10088828785829537,"4":-0.10143314588760446,"5":-0.09036574859962007,"6":0.07251775843391989,"7":0.03729033354225123,"8":-0.0012481653583902798,"9":-0.0013365489950081114,"10":-0.12326884170478415,"11":-0.13327573064419182,"12":-0.14152449823035346,"13":-0.02598570874194028,"14":-0.11441941641224428,"15":0.10293970443656199,"16":0.015174428732221953,"17":0.004431251297463412,"18":-0.11354640171983424,"19":-0.015312130963860146,"20":0.21350351537969026,"21":-0.22139289886356592,"22":-0.001820462097210212,"23":-0.014202338255565036,"24":0.016380609505721858,"25":-0.03071897337204179,"26":0.10299401471292993,"27":-0.026052119580755383,"28":0.1630980070556021,"29":0.02974939174349719,"30":0.035671383792946196,"31":-0.1444414649415546,"32":-0.06830602396334141,"33":0.09396201674251393,"34":0.10259022089119539,"35":0.0783926684552029,"36":-0.007128927556824811,"37":0.11763028315346497,"38":0.20535035247584382,"39":0.06267395936462351,"40":0.13754068327127975,"41":-0.014583141156937362,"42":0.0034295505499896644,"43":0.012152659205889317,"44":0.07739237927505176,"45":-0.030271690362507053,"46":-0.04265645117388332,"47":-0.06375888764006064,"48":0.06546358166111403,"49":-0.12550863206008286,"50":0.008824321473798693,"51":-0.025716419503848734,"52":-0.050272348539123525,"53":-0.05227006023719954,"54":-0.11258862253613625,"55":-0.1088730066829872,"56":0.02242869313853431,"57":0.07366485740340485,"58":-0.14976794657001327,"59":-0.058097047803353,"60":-0.08142107331074543,"61":-0.12635400036236938,"62":-0.0863912527942249,"63":-0.0769973741381265,"64":-0.05267017463690912,"65":0.039364199988658685,"66":-0.07359658147325465,"67":0.009636130396005277,"68":-0.12485445915188288,"69":-0.18584138295381142,"70":-0.20180046960016762,"71":0.06615466883824087,"72":0.02542624919863251,"73":-0.10035501658628629,"74":-0.03698037935607339,"75":0.041438626525152206,"76":0.032916771171453994,"77":-0.12231349575123425,"78":-0.10405965092213464,"79":0.07268827931643292,"80":-0.08606437054881966,"81":0.059065444516505854,"82":-0.0378541873183477,"83":0.05243601769975365,"84":0.13382687117372175,"85":-0.05836714223960315,"86":0.14387921551460306,"87":0.017451444847251328,"88":-0.009910411413702335,"89":0.05413410195683949,"90":-0.03390049366796534,"91":0.041472798907352414,"92":0.030811117534237032,"93":-0.12474233988969467,"94":0.023482078202871754,"95":-0.17589834942751217,"96":0.04872437521663338,"97":-0.043472473572307394,"98":0.1007804044344116,"99":-0.029292754533992466,"100":-0.002655258746715682,"101":0.10561349720876449,"102":0.05959140774177054,"103":-0.06792806266133647,"104":-0.047802173911932776,"105":-0.12741226946534062,"106":0.02839929807398072,"107":0.08892056413695722,"108":-0.08149387700697909,"109":0.07302547146112853,"110":0.06750260985293287,"111":0.06754949169147326,"112":-0.028945626431407155,"113":0.12165478138215621,"114":-0.04819938116495183,"115":-0.05392563900613304,"116":-0.05434798178775509,"117":0.034355077480086815,"118":0.08545399677533741,"119":-0.21715946824354154,"120":0.15467215302625478,"121":-0.05970452978201396,"122":-0.07914840768841647,"123":-0.0369528042453184,"124":0.07651437093047808,"125":-0.06999451047103826,"126":-0.036708710627041966,"127":0.1375889556303835,"128":-0.030938750002414587,"129":-0.13203151055507248,"130":-0.035225245782763,"131":-0.1711300382759572,"132":0.04159912016028196,"133":0.0005112117524817105,"134":-0.09076528200859416,"135":-0.07236697259936664,"136":0.005604647381834666,"137":-0.0699191237439354,"138":0.017637346156051125,"139":-0.004884745614696373,"140":-0.03963964733610092,"141":-0.17466722015553554,"142":-0.12077978154511075,"143":-0.1412820723373551,"144":-0.1170812621916669,"145":0.13182727316576554,"146":-0.10154476491870475,"147":-0.011225587693239444,"148":0.0014377518744693235,"149":-0.18553083348053517,"150":0.1163420764634781,"151":-0.08923421337736244,"152":0.08774697179170501,"153":0.018179503196816108,"154":-0.039434379852343444,"155":-0.08337574843640856,"156":-0.003285599237128241,"157":0.024842101710340153,"158":-0.0006311384714792669,"159":-0.15543941605900727,"160":0.033911418447050895,"161":-0.10419503426075989,"162":0.0454403083194827,"163":0.26420461025841147,"164":0.13904118943749455,"165":0.13758632628178225,"166":0.18130701612212807,"167":-0.03219964382659742,"168":0.07160567910183033,"169":-0.15917660691295774,"170":-0.15880405444370374,"171":0.016370588418464886,"172":0.15424055917542062,"173":0.10574814500127917,"174":-0.18539562322400993,"175":0.044801736517110335,"176":0.0018567434401913136,"177":-0.027669173238725312,"178":0.024202542654266215,"179":-0.10071893779989895,"180":-0.03619475636271964,"181":-0.07456805556583578,"182":-0.1429960058999752,"183":0.1284059787498555,"184":0.03243352866358028,"185":-0.11626071470310252,"186":0.08617660693351611,"187":-0.13445318330253542,"188":-0.2577881066858278,"189":-0.025192008040500376,"190":-0.12168987755773941,"191":0.31251842983476164,"192":0.1398160011629579,"193":-0.003924914507766092,"194":0.030197029078406847,"195":-0.09111047879945007,"196":-0.12637458611648925,"197":-0.025908431345834468,"198":-0.021010694522790613,"199":0.07630724497548443}},{"sx":5,"sy":5,"depth":8,"w":{"0":-0.05063993111906373,"1":0.025582764378060677,"2":-0.05855785818322638,"3":-0.09003437013436974,"4":-0.09065035064395463,"5":0.17724860097425696,"6":0.07169671353187516,"7":-0.06359621880877016,"8":-0.11131713051668693,"9":-0.03621436339753987,"10":0.043279218479631294,"11":0.06128399302485242,"12":0.04004272703435484,"13":0.04284561160796395,"14":0.10531859036427756,"15":0.1022913121745625,"16":0.0017990504004978553,"17":0.040593340814136326,"18":-0.15457450664870342,"19":-0.025888308556161203,"20":0.07582318543276313,"21":0.07913985096212077,"22":0.018460847055055834,"23":0.046038514706718055,"24":0.09238777988862376,"25":-0.14818181169262656,"26":-0.03526596957084043,"27":-0.048447158031320096,"28":0.08224060775736566,"29":-0.0800232364116877,"30":0.04479773814083997,"31":0.06612473952161603,"32":-0.005093960507379659,"33":-0.0713363519786327,"34":-0.01853955139263876,"35":-0.1577486855230407,"36":0.009258023972805406,"37":-0.04709789851530023,"38":-0.013182482721271994,"39":0.012204982904138227,"40":0.11098263053267131,"41":-0.04272709137435316,"42":-0.010638615638895513,"43":0.0331486382958535,"44":-0.20089928036919844,"45":-0.006025822645763682,"46":-0.10151915990050106,"47":-0.07952070544275651,"48":0.12257129469797724,"49":-0.10529385917354823,"50":-0.08973821950728249,"51":-0.2488357107261827,"52":-0.06975259174573722,"53":-0.05320656272402552,"54":0.04015338452611131,"55":-0.0396094803262301,"56":-0.011972600256933728,"57":0.04326958039087734,"58":0.12525929629841798,"59":-0.003714743590580763,"60":0.06329428666408456,"61":-0.01940463439795537,"62":-0.07834646822112368,"63":0.005706346295750141,"64":-0.02949715224612105,"65":0.013990485750997608,"66":0.09179080463141957,"67":-0.04633553015424526,"68":-0.12735328281894628,"69":0.00964702370596542,"70":0.08687520241138434,"71":0.08261436915197855,"72":-0.051478299895909456,"73":-0.10391523129778994,"74":0.006502485235893047,"75":0.14503567223920258,"76":-0.010514136630304368,"77":0.03097581071362329,"78":0.04340022032915098,"79":0.044548261483158616,"80":0.10823314483347106,"81":0.04174834709411962,"82":-0.043947909427481516,"83":0.2598280600660447,"84":-0.33707150145249554,"85":-0.08253127401369911,"86":0.08651705761018058,"87":-0.07454943846192343,"88":0.06140615898971158,"89":0.043595467368848576,"90":-0.11679882541448351,"91":0.21619206837619848,"92":-0.2960969179383512,"93":0.04140424733204696,"94":0.05821870351604826,"95":-0.10806759099140387,"96":0.10153085795152156,"97":0.06394379979053773,"98":-0.10898613933824867,"99":-0.07635966218340068,"100":-0.16051419398474168,"101":0.11826054813728329,"102":0.1787821204982969,"103":0.03436910714980849,"104":0.026730828536280886,"105":0.09656866401559333,"106":-0.27684067614753266,"107":-0.03843281973380276,"108":0.042109371223969766,"109":-0.02974092590664616,"110":-0.1001036665079632,"111":-0.1922195803437613,"112":-0.04949801144194024,"113":-0.0299005661201706,"114":-0.2370522050611663,"115":0.061221709468864065,"116":-0.08765442181445714,"117":-0.15664167354202646,"118":-0.05147849127529823,"119":-0.23822106599553666,"120":0.13234410223737145,"121":0.14236829359351963,"122":-0.055785025182945834,"123":0.047979897492938975,"124":0.04509251500158503,"125":-0.1423974918215804,"126":0.045283631736625404,"127":-0.10365739440903318,"128":0.1397245543973226,"129":0.0012607430457771789,"130":-0.010007807761286847,"131":-0.0806812725899168,"132":-0.030839750783304268,"133":-0.06343492707140225,"134":-0.012221348584703804,"135":-0.24025575549947156,"136":0.04343699952704442,"137":0.08071278100440515,"138":-0.04503924912890444,"139":-0.1283149944827131,"140":0.06911650941063538,"141":-0.02068047967446114,"142":0.19279411322761783,"143":-0.002127916699016391,"144":-0.07786189881742513,"145":-0.08718352246867901,"146":-0.09298226261090617,"147":-0.026458157796405753,"148":-0.08121554907540494,"149":0.008792011549721906,"150":-0.021381367353552613,"151":0.0148975010408565,"152":-0.006729142818135658,"153":-0.12271764530157356,"154":-0.09972100014575618,"155":-0.12664258499716022,"156":-0.2456934667421451,"157":-0.12768030503901995,"158":-0.07874320044653951,"159":-0.1414920572777503,"160":-0.005402676443306197,"161":-0.05667926592306439,"162":0.0006522410187449527,"163":0.026831443874232943,"164":0.0010009365143277614,"165":-0.0792332994783073,"166":-0.21947840885799896,"167":-0.15467666922199524,"168":-0.18026934800069744,"169":-0.0014245446249422122,"170":0.1713727015848052,"171":-0.032543343169149946,"172":0.027837398491977836,"173":-0.08516778740878657,"174":0.00013897062974809209,"175":-0.0956101807284744,"176":0.11025713305677101,"177":-0.0294893065627967,"178":-0.07403093145554983,"179":0.019191451640694496,"180":0.07657841152540508,"181":0.03148322255003632,"182":-0.10709236070717555,"183":0.07270441988642935,"184":-0.007512208871581691,"185":0.05679316750462878,"186":-0.06518529216570162,"187":0.009104181467406996,"188":0.06351304010795682,"189":-0.06048612376866022,"190":-0.020765201329996548,"191":-0.06907820598323235,"192":-0.030910078328653973,"193":-0.05629470440479064,"194":-0.03439461361394733,"195":0.10997963472493465,"196":-0.02517925040326163,"197":-0.0032240319338435377,"198":-0.06308777061164314,"199":0.16809748481121964}},{"sx":5,"sy":5,"depth":8,"w":{"0":-0.05128687989795765,"1":-0.048094520035136694,"2":0.11814695233414109,"3":-0.03631697173279724,"4":-0.08315741716922963,"5":0.04463088744590499,"6":0.0830058612117407,"7":-0.07087033236144717,"8":-0.06741375365171773,"9":0.09041522432607521,"10":0.14810571892018418,"11":-0.03362870812665394,"12":0.11104639473840792,"13":-0.06453563455793052,"14":-0.0032231587374853482,"15":-0.11035521518108948,"16":-0.03792878054576618,"17":0.009084496686016458,"18":-0.08069397052436926,"19":-0.01989403090419698,"20":0.11920456489858415,"21":-0.20116476214467952,"22":0.09646738822338698,"23":-0.07245366646351495,"24":-0.03227074953705061,"25":0.0905336894615336,"26":-0.012576243595807482,"27":0.039343034569308134,"28":0.015898890823935526,"29":-0.04890194842592179,"30":0.06760826819930751,"31":-0.18324832307182334,"32":0.0554066179790407,"33":0.0473370364044145,"34":-0.053773560704287335,"35":0.19624924597003718,"36":-0.030434992854545314,"37":0.19862012357256748,"38":0.20529656523483003,"39":-0.029894653242538774,"40":0.001843669863422544,"41":-0.21657332626504117,"42":-0.08973912454103425,"43":-0.00826029978844792,"44":0.02348601435961079,"45":-0.12836777702110264,"46":-0.17440889837713155,"47":-0.1143602045360732,"48":-0.072498230089921,"49":-0.20631828889828482,"50":-0.03730692859686108,"51":0.056630060221015466,"52":0.06043656558622464,"53":-0.04481182003347899,"54":-0.06178914638818926,"55":0.03524826836616379,"56":-0.08348892503213608,"57":0.014748815829179453,"58":0.058009262796924976,"59":-0.08998484277578848,"60":0.19251593708396258,"61":-0.021466085946743194,"62":-0.014309013318914595,"63":0.01176181929221036,"64":-0.09405640690090321,"65":-0.18664551292721557,"66":-0.12701234935460864,"67":-0.2815459372288957,"68":0.11553000759343206,"69":-0.16796141099325318,"70":-0.09822728377028422,"71":0.1545619920434935,"72":0.04936154280212334,"73":0.08913637365419731,"74":-0.053684215956980905,"75":-0.18415594140015948,"76":0.0391872145286496,"77":-0.2713556713465294,"78":-0.13444074388321692,"79":0.1305497256287673,"80":0.01724142729942788,"81":0.02765323277678992,"82":0.018308539052155792,"83":0.10364547910888666,"84":-0.020606892619032688,"85":0.07810842744835651,"86":-0.00003145262759564338,"87":0.047849197802509846,"88":-0.0263484373448324,"89":-0.012782316042783463,"90":0.11354197467981983,"91":-0.03791930815399458,"92":-0.08740595495772972,"93":0.168296272616366,"94":-0.10045584002738801,"95":0.08708414217688443,"96":-0.015748299077909145,"97":0.11172489502383796,"98":0.08986971469989685,"99":-0.01235870339216243,"100":-0.05806998336958924,"101":0.10300236387456504,"102":0.021622555566748202,"103":-0.06970231428991557,"104":-0.017787051934357583,"105":0.0643709886579036,"106":0.22622908149815052,"107":0.09567892850862218,"108":0.05914623226112539,"109":0.18400009590641364,"110":0.04225216629768796,"111":0.3338197961612421,"112":-0.045329683954708405,"113":0.03526692259253742,"114":-0.06367387034682705,"115":0.0019185142761223195,"116":0.29108438384679675,"117":0.09164951173444928,"118":-0.05576665277063122,"119":0.07070530536576314,"120":-0.021507322904842956,"121":0.045463525576454195,"122":0.0007817085620350304,"123":-0.05612844304883961,"124":0.12402710643708291,"125":-0.07825877598101758,"126":-0.08253367600148412,"127":-0.038223407339171886,"128":-0.03846439340908973,"129":-0.05108435524014728,"130":-0.09071185561533834,"131":-0.04782499791359346,"132":0.23708628861147604,"133":-0.03765447039773203,"134":-0.11113429853526971,"135":-0.060153727215573174,"136":0.0931230216915524,"137":0.005632294015082864,"138":-0.008903580398493214,"139":-0.06287924866906433,"140":0.203115169190819,"141":-0.006890359645585095,"142":-0.0336175149189645,"143":-0.09040533884202859,"144":0.01659264862730427,"145":-0.03718750388838246,"146":-0.09188543136689292,"147":-0.052497229365745766,"148":0.14841315155421675,"149":-0.09436429954705428,"150":-0.03287543859389942,"151":-0.09399847399904143,"152":0.03437046031838295,"153":0.05669788581105208,"154":0.18760635770020404,"155":-0.024744861212606432,"156":0.1353447787308171,"157":0.16702290915139983,"158":-0.03416734586095481,"159":-0.01641455575263817,"160":0.06637574617781254,"161":0.045093264910653706,"162":0.016763403689086288,"163":-0.08257345373983437,"164":-0.1722310524092973,"165":-0.002558244813771095,"166":-0.0771160292627297,"167":-0.04990929268244805,"168":-0.03541995451507357,"169":-0.057056965698521325,"170":0.019924963785174932,"171":-0.15931606127120534,"172":-0.09695229698350362,"173":-0.1885315517533851,"174":-0.0892000388386894,"175":0.07934495237510276,"176":-0.12663863571587147,"177":0.028820499171382116,"178":0.04427822380926415,"179":-0.00450843791054641,"180":-0.03382164957258677,"181":-0.07588531230820186,"182":-0.16440631016125387,"183":-0.053288200257525724,"184":-0.15772499406066146,"185":-0.019079399936915792,"186":0.0073006411598252816,"187":-0.03037274980000757,"188":-0.07289675379158377,"189":0.045586075837159776,"190":-0.14256715652302182,"191":0.012389330890229987,"192":-0.2368617833981124,"193":-0.01992734620481147,"194":0.1175299423680145,"195":-0.1693297202846312,"196":0.03473846320540991,"197":0.015820956944794365,"198":0.027243377710858073,"199":0.03893866156298412}},{"sx":5,"sy":5,"depth":8,"w":{"0":-0.0031596334648775113,"1":-0.020957800543508535,"2":0.010444252507623153,"3":-0.0707865400261942,"4":-0.015591000085028516,"5":0.04827806352787363,"6":-0.07728662056197073,"7":0.05918655157897174,"8":-0.005143902381452424,"9":0.02256691301926345,"10":0.010130859141498489,"11":-0.21125298469298479,"12":0.01736008327453303,"13":-0.03655860300366252,"14":-0.10278367156362539,"15":-0.09996943246914064,"16":-0.06952572235051445,"17":-0.15761234021961393,"18":0.012303539172365745,"19":-0.009172190796407844,"20":-0.024035284876435456,"21":0.020517768605122694,"22":0.034753932228343797,"23":0.10461874019879547,"24":-0.0598782729760362,"25":-0.04647162108376983,"26":0.006003035076515232,"27":-0.0013616762193934054,"28":-0.047990934609164766,"29":0.09039172203724972,"30":-0.03941302568235979,"31":-0.08086156539750668,"32":0.020712822146254656,"33":-0.061681462210647325,"34":-0.07322675478590293,"35":-0.06565256463450188,"36":0.08562320353930411,"37":0.06951899541934513,"38":0.014453139297230324,"39":-0.0035951127233165544,"40":0.03632536367714199,"41":-0.010722476706074907,"42":-0.08296650088739259,"43":0.03374726703516383,"44":0.01636086125831431,"45":-0.08731818352436221,"46":-0.03632859528566727,"47":0.07281537760707367,"48":0.012165596224180421,"49":0.11363410225530036,"50":-0.04518490633852147,"51":-0.059484291474417667,"52":-0.19648843480561312,"53":-0.100785661465739,"54":-0.1961903746944903,"55":0.020453556811683992,"56":-0.1306379029926734,"57":0.11564359978029426,"58":-0.013430020246477865,"59":-0.022725546019878116,"60":0.00982787322309024,"61":-0.07922391287716928,"62":-0.016532318567365496,"63":-0.07055677049674333,"64":-0.0508838864371834,"65":0.04214833919565343,"66":0.027109204162228614,"67":-0.0331865958151914,"68":-0.20607015660910175,"69":-0.06074293259647728,"70":0.01883684239578227,"71":0.002096610476708236,"72":-0.0023286272697522824,"73":-0.05284862654607718,"74":-0.051883352844826175,"75":0.018197254100430393,"76":-0.16741102337988,"77":-0.005130190125698381,"78":-0.07838642680873205,"79":0.05929727119730351,"80":0.011309930310063498,"81":0.0863433922112723,"82":-0.08950455272841916,"83":0.013227739585172017,"84":-0.004971050593198193,"85":-0.05646116860053539,"86":0.07264314669799363,"87":0.01847295929405164,"88":-0.10519302371766207,"89":-0.02796831556114964,"90":-0.12902334760457876,"91":-0.025445252999176222,"92":0.048248472480861726,"93":-0.0577103128520958,"94":0.0057162713620217825,"95":0.09865724193106674,"96":-0.10735955343589755,"97":-0.14415698807967517,"98":-0.05400527075859951,"99":0.03141658983954339,"100":-0.012259685489306116,"101":-0.1662467621553009,"102":-0.04112586076632936,"103":-0.0816795803946071,"104":0.08126358805383935,"105":0.0994211506959856,"106":-0.04690847791519501,"107":-0.023735232578293023,"108":-0.04082688798185572,"109":-0.18755182710753351,"110":-0.07388770802158959,"111":0.03062534335687982,"112":0.03995009855542054,"113":-0.04158791625662716,"114":-0.2750363430382172,"115":-0.11265671063232745,"116":-0.07968981611828793,"117":0.02348297119272443,"118":-0.019260853975055295,"119":-0.04387623214109282,"120":-0.12536562964498169,"121":0.0467054496947524,"122":-0.008539257188230747,"123":-0.009158780483934955,"124":0.13245053389056116,"125":0.14364314849791673,"126":0.12688411397826097,"127":0.04651407779015813,"128":-0.026098283810586927,"129":-0.056766712843032245,"130":-0.10283885623729991,"131":0.06647776625267827,"132":0.14751305654646166,"133":-0.12238374576101575,"134":0.013313466156135989,"135":0.1085403343037953,"136":-0.0013789555928950784,"137":0.08823965056888247,"138":0.08809407558029339,"139":-0.15389139578186006,"140":0.05845085856300624,"141":-0.11563997845165798,"142":-0.0622748238140772,"143":0.08733291421413178,"144":-0.039213443854589296,"145":-0.010748164500407748,"146":0.03256848389918302,"147":-0.05968051438118303,"148":-0.1128001478919037,"149":0.015529544060725367,"150":0.05782369901486793,"151":-0.03380267232312442,"152":-0.007876717516571667,"153":0.04852346349986048,"154":-0.01515716091621666,"155":0.03730861212615235,"156":-0.09594072974563607,"157":-0.02687534217453879,"158":0.0013005729975927153,"159":-0.04991223353418149,"160":0.07008419397632835,"161":-0.005055557108404778,"162":0.08122269784480664,"163":-0.08591485362464514,"164":-0.03825321932460314,"165":0.07675456798964206,"166":0.016242355484260756,"167":-0.16199170222571782,"168":-0.06351262740177022,"169":0.1644644491788143,"170":0.02408720339695923,"171":0.061252400878281654,"172":-0.09392273530193145,"173":0.2038400370982564,"174":0.026334119207842004,"175":0.13287521170079264,"176":-0.03638775292762746,"177":0.059641277763817176,"178":0.0338380606362191,"179":-0.0035736308082877557,"180":-0.07712758227982515,"181":-0.024590085657586185,"182":0.16302198875713678,"183":0.0046665323115009745,"184":-0.1552047013319643,"185":0.1731402794318381,"186":-0.020424255312000462,"187":0.03379470977036884,"188":-0.008518422831716776,"189":0.13438196086248372,"190":0.01749368415115844,"191":0.016515533453922558,"192":-0.08026061126329248,"193":-0.0732537791795813,"194":-0.05892843437330833,"195":-0.0042882932602024415,"196":0.0034842570641742615,"197":0.018584217426815427,"198":0.12642728489794725,"199":-0.051412211796523354}},{"sx":5,"sy":5,"depth":8,"w":{"0":0.04583516522935189,"1":0.045220914274850345,"2":-0.0978861514279164,"3":-0.005227494800949276,"4":0.2028529710067876,"5":0.016905625222812887,"6":-0.08391983308985983,"7":-0.03084559521429809,"8":0.00023865725718616101,"9":-0.026322558252471363,"10":0.03859255778674176,"11":-0.01940709066793421,"12":0.10315199749859733,"13":-0.21786064846920283,"14":-0.02938519946453272,"15":-0.13151721177658748,"16":0.0038052278189529996,"17":0.031234789555614553,"18":0.06392757756715038,"19":-0.06476757740164166,"20":-0.10296543598622619,"21":0.07893760592686545,"22":-0.0751925048022334,"23":-0.03634952541242444,"24":0.08334697690993415,"25":-0.09982310786271814,"26":0.12597386177782421,"27":-0.077708153771554,"28":-0.15308885455050003,"29":0.1042029489449813,"30":0.022068648945619357,"31":0.12893943167509647,"32":-0.18879845692397457,"33":0.11257745143939801,"34":0.02216454576457322,"35":-0.016314756525419288,"36":-0.1795409236003555,"37":0.012240610639340566,"38":-0.11414199043678848,"39":0.08294323695131585,"40":-0.1590525646801721,"41":-0.04383965521045595,"42":0.04852627767442618,"43":-0.04720310149372875,"44":0.0011030555218747942,"45":0.053155608582076345,"46":-0.07153300040350775,"47":-0.17147217537821768,"48":-0.1158805725871295,"49":-0.029605613059736097,"50":0.0011732337574576219,"51":-0.12652083018418106,"52":0.020991818051453514,"53":0.12467564990277773,"54":0.04030514022558451,"55":0.011321988686231915,"56":-0.1136096659116531,"57":0.0034380728373868932,"58":-0.018131763117608557,"59":-0.017610077098812762,"60":-0.14027352765218234,"61":-0.037338556406191235,"62":-0.025718586664503152,"63":-0.005030586509583875,"64":-0.05827284326158391,"65":-0.08050830284629285,"66":0.04772151394323757,"67":0.09753234526477066,"68":-0.0896521259422961,"69":0.025854819282775717,"70":-0.0986760263271893,"71":0.0027450417903843623,"72":0.018643976649889014,"73":-0.1031720828120082,"74":-0.11108006042974655,"75":0.018456536372389927,"76":0.004526766585623593,"77":0.06679192653538575,"78":-0.0018126442760450145,"79":-0.17292035907403838,"80":-0.023186082643609975,"81":-0.021233746760960123,"82":-0.08160143191660946,"83":-0.047008965874210044,"84":-0.11533539834552008,"85":0.05019655878658111,"86":-0.09915368304094295,"87":0.07407500641870196,"88":0.008223348345972801,"89":0.018594123749255682,"90":0.051388010111328854,"91":0.06074222081645786,"92":-0.13823077742459505,"93":0.036912311647819815,"94":-0.21843400624765355,"95":0.05467135579258104,"96":0.14999695695555287,"97":0.0589653005497026,"98":-0.05071387753783456,"99":0.023702331404594403,"100":-0.20576922936673375,"101":0.03625801509060979,"102":-0.15811241501303075,"103":0.0034625098120047264,"104":0.02753957885262779,"105":0.00537153079332261,"106":-0.06280881104736401,"107":-0.09923475921243027,"108":-0.04228571652748282,"109":-0.265273429817229,"110":-0.034493473867256326,"111":0.10101909915807744,"112":-0.10551867567836619,"113":0.00553600002403254,"114":0.06816253734595511,"115":-0.037890450191813196,"116":-0.09950370628157058,"117":0.13599749711153536,"118":0.020332342712188346,"119":-0.021306379355522247,"120":-0.04177841736226376,"121":0.09515640144577257,"122":-0.17301714009746635,"123":0.12424373798353436,"124":-0.10251711498272312,"125":0.005264141176593479,"126":-0.025328294671265378,"127":-0.09431613288253668,"128":0.04590998883235106,"129":-0.06557817231783901,"130":-0.042654687191902366,"131":0.14539673303569015,"132":-0.25022949704884495,"133":-0.10459351263710921,"134":-0.048649048748318435,"135":-0.13412071540434622,"136":0.12751933158163498,"137":0.09549011967381528,"138":-0.10966582601869182,"139":0.0023471916990566075,"140":-0.12686467324021197,"141":-0.07784231997528684,"142":0.006758605688311098,"143":-0.3361667122123678,"144":0.16939137684576142,"145":-0.05241797443715538,"146":-0.19096213932475684,"147":0.07049738862594569,"148":-0.23162801219960938,"149":-0.03944339027577696,"150":-0.1834465355065797,"151":0.012860415082404375,"152":0.05871644772314109,"153":-0.070679864924256,"154":-0.18174268601418936,"155":-0.05240191118245584,"156":-0.25003651273277394,"157":-0.05947314456466126,"158":-0.05041019930482119,"159":-0.12635194202096584,"160":-0.18169825139002246,"161":0.06970674400697728,"162":-0.047412241417746574,"163":0.1264571377170159,"164":-0.049623344252024484,"165":0.05257276919680867,"166":0.04445615791518286,"167":-0.09306353215591257,"168":-0.039461921406737585,"169":0.27636743538762376,"170":-0.05288742774361134,"171":0.10708425889484996,"172":-0.07195792431695136,"173":-0.08695792808145839,"174":0.2340737981154026,"175":-0.12286700715053352,"176":0.15978159615810622,"177":0.1473670456782701,"178":-0.14215300946738296,"179":0.11218902859944334,"180":-0.1786011520856939,"181":-0.08119102561644549,"182":0.182326000875477,"183":-0.14989315345894025,"184":0.03662122577285032,"185":0.15623838441836363,"186":-0.03766456471451907,"187":0.2089850668847866,"188":-0.3254430782921359,"189":0.08266356303567714,"190":0.16117678529936155,"191":-0.1797423560636042,"192":0.0662844636086679,"193":0.12406728858436383,"194":-0.08817024146789067,"195":0.19367649528382974,"196":-0.1808566019229506,"197":-0.1365581074587548,"198":0.18606055328279117,"199":-0.2279639578226011}},{"sx":5,"sy":5,"depth":8,"w":{"0":-0.1868993391440919,"1":0.10552799620559548,"2":0.13581982867634707,"3":0.16950655295594627,"4":-0.04266733038485817,"5":0.1873622169460245,"6":0.1275963586655302,"7":0.236368810717619,"8":-0.11925553635082527,"9":0.042791207753815175,"10":-0.04932245925041624,"11":0.2946204246454086,"12":0.18116021128470183,"13":0.2593415085656691,"14":0.13497592453986818,"15":0.09433512974082395,"16":-0.07057610689418017,"17":-0.022296611041595683,"18":-0.00022146711339437455,"19":0.1629959441396273,"20":-0.04303313530139363,"21":-0.1116998638295223,"22":-0.1308771959783109,"23":-0.14334825615596122,"24":0.04800791838480445,"25":-0.10188642636183089,"26":-0.026328440935835442,"27":-0.13462235536376782,"28":-0.06464100953303062,"29":-0.10488164873580888,"30":0.07782524451738704,"31":-0.0501462273569947,"32":0.07838482694119683,"33":-0.02479461524774766,"34":-0.14510073171368434,"35":-0.0007692181397330434,"36":-0.08339768530790065,"37":-0.09690922958562664,"38":0.00833146748910191,"39":-0.11864830767455958,"40":0.10962646564810637,"41":-0.011235919415953635,"42":-0.030989172999793334,"43":-0.003533256091085106,"44":0.06056365571765798,"45":-0.0389356741822863,"46":-0.04283896985664863,"47":-0.05041741298357463,"48":0.09910921658400254,"49":0.015459778045436516,"50":-0.04076704155829883,"51":-0.03148640941435536,"52":0.02514100874638404,"53":-0.015227785876686585,"54":-0.1501093141626238,"55":-0.155201056156852,"56":-0.03794095732277234,"57":0.15685284161784716,"58":0.09563789213745662,"59":0.17936644478395763,"60":-0.17387721542255463,"61":0.13435218454423012,"62":0.14663395516631816,"63":0.06103136846623158,"64":-0.0006445680592425917,"65":0.1047047266177584,"66":0.09739327654683774,"67":0.19673876577708113,"68":0.07315131936540027,"69":0.25640794491176955,"70":0.17776846639807165,"71":0.17286644642551283,"72":-0.023961485728660213,"73":0.15428118626445805,"74":-0.01292752777390477,"75":0.2843781292910511,"76":0.1147690011436156,"77":0.08823579106005935,"78":0.18192171280932873,"79":-0.02300850128270741,"80":-0.16338653082662674,"81":-0.09909995295082433,"82":-0.019224014138248882,"83":-0.19536213816564066,"84":0.11716317573418017,"85":-0.06955092217497319,"86":-0.16557251253186228,"87":-0.15235561121225777,"88":-0.044657527040912096,"89":0.037773261400029214,"90":-0.10398522405747952,"91":-0.09666350792542977,"92":0.014761874671947737,"93":-0.029513065930627483,"94":0.011068596145559214,"95":-0.09735929622150116,"96":-0.13637774647059794,"97":-0.12627769127713995,"98":-0.031246621822284236,"99":-0.06379511041378066,"100":0.0253840643323707,"101":-0.031167258527530876,"102":-0.125093343027871,"103":-0.1639691824669549,"104":-0.04023507888203552,"105":-0.12020738887265875,"106":-0.1284611628645023,"107":-0.15713913413570346,"108":0.04959428422028968,"109":-0.1535423192451318,"110":0.16822595985281533,"111":-0.2527657018497363,"112":0.012302760134163412,"113":-0.01838370572044705,"114":-0.027165651824197102,"115":-0.027022592526514136,"116":-0.0365532936858387,"117":-0.050386751011847884,"118":0.12436225148936533,"119":-0.19313189900197522,"120":-0.12410012528362951,"121":-0.17899165799288286,"122":0.0915444870715891,"123":-0.2501359301009491,"124":-0.0706343025353466,"125":-0.25046209743881265,"126":-0.0758502928802178,"127":-0.06928957901061919,"128":-0.09207117260064857,"129":-0.12074531481829535,"130":0.008676269295185968,"131":-0.10994017242983875,"132":-0.023584604206831023,"133":-0.09439102070740038,"134":-0.1323408423732424,"135":-0.03700898887452898,"136":0.05502832456695432,"137":-0.08385501787410196,"138":0.01986968610956789,"139":-0.09040557512541483,"140":-0.13367162229560428,"141":-0.09312673186729872,"142":-0.16106914380582965,"143":-0.016785989988902426,"144":-0.07255934157745558,"145":-0.11649930860846267,"146":-0.07380782624727925,"147":0.0591140592834003,"148":-0.00018946910185097757,"149":-0.19222656685735628,"150":-0.211070779947699,"151":-0.10661472827097511,"152":-0.08877021701461306,"153":-0.06762367582840924,"154":-0.19592816931594145,"155":-0.041745136642977486,"156":-0.12260878378239068,"157":-0.09849582953431932,"158":0.02468049727701034,"159":-0.11286849190169404,"160":-0.07695232399161353,"161":0.024300755755005475,"162":0.04094706736770348,"163":0.0007457323547909146,"164":0.10414642742544526,"165":-0.02737750324184547,"166":-0.02090424824172226,"167":0.034345099007344664,"168":-0.07165450192449849,"169":-0.06217523275201219,"170":0.011764494032204432,"171":-0.15790560070733292,"172":0.003685899995258043,"173":-0.03491937962360311,"174":-0.11621588053313443,"175":0.021337532026161947,"176":-0.0975096018371328,"177":-0.007211694621547795,"178":-0.037301045427729565,"179":-0.05244138088797808,"180":0.10143235856026264,"181":-0.09292249566521112,"182":-0.018048211657460976,"183":0.08051389992214063,"184":0.011176784884007945,"185":-0.03048980291766726,"186":-0.01843565202845095,"187":-0.13837378229620745,"188":-0.032188313015120366,"189":-0.0463939078978031,"190":-0.09824784396478323,"191":0.07232324856252426,"192":0.10865146345253325,"193":-0.11703434215433386,"194":-0.05464195595835455,"195":-0.007471993072178917,"196":0.1507750536151098,"197":-0.010540853353286642,"198":-0.030806666061845813,"199":-0.0481874355755071}},{"sx":5,"sy":5,"depth":8,"w":{"0":-0.027173378637719247,"1":0.05347609624023808,"2":0.045137147599759564,"3":-0.201454820953583,"4":-0.06097555150149063,"5":0.011590470139969276,"6":0.004463132376925768,"7":0.0282423130386807,"8":0.06769622896994618,"9":-0.13386637432674095,"10":0.011297918418614026,"11":-0.08201014896751274,"12":-0.0700177093878341,"13":-0.16613283592369768,"14":0.007229015777431484,"15":-0.08846494629678336,"16":-0.007220048175801392,"17":-0.16081143514623267,"18":-0.03069898840842564,"19":-0.10062847701090118,"20":-0.07001317355484214,"21":0.05881425228841034,"22":-0.062311120942228626,"23":-0.11869020221575464,"24":0.024762126210331494,"25":-0.01416887094093946,"26":0.052601411713246185,"27":-0.004928132825585133,"28":-0.0010591627982559308,"29":-0.006277722437235836,"30":0.013395322022079669,"31":-0.052714364741835766,"32":-0.05646202659989622,"33":-0.009039603303600681,"34":-0.028208305083553636,"35":-0.2191298170864202,"36":-0.11390168875983796,"37":0.056115754780200706,"38":0.08289638733790623,"39":-0.03364174641257977,"40":-0.02331354329382762,"41":0.013797657152691725,"42":-0.07134761021094742,"43":-0.026858837680620765,"44":-0.03346046001369745,"45":-0.05468950527065937,"46":0.05929162726067235,"47":-0.004729247109491052,"48":0.11628219911364543,"49":-0.07695039947372011,"50":-0.1450508704184321,"51":-0.015392314581020299,"52":-0.07981862340833733,"53":-0.0244509841142423,"54":-0.1362852340515427,"55":0.0021497231241813398,"56":0.051119321635400235,"57":-0.06011006430942233,"58":-0.02318549463652405,"59":-0.08824252146361582,"60":0.1255698132830308,"61":-0.1729506418030808,"62":-0.10839410607721382,"63":-0.014158153661720355,"64":-0.09728259743735046,"65":-0.04747766852343896,"66":-0.04157089115794015,"67":-0.03574993194521457,"68":-0.05303920272489975,"69":-0.09615549612837933,"70":0.03885013213372797,"71":0.006005436134208182,"72":-0.021177988063064736,"73":0.06765483221826044,"74":-0.028468983203232885,"75":-0.05971787147410748,"76":-0.00975488172583546,"77":-0.10106655183315201,"78":-0.026048081985096394,"79":0.014041534581189697,"80":-0.07499829081395515,"81":-0.03499219541549383,"82":0.03141793654726729,"83":-0.08021877669439967,"84":-0.11437965427233725,"85":-0.024264813498938876,"86":0.057909221206048904,"87":-0.1387959426451401,"88":0.15604164469249002,"89":-0.03314187386362765,"90":-0.03646880690783495,"91":0.03563367341449203,"92":-0.12482084263689425,"93":-0.015236143646422104,"94":0.018139548514118215,"95":0.04208673771777138,"96":0.07678182017897157,"97":0.030553256958372358,"98":-0.029416330588572945,"99":-0.0083262585471221,"100":-0.11296331208587458,"101":0.06043139973422565,"102":0.12018573310492717,"103":0.03316179826506535,"104":0.042196130159212294,"105":-0.0019232078990721706,"106":-0.06377386636452043,"107":-0.07525179428682909,"108":-0.07662240690787195,"109":-0.10677429024142797,"110":0.015025821598787592,"111":-0.04916783417932499,"112":-0.06895123787202266,"113":-0.006895025358304769,"114":-0.02096210838550942,"115":0.0017816860342198147,"116":-0.04968372608771181,"117":0.011783062686345392,"118":0.006470247775386787,"119":-0.017093972849986396,"120":-0.009911421766546023,"121":0.05670770952703033,"122":0.2264149180648337,"123":0.05233497010904971,"124":-0.05295330793445206,"125":0.045871133871263986,"126":0.04403765380322834,"127":-0.04728210085843886,"128":0.035592900757416175,"129":0.033385614157603924,"130":0.09693187407522029,"131":-0.03915369001582129,"132":-0.145016434228121,"133":0.08448636003629495,"134":0.0488242940565641,"135":-0.07004078990623937,"136":0.05648815543014917,"137":0.06711400014570601,"138":-0.13719187580709752,"139":0.02036205430432928,"140":0.23255356505388108,"141":-0.015011803248491563,"142":0.03514746938446886,"143":-0.06401318672507925,"144":0.13909553448407533,"145":0.07141499143728126,"146":0.11954856359617973,"147":0.09726442040687068,"148":0.04293244131253768,"149":0.04778277740416557,"150":0.07305898463193694,"151":-0.15415859922123432,"152":0.052141638261531516,"153":0.07003317845754231,"154":-0.03686908506335788,"155":0.01889659185072622,"156":0.12035817218526217,"157":-0.001588175031849093,"158":-0.023521886301295213,"159":-0.041538828891608696,"160":0.06284836527252208,"161":-0.05152482282962398,"162":0.0580628473894331,"163":0.08129100304119295,"164":0.19209923858951322,"165":0.10455657928670002,"166":0.04330861158410652,"167":-0.01226640306728768,"168":-0.07855153144870711,"169":-0.0043462956837515745,"170":-0.11925902804601074,"171":0.058395207625087014,"172":-0.12306986049610634,"173":-0.11265195807956951,"174":0.000691848328547622,"175":0.12987941971447745,"176":-0.007036165451355765,"177":-0.005908627776635705,"178":0.04353902615639665,"179":0.04805123885629299,"180":-0.01490659166000619,"181":-0.12396776428813647,"182":-0.013046030743297138,"183":-0.043572341688874396,"184":-0.0813228546852637,"185":-0.015920303400481506,"186":-0.04127859265170661,"187":0.042135994611317215,"188":-0.07413261693282672,"189":-0.007209644492404079,"190":0.0709297055225611,"191":0.0030110391637490335,"192":-0.064571164526596,"193":-0.005442397993990836,"194":0.03235170629276012,"195":0.06066603712511859,"196":-0.13939691029313925,"197":-0.06458224249099022,"198":-0.016489482183577143,"199":0.14937452556057296}},{"sx":5,"sy":5,"depth":8,"w":{"0":0.13335065448106395,"1":-0.07603455191345909,"2":0.04415197397657813,"3":0.050495920192792504,"4":-0.09447069906060662,"5":0.029848910525948607,"6":0.048615176618102045,"7":-0.06343081718958062,"8":-0.004953074836952674,"9":-0.0568038697006759,"10":0.061011552853989376,"11":-0.11779176055526289,"12":0.01808008850493721,"13":-0.009392406842287386,"14":0.03432309312225344,"15":0.031519808886868984,"16":-0.01169906302397118,"17":0.06915890102109142,"18":-0.09085926770537966,"19":-0.03988859325096633,"20":-0.05939600952730224,"21":0.0010875757936808677,"22":0.035978929139488545,"23":-0.04582181683391802,"24":-0.09669946944547927,"25":0.00546332278182129,"26":-0.09256579303488631,"27":-0.07748137682450099,"28":0.07390378412819112,"29":-0.01440779321247488,"30":0.05411986042516232,"31":0.02165392689090634,"32":0.00967968328153093,"33":-0.010619197500910362,"34":0.0656834615072322,"35":0.007768130621796348,"36":-0.03676032836801427,"37":0.03652342439459673,"38":-0.09582140112107605,"39":-0.16442335911118433,"40":-0.0050974696806732256,"41":-0.06794187639633228,"42":0.07095695568625872,"43":0.06472255149647492,"44":-0.09905727767713009,"45":-0.01826455470796704,"46":-0.046445614367319976,"47":0.12016814317309069,"48":0.06998209012018303,"49":-0.08203735067891609,"50":-0.05293115595348539,"51":0.05318328431125352,"52":-0.05588558196123533,"53":0.023451917240390346,"54":0.021250128504256047,"55":-0.007844337878993808,"56":-0.21887774903594612,"57":-0.006483794612587977,"58":-0.11252984257393377,"59":-0.0033827685464081617,"60":0.06292460534106063,"61":0.017460556970713144,"62":-0.09968184185462613,"63":0.0022923781657470813,"64":-0.06402078726967397,"65":-0.1709330252756577,"66":-0.06290400709416989,"67":-0.09253405961401873,"68":-0.040904358287846346,"69":0.0227008533373183,"70":-0.03303490947926673,"71":-0.12157962205689407,"72":0.0831118018882151,"73":0.08990179258986707,"74":-0.05990999094023186,"75":-0.04228402242076437,"76":-0.027020304064523454,"77":-0.10731315094067316,"78":-0.021346198729476056,"79":-0.13649602205782563,"80":-0.02857926989428208,"81":-0.035744908595219595,"82":-0.05337704180882802,"83":-0.11412714151822288,"84":-0.06436975738491169,"85":0.015593978923750374,"86":-0.012248698421353007,"87":-0.036335135905671535,"88":-0.0021237934598364746,"89":-0.027497016214619526,"90":-0.11807387390611125,"91":0.010580650727349376,"92":0.009731622179138696,"93":0.11571123932648543,"94":0.1561306626928184,"95":-0.13449213094876616,"96":-0.1707976976114923,"97":-0.07536079676599844,"98":0.021249422606851042,"99":-0.044793498620989296,"100":-0.02241031223699032,"101":-0.08324204097471927,"102":-0.04719635174472568,"103":-0.009067971797103797,"104":-0.09752299876193564,"105":0.05925784303857105,"106":-0.03333232734406334,"107":0.0017188084756475997,"108":-0.009290122933722403,"109":-0.039356964946165224,"110":0.0007876278969160467,"111":-0.06819961660598645,"112":0.1507435702850803,"113":-0.04077591536464539,"114":0.03238394118997848,"115":-0.034573939217431675,"116":0.00015776992625237058,"117":-0.11448939581827393,"118":0.047741767701863363,"119":-0.03585958489042098,"120":0.07428046923440924,"121":-0.055067142534088946,"122":0.026059684589135206,"123":-0.019763456434850286,"124":-0.13858985078515207,"125":0.08230085055785492,"126":0.041145463460056375,"127":0.016239231679755824,"128":-0.0032709561761832488,"129":-0.08692075968366557,"130":-0.014105336822814559,"131":0.05842145627797552,"132":0.017026201919426952,"133":-0.019196836678770805,"134":-0.04065843564652507,"135":-0.021680227896455996,"136":0.036000811748202695,"137":-0.06513041207206138,"138":-0.14837312113124232,"139":0.0019662123848010024,"140":-0.09606970093432211,"141":0.03743923910504253,"142":0.004381313603261055,"143":0.025105244926747775,"144":-0.12877875850279416,"145":-0.023993730633284867,"146":0.012252924108471005,"147":0.027478494002108972,"148":-0.06583452321063037,"149":0.08425905651059869,"150":0.026477055386934095,"151":-0.023216211018668206,"152":-0.016995563555684285,"153":-0.011130671918688162,"154":0.05688106224749661,"155":0.029232035350222604,"156":0.13045298023899082,"157":0.05096556546360602,"158":0.02189075571784132,"159":-0.10425031124715801,"160":0.08300961814096489,"161":0.00483841377837204,"162":0.08791461218083518,"163":0.02295850098569981,"164":-0.09543667363416987,"165":0.061495682352482206,"166":-0.0767173403565965,"167":0.07474926962161037,"168":0.05543353193858504,"169":0.05607397288398944,"170":-0.040704185984194494,"171":-0.05618624642930742,"172":0.052833625027388545,"173":0.03040923822785691,"174":-0.16127463468127556,"175":-0.038152022985151454,"176":0.02900060656404159,"177":0.09022793473908769,"178":-0.12744233985831457,"179":-0.0448307516505547,"180":0.09315601559559208,"181":-0.005802823629931381,"182":-0.04326537219252268,"183":-0.034298975776669134,"184":0.051536462531402025,"185":0.039573075896217,"186":0.003781632405832438,"187":-0.019791951657848823,"188":-0.03737205675985946,"189":0.0650076919875644,"190":-0.0486041793252838,"191":-0.026123052601025827,"192":-0.02164582592894741,"193":-0.039566225083113526,"194":-0.03027318835023006,"195":-0.06508821179543411,"196":0.0082221105502113,"197":-0.03581185203717081,"198":0.1150906350119963,"199":0.010531547506064047}},{"sx":5,"sy":5,"depth":8,"w":{"0":0.15421755947163693,"1":0.05315572662099865,"2":-0.004812544243361701,"3":-0.17822976427253948,"4":0.06548955774972973,"5":-0.01034664390420459,"6":-0.11904756956111662,"7":0.13165609247818408,"8":-0.06206784555360276,"9":-0.0028151475135713777,"10":-0.07646905979690356,"11":0.00011081404110823529,"12":-0.09004131928275144,"13":-0.02974180932054801,"14":-0.0569844622172449,"15":0.06533967859318227,"16":-0.01588399931976144,"17":0.02466762475333485,"18":0.119181545042514,"19":0.042697927511352034,"20":-0.15046054605385528,"21":0.13953062377999165,"22":0.017215865316561635,"23":0.030734017442187966,"24":-0.202104672573904,"25":-0.08384600695668527,"26":0.055157674962726895,"27":-0.0702477121668007,"28":0.03721647057552786,"29":0.07166337899641695,"30":0.0583572925251589,"31":0.041076672193600006,"32":-0.17413813758864746,"33":0.026308174721352773,"34":0.1552557730177841,"35":0.02984949709898278,"36":-0.0271528516801232,"37":0.15467939915875167,"38":0.06259556704133051,"39":-0.04070122921151235,"40":-0.14698641076256466,"41":0.07087206873244759,"42":0.14467806988733556,"43":-0.08939129330312451,"44":-0.02631824134593888,"45":0.09499988296975603,"46":0.0793159879880586,"47":0.12575058457641036,"48":-0.11824175600343653,"49":-0.06059771643138021,"50":0.012326972348495776,"51":0.012542837439650213,"52":0.11728305614659526,"53":0.07896052342240992,"54":0.017790818652473162,"55":0.13726990328522296,"56":0.02602870357401226,"57":-0.08130640833160686,"58":-0.031617524780087516,"59":-0.06146742532930694,"60":0.19843985574579187,"61":0.0977375970353164,"62":0.0012041060670450504,"63":-0.08196820682041087,"64":-0.009635827504870947,"65":-0.04582835466670126,"66":-0.02904842541584036,"67":-0.050625657936391254,"68":0.14552042727288142,"69":-0.10611836123415148,"70":-0.010451436099164029,"71":0.1663517039790642,"72":-0.008763481040923289,"73":0.03805654272337939,"74":-0.09948025419492797,"75":-0.017490852968784255,"76":-0.000802654433285848,"77":-0.18953779722672665,"78":-0.009032345727859114,"79":0.09080783627216246,"80":0.12960879047520404,"81":-0.1227132168361871,"82":-0.20275791888804495,"83":-0.1191357377547279,"84":-0.04391481805131906,"85":-0.00749643496978023,"86":0.027962229533280016,"87":-0.32401608124505843,"88":-0.04539263922616592,"89":-0.04243828639396558,"90":0.012973630988671306,"91":-0.23368568458922373,"92":-0.02338549368884782,"93":-0.07513870437269421,"94":-0.11857188736442764,"95":-0.006041261644626685,"96":-0.04057540170575218,"97":0.1569491602730588,"98":0.15642830263588942,"99":0.04169762095515586,"100":-0.05494111974668164,"101":0.15632928051989511,"102":-0.06181428528585764,"103":0.09721331373555026,"104":-0.08687545035492188,"105":0.11352983324212124,"106":0.1262065927278681,"107":-0.037123814493422544,"108":0.006150755486996883,"109":0.22870538287608355,"110":0.1677210559470332,"111":0.17802931306334044,"112":-0.04835069116327815,"113":0.08303697427503012,"114":-0.012051625151767244,"115":0.1651419112132524,"116":0.2593717159662011,"117":0.176765418256188,"118":-0.1103220659378861,"119":0.09001630938050406,"120":-0.1273275668462514,"121":-0.17035620272895782,"122":-0.034450614160409274,"123":-0.0386074223667058,"124":0.0014208328217566743,"125":0.02281332147624989,"126":-0.02940733118171554,"127":-0.20541811419247935,"128":-0.23349301662264227,"129":-0.15786384065539535,"130":-0.12829812212310449,"131":0.09860813593240553,"132":-0.10918012597354682,"133":-0.14086875540929886,"134":-0.12445262975934393,"135":-0.11131548250884021,"136":-0.0415459315403516,"137":-0.16020243367584752,"138":-0.15348154097306443,"139":-0.05285484850860228,"140":-0.11823339905357919,"141":-0.09793299159474718,"142":-0.10392364501279171,"143":-0.1105678413037755,"144":0.028404624865605355,"145":-0.015511801844902567,"146":-0.171890661685504,"147":-0.1981463896218834,"148":-0.12213457279798118,"149":-0.03478301404979144,"150":0.0037443282050511634,"151":-0.08913406037802282,"152":0.10717496736122395,"153":0.06840181820742545,"154":0.022747655570942448,"155":-0.06232526664158966,"156":-0.1513719528333788,"157":-0.20007246828696607,"158":0.0012012461284310982,"159":0.016155274450888067,"160":0.11167824572902196,"161":-0.15994834346367812,"162":-0.20880352381042072,"163":-0.19894967347478917,"164":-0.12798729850241633,"165":-0.059953360113041,"166":-0.2927853318825672,"167":0.17999865686890784,"168":0.05732620330026134,"169":0.09279598237186609,"170":-0.06166467876094828,"171":-0.20645944349504722,"172":-0.229736794648168,"173":-0.16153290448694974,"174":-0.1968104071417263,"175":0.19145338721271007,"176":0.12092935675276442,"177":0.07928650795927779,"178":0.012026797614992703,"179":0.01738291479281824,"180":-0.005112852859739994,"181":0.13146003789984206,"182":-0.11166617837746257,"183":-0.04265412670113246,"184":0.006332364404199196,"185":-0.04101577773928579,"186":-0.07408821150411547,"187":-0.03178833518333973,"188":-0.021393262390306974,"189":-0.07412304586442472,"190":-0.04624327892852191,"191":-0.1493617359300402,"192":-0.06659561103975292,"193":-0.0915530797860041,"194":-0.04290625191882984,"195":0.08414215058199839,"196":-0.1382321845937605,"197":-0.156399369273841,"198":-0.0021036930032914216,"199":-0.011756642639756154}},{"sx":5,"sy":5,"depth":8,"w":{"0":-0.10282257873247998,"1":-0.07317640243704596,"2":-0.05541395972413853,"3":-0.05306076116322238,"4":-0.07207214340267933,"5":-0.05366622417882706,"6":-0.040892992379800146,"7":-0.09221622935310644,"8":0.1676907891818232,"9":-0.12086192207426467,"10":-0.09942535840057586,"11":-0.12055837654048168,"12":-0.04894990753782229,"13":-0.11618264220483056,"14":-0.012278331835998755,"15":-0.07333062844457681,"16":0.002717099928142154,"17":-0.04153204531306016,"18":-0.11328075323914263,"19":-0.07055587326164406,"20":-0.12675079792020472,"21":0.03574332711734496,"22":-0.08101873037737752,"23":-0.0411299396184054,"24":-0.030644827038620214,"25":-0.02978907284310108,"26":0.04499768922482233,"27":-0.1509824642897751,"28":-0.11766808718089995,"29":-0.009849782567933773,"30":-0.18751936906743677,"31":-0.03383952609867571,"32":-0.10468119164202389,"33":-0.05717418744363979,"34":-0.18762579704903065,"35":-0.011936021894568275,"36":-0.18955756627960207,"37":-0.1836870332430643,"38":-0.11150602129957951,"39":-0.00759234899275129,"40":0.07294878116545127,"41":0.09543056126435903,"42":-0.2174222562065956,"43":0.024674392724398364,"44":-0.15394325715354756,"45":0.02828746852450015,"46":-0.0020727824597143348,"47":-0.14970743641675807,"48":0.036528870855790804,"49":-0.027528666109139427,"50":-0.019279803058603034,"51":-0.051545533835295934,"52":-0.04506173697347469,"53":0.04221530430975787,"54":0.11314586532744654,"55":0.020216038558383755,"56":0.21820077337613036,"57":0.14051550612343358,"58":-0.0917332078401593,"59":0.08835733604858031,"60":0.0051527576307819345,"61":-0.07422335154268579,"62":0.05611782104452729,"63":-0.06960735399127836,"64":0.057361207664979076,"65":-0.026756723791776228,"66":0.0654116059498917,"67":-0.014018439835263054,"68":-0.014136153667309118,"69":0.03614956495456199,"70":0.2709402792178997,"71":0.06171577647144713,"72":0.007302266761103198,"73":-0.08569167237472321,"74":-0.07175191856906035,"75":0.08238788923348855,"76":0.028425950577827278,"77":-0.06876426004366692,"78":-0.01564189375520281,"79":0.006387820361253056,"80":0.00850323872493425,"81":0.025049080302468506,"82":-0.06890815991638119,"83":0.08569297784241142,"84":-0.21936957158358927,"85":-0.20438111177826707,"86":0.06823181116035099,"87":-0.14162289716631732,"88":0.10987414743564072,"89":0.0524110062858726,"90":-0.04491206191076735,"91":0.03139473781182055,"92":-0.09842318926886727,"93":-0.1473555228302205,"94":-0.06479894788166647,"95":-0.22197968712072924,"96":0.04519448727798824,"97":0.11632902047763927,"98":-0.17265361569100435,"99":-0.17022448097796777,"100":-0.20811316780814237,"101":-0.11274617257316645,"102":-0.014246089935851174,"103":-0.10567813823573625,"104":0.05354471251481903,"105":0.18727777853055763,"106":-0.17280433478409776,"107":-0.04422122930666051,"108":-0.035547426566811154,"109":0.059778404944674984,"110":0.026439094200857643,"111":-0.14194928328373843,"112":-0.02162391820365183,"113":0.12714908876441797,"114":0.04152252527591652,"115":-0.022967349729368924,"116":0.020155539027378825,"117":-0.07657638865998197,"118":0.04486563510749436,"119":-0.1768033894607948,"120":0.025184643319566262,"121":0.0396542577654376,"122":-0.010718064181951113,"123":0.09866401047840873,"124":0.09367279573061021,"125":0.06947242444057154,"126":0.24226083362494502,"127":0.05340181594120254,"128":0.16693796954889192,"129":0.14405736326829258,"130":-0.029193452055810188,"131":0.01920090787529778,"132":0.13869530106762096,"133":-0.07618880981983316,"134":0.19363042240082257,"135":-0.09844290410173402,"136":0.08223470111155343,"137":0.0342251481871965,"138":-0.010659460660716236,"139":-0.012961406298826212,"140":0.10018269493721547,"141":-0.0928316918035643,"142":-0.03776801233275872,"143":-0.08558066751687705,"144":0.029915201445631045,"145":0.03286690123691347,"146":0.005317564176015642,"147":0.08911259998023294,"148":0.02584371474277979,"149":-0.0671170683723774,"150":0.0031571466469944823,"151":-0.06246910482468285,"152":0.15052699819122617,"153":0.05784033682580057,"154":-0.024119232812080144,"155":-0.03257871132691968,"156":-0.047360427437153955,"157":-0.0893449144938887,"158":0.07228173147562567,"159":-0.07749692642257472,"160":-0.0916984716192006,"161":-0.08207623067685726,"162":-0.06959761167977489,"163":-0.03454646774335158,"164":-0.005218739115295444,"165":-0.11209997795249164,"166":-0.035945000942703365,"167":-0.11157124639545589,"168":-0.03321031375569832,"169":-0.06463790889969767,"170":-0.02608582679902531,"171":-0.10399046261924401,"172":-0.11053156314600787,"173":0.014996705032156634,"174":-0.08091092807726456,"175":-0.12182876146874871,"176":-0.09813396742856989,"177":-0.03956734132950455,"178":0.05563819011949588,"179":-0.051637507211542755,"180":0.04445380327842266,"181":0.040756423131194985,"182":-0.07568460253638112,"183":0.03738119192921482,"184":-0.03086260827216429,"185":-0.06034707134801629,"186":-0.060314116482730815,"187":0.06869565457952267,"188":0.14541402490573554,"189":0.0784978542544233,"190":-0.07219022141818483,"191":-0.03916030828454366,"192":-0.0445137354925082,"193":0.012800962220613677,"194":0.11668495498432313,"195":-0.033725851641727804,"196":-0.03223391949073965,"197":-0.03525684000930371,"198":-0.022637362367693314,"199":-0.04948950203020655}},{"sx":5,"sy":5,"depth":8,"w":{"0":0.046283679221095685,"1":0.017101806907930076,"2":-0.027308943315159477,"3":-0.06868170820467993,"4":-0.033437316218455346,"5":-0.19127492190776374,"6":-0.1705656947109091,"7":0.03916444444801432,"8":0.05588184043066836,"9":0.006637792290563509,"10":-0.1316757151011995,"11":-0.19024574090319543,"12":-0.034198013617864745,"13":-0.10128086135921402,"14":-0.14536043096519385,"15":0.03909190937451705,"16":0.1076717525778366,"17":-0.04628257830022342,"18":-0.23200385816068275,"19":-0.037982573615441634,"20":0.15249553247017913,"21":-0.1209564669920487,"22":0.03493592328319356,"23":-0.12417795821100494,"24":0.04218031467428282,"25":-0.14727990027115784,"26":-0.055250649270841855,"27":-0.07368377178068605,"28":0.21298350495572352,"29":-0.14594609871790443,"30":0.1196593958950358,"31":-0.20623086795577986,"32":0.05031997284248185,"33":0.0961446475809436,"34":0.03765035002816119,"35":0.058634357796034736,"36":0.03899994158687535,"37":-0.03533500144411737,"38":0.12839264502030545,"39":-0.029093455577930458,"40":0.12489654422358967,"41":0.059967362660978484,"42":0.04910996740072605,"43":-0.04944885890188358,"44":-0.013807755482471772,"45":0.07316298872837042,"46":0.04433050545382642,"47":-0.0048326179939763,"48":-0.059231100437281775,"49":-0.19104238603014115,"50":-0.07300167271044901,"51":-0.10887679891976328,"52":0.0035845286620015196,"53":0.1377909177763882,"54":0.09332748092556624,"55":-0.14293918406480738,"56":0.03404253562651002,"57":-0.199142446663113,"58":0.004819873698953381,"59":-0.0792633906049953,"60":0.10968434113225628,"61":-0.03706894054977706,"62":-0.03575342288558894,"63":-0.05230435387397334,"64":0.03043880363131977,"65":-0.04359646751596071,"66":-0.004496759806084546,"67":-0.2173523587169697,"68":0.02783050725112538,"69":-0.2012487167731099,"70":-0.09485970690048318,"71":0.07318028773921129,"72":-0.2718542058593189,"73":-0.09358805933365744,"74":-0.1528420180201715,"75":-0.14394057024496446,"76":0.03496839996136726,"77":-0.15133401381570313,"78":-0.19186083850841576,"79":-0.18009048981767672,"80":0.04682272375597306,"81":0.017295192573688938,"82":-0.1701354897020485,"83":0.042588594113209886,"84":0.04232210832257455,"85":-0.11707077898553168,"86":-0.017348761724358706,"87":-0.2136714443968914,"88":-0.028162175104419467,"89":0.03754369713573563,"90":0.10289187310658866,"91":-0.0229218403298699,"92":0.021311237543291187,"93":0.01712271964405339,"94":-0.08039024902378394,"95":-0.050635888456778425,"96":0.1930661279782511,"97":0.07407201579732595,"98":0.10208194417860085,"99":0.15060606662340117,"100":-0.004032700834521067,"101":0.13016532278876627,"102":0.004565896922365573,"103":0.12944632375501752,"104":0.06927364950865927,"105":0.12643182009593137,"106":-0.14702859474256255,"107":0.10563995906795016,"108":0.06871269302759617,"109":0.08234595768413693,"110":0.03246759585427165,"111":0.07018150660535971,"112":-0.1978607663433154,"113":-0.03664909647000331,"114":0.010449547379158953,"115":-0.01057038134804848,"116":0.08442224094168091,"117":0.0762107150711681,"118":-0.10061951960923182,"119":0.006733215932199694,"120":0.054811366587835024,"121":-0.05773948076224697,"122":-0.1672110239492776,"123":-0.05841907181045215,"124":0.07561646545983718,"125":-0.019829575474108255,"126":-0.1818441160618698,"127":0.10241950713702386,"128":-0.09291500303552566,"129":-0.09527730276867209,"130":-0.11263050416730894,"131":-0.127806675710036,"132":0.05429188376191055,"133":-0.20853791032362243,"134":-0.26901713197612165,"135":0.10330487026966566,"136":-0.011356799567192039,"137":-0.06108225470882073,"138":-0.13627961148193293,"139":-0.19513797807856498,"140":0.024497681104446153,"141":-0.20645487427076695,"142":0.09533124622660834,"143":-0.1438962325524686,"144":0.2321492496257125,"145":-0.150724490693332,"146":0.011622035791088423,"147":0.0008647199617975053,"148":0.02662638752964063,"149":-0.25895772174088294,"150":0.0006471538836530443,"151":0.0382080579837253,"152":0.05248648872665749,"153":-0.0973085029952758,"154":-0.03296233868564836,"155":0.12222283275104005,"156":-0.17881307625249263,"157":0.047354673430371017,"158":-0.10233662513468515,"159":0.045427755345233016,"160":0.04457646994390337,"161":-0.029193799887939593,"162":-0.005057206379209212,"163":0.04381825933385723,"164":0.04331671114523864,"165":-0.18454904595424065,"166":-0.08609941564558239,"167":-0.07250144433761634,"168":-0.11440448486305059,"169":-0.1361679292369541,"170":-0.0028184245950221283,"171":0.003999551326192424,"172":0.16543606095883417,"173":-0.001315205778826327,"174":-0.09423949703789639,"175":-0.06952352751598609,"176":0.061784924386192944,"177":-0.14904737903537377,"178":0.02087744868651267,"179":0.11917259558781393,"180":0.15301735695801932,"181":-0.05086950698874336,"182":-0.18440974083893424,"183":0.02975410607072296,"184":-0.1035557950647656,"185":-0.09893542988510091,"186":0.09229042759397255,"187":0.01156758723291077,"188":0.1987685826719168,"189":-0.15253161911660637,"190":-0.06556855202791664,"191":-0.0404945385638236,"192":0.09389579799530529,"193":-0.14124251639434532,"194":0.0038531436717374455,"195":0.10369167028401494,"196":0.02406867728197327,"197":-0.06835117090786261,"198":0.04547523258070185,"199":-0.11882024257323129}},{"sx":5,"sy":5,"depth":8,"w":{"0":-0.001015367878093344,"1":-0.009610588422237071,"2":0.05412866644958599,"3":-0.043366850896194305,"4":-0.18780609750697635,"5":0.04360910407167928,"6":0.001393387752001523,"7":0.01989396267193774,"8":0.07611086191148621,"9":0.004272205698036053,"10":0.07133394999259461,"11":-0.08204792383154186,"12":-0.028264033596191437,"13":0.008959795051445427,"14":-0.008839533410497152,"15":0.23165637761011856,"16":0.055768921313547215,"17":-0.060935820903117555,"18":0.06919506447245542,"19":0.05412049581650693,"20":0.030992634959042073,"21":0.022345958693945664,"22":-0.10047827053700208,"23":-0.015044132151041632,"24":-0.015348529337092067,"25":-0.08559306187079044,"26":-0.05451928932774815,"27":-0.15814063313371263,"28":-0.0017575381481357182,"29":0.0303171226987361,"30":-0.03377704271874322,"31":0.04744276508832947,"32":0.03322896625396972,"33":0.13398803259169284,"34":0.08699235806226928,"35":0.07457347371813264,"36":0.0014165231198172853,"37":0.0563099473499941,"38":0.14880680733692359,"39":-0.002343368025345557,"40":-0.1460350921579073,"41":-0.023466521078760034,"42":0.18057319429291516,"43":-0.08349970468405883,"44":-0.05877975450545793,"45":-0.015082385896319201,"46":-0.06121344416929869,"47":-0.03590127491420718,"48":0.0076956538531987055,"49":-0.15939948861047595,"50":-0.024449430758785425,"51":0.002964205694701521,"52":0.026970772744903646,"53":0.034819271282966885,"54":-0.25219512058508464,"55":-0.048025886585814366,"56":-0.06538400841583986,"57":-0.1717608611618781,"58":-0.03971300250019033,"59":-0.22955632784361196,"60":-0.04581626904941516,"61":-0.040410360865987476,"62":-0.10979066982079431,"63":-0.1893453623329949,"64":0.046339301721965764,"65":-0.07497085791695243,"66":-0.15432434954584165,"67":-0.10846451654664875,"68":0.08553021629450143,"69":-0.14914703653813982,"70":-0.19827235433169985,"71":-0.0784275490821297,"72":0.1458678940437461,"73":-0.042967344169567045,"74":-0.057066621508113924,"75":-0.03584616208240612,"76":0.013184650319307467,"77":-0.1198704005386972,"78":-0.08136319706609291,"79":-0.09764595100897948,"80":0.051001969745190404,"81":0.02827022175583487,"82":-0.07952843451576457,"83":-0.10247016293076577,"84":0.022964397260564297,"85":-0.21632356937881167,"86":0.019484384557721765,"87":0.11375019414753298,"88":0.11017251211709393,"89":0.02979392160677778,"90":0.14965686189493105,"91":-0.19147568462556838,"92":-0.21470876297371944,"93":-0.006314727034851385,"94":0.0062552182250966175,"95":0.10771224622814504,"96":0.04730785391838179,"97":0.0861049788928122,"98":0.04000313335212737,"99":0.137565754157249,"100":0.07191359159643024,"101":-0.014444821491887435,"102":0.05468987899890371,"103":0.2263852777479507,"104":-0.046704723795220074,"105":0.059339074172712905,"106":-0.11836322458430315,"107":0.0262189863554968,"108":-0.11029352700583062,"109":-0.11686517940249551,"110":-0.05225304086872824,"111":0.03903194415308906,"112":-0.16547250051623436,"113":-0.04481710223198172,"114":0.08443148617007756,"115":0.029202437198602722,"116":-0.09969826603541558,"117":-0.046417895428346276,"118":-0.018509995545208907,"119":0.15503661802987287,"120":-0.1623743644384411,"121":0.19024446035208836,"122":0.06129607527254775,"123":0.15060362143827857,"124":0.021858721820470058,"125":0.09033973774804901,"126":0.11631068447727026,"127":0.16265280462129708,"128":-0.03297303600995749,"129":-0.09312288175939898,"130":0.002225756413832182,"131":-0.03483397756382962,"132":0.10668146909947376,"133":0.05774051616812282,"134":-0.0205118491903781,"135":0.031252788957126035,"136":0.039068814859503934,"137":-0.012278347282546283,"138":-0.02522813261951446,"139":-0.08159660859645726,"140":0.06849929484583386,"141":-0.02382329264594511,"142":0.048675791376055884,"143":-0.04739675879952214,"144":0.031461353732197946,"145":-0.1039467967552747,"146":-0.03943522475954041,"147":-0.04036883701212825,"148":0.03024222924444237,"149":-0.12966255220971268,"150":-0.07728629267913395,"151":-0.04134258240017302,"152":0.10314354639623233,"153":-0.13692222295200127,"154":-0.02970240658895603,"155":-0.10072603997234782,"156":-0.018589509579581942,"157":-0.10052912070026183,"158":-0.03178606425703656,"159":0.03714332532841388,"160":0.21902317231315868,"161":-0.007313947346337477,"162":-0.050739120034833204,"163":0.028875483864480522,"164":0.10616984773345896,"165":-0.10029140451285587,"166":0.11323940324873868,"167":0.0605660801008518,"168":0.08052228885323036,"169":0.024962183655363793,"170":0.20228198123247507,"171":0.06446170122106738,"172":0.06713560739508623,"173":0.1634763643950435,"174":0.06693971603856647,"175":-0.13573062789736676,"176":-0.08132774392292011,"177":0.16671075498641386,"178":0.0684036780407935,"179":-0.018226893016652413,"180":0.19297709417776363,"181":-0.005289647864622158,"182":-0.0342185497180488,"183":0.005641445034098339,"184":-0.01565803209807988,"185":0.1007258909667048,"186":0.20247872526056923,"187":-0.036034189039302514,"188":0.1101111857708143,"189":-0.13493217198206844,"190":0.04205209456525022,"191":0.12143109518210178,"192":-0.11362703103150915,"193":-0.06029925800764185,"194":0.19506592098090542,"195":-0.032081373329823144,"196":0.027088644212623483,"197":-0.014285663743356209,"198":0.05126146951365212,"199":0.061404789153498694}},{"sx":5,"sy":5,"depth":8,"w":{"0":-0.028362110728903142,"1":-0.14613154308560766,"2":0.008710180971389547,"3":0.0008824997912156491,"4":0.2179493966486373,"5":-0.10912076462857079,"6":-0.019302396385018954,"7":0.012248849882148532,"8":-0.010467669102414992,"9":-0.12417566022163827,"10":-0.10227071606159666,"11":-0.0011921032543203008,"12":0.23149906833931586,"13":-0.11877699760876244,"14":-0.1029207941542228,"15":0.1492627067670432,"16":-0.035872470239178694,"17":-0.046007775547356876,"18":0.25666563874499715,"19":-0.13653090833969195,"20":-0.06740119103842118,"21":0.09411915297725912,"22":-0.04231810574476161,"23":0.1376800404083895,"24":0.0005190209500164264,"25":0.11646734363690302,"26":0.1738745152698051,"27":0.00999127445570297,"28":0.16318982251534958,"29":0.13964590182321404,"30":0.008244638569838616,"31":0.2576514992952088,"32":-0.02857493684915126,"33":-0.04928313787662898,"34":0.054801081380658805,"35":0.0532719678029679,"36":0.22693491193377274,"37":0.017307627310857283,"38":0.019022754679608962,"39":-0.00358958851617074,"40":-0.003577160255786061,"41":-0.05833919056533167,"42":0.15419249482104608,"43":-0.014064539118116929,"44":-0.00977060414783768,"45":0.1337702082775929,"46":-0.02616544976392715,"47":0.2781089312284411,"48":0.014291774483248311,"49":0.02190858616838146,"50":-0.06143472264839337,"51":-0.061873640577065236,"52":-0.1419039954254119,"53":0.20643353452971405,"54":-0.009281464139661605,"55":0.2845576768178876,"56":-0.13122473361350556,"57":0.14796025717334185,"58":0.252704404479866,"59":-0.14475866938528903,"60":-0.025366332230309742,"61":0.10741273768993932,"62":-0.03771566441096354,"63":0.18487838794708666,"64":0.021100617073406294,"65":0.035727471845294685,"66":0.038140708997204446,"67":-0.011144873827869658,"68":0.27417549500259436,"69":0.01470830208747013,"70":0.09289708114777918,"71":0.176631944622757,"72":-0.06532636571572356,"73":-0.22550109204226737,"74":-0.1306706009615757,"75":-0.012176915937209055,"76":0.06386026471901457,"77":-0.20472706624333198,"78":0.04762048452451485,"79":0.047072397745930014,"80":-0.12835576728653655,"81":0.04112103844504844,"82":-0.09467163245092793,"83":-0.02037594735454099,"84":-0.015124491649898104,"85":-0.12051513465118106,"86":-0.09608650408125805,"87":-0.01675847711947982,"88":0.04619979456782094,"89":-0.06986157632992604,"90":-0.025315089978920968,"91":-0.08056227825880628,"92":0.06864913301025524,"93":-0.004143997143729374,"94":-0.18540641810987527,"95":-0.12465884284445172,"96":0.12788666468656582,"97":-0.22858904441824454,"98":-0.29960953075776436,"99":-0.059840233856536,"100":-0.05413423371721478,"101":-0.1812779975780167,"102":-0.10518830858051406,"103":-0.21491544497975168,"104":-0.04104433949442717,"105":0.001876193931133924,"106":-0.06231186830703397,"107":-0.20044448931674863,"108":-0.03389261413138958,"109":-0.0679319381484699,"110":-0.05328423245902064,"111":-0.11417228597961443,"112":0.0787134142484598,"113":0.07793653389648461,"114":0.030532930591849517,"115":-0.11401437614524734,"116":-0.09540106570929575,"117":0.029397064919686716,"118":-0.16826047031100513,"119":0.03808880358188566,"120":0.045239046934092086,"121":0.09124363765887858,"122":-0.09805958767928302,"123":0.04569716418602045,"124":-0.04590457508482559,"125":-0.21179756891053786,"126":-0.09398647270677783,"127":-0.14823782517869316,"128":0.007518588344061007,"129":-0.0679200821126926,"130":-0.08338087790811402,"131":0.12618506072978833,"132":-0.04873789817747871,"133":-0.1689377169513672,"134":0.0012437134583088091,"135":0.04283461203941549,"136":0.027885927182524792,"137":-0.004015812161570323,"138":-0.1495445602911267,"139":0.06100984059495918,"140":-0.10422837659316839,"141":-0.11009348944425384,"142":0.07765949337202709,"143":-0.03657224197288333,"144":0.05080270792404467,"145":-0.1293459420182079,"146":-0.11643222050676007,"147":0.02826560997011646,"148":0.09594447018142788,"149":-0.01394903751241592,"150":-0.013823178448130415,"151":-0.07820336765443499,"152":-0.024463765228992504,"153":0.04051097067001406,"154":-0.03688126558213455,"155":-0.0063190072276917775,"156":-0.08672562882837982,"157":-0.04036366838562418,"158":-0.2169639540357692,"159":-0.03883451403658853,"160":-0.024791154876167374,"161":0.08007923265126932,"162":-0.11613023215456171,"163":0.18167917140756296,"164":-0.035769229735360446,"165":-0.018512122573487295,"166":0.06954592402158347,"167":-0.03285525673366079,"168":0.17186459559027664,"169":-0.07061532002650316,"170":-0.2858001119058979,"171":0.12061574275176776,"172":-0.06643121618552626,"173":0.011761028215394037,"174":-0.0006719012758188603,"175":-0.18129401626178085,"176":0.2399070244626701,"177":0.030352861312423398,"178":-0.16810714281532088,"179":0.0910993376870039,"180":-0.19234245011738826,"181":-0.07356733817336075,"182":-0.02087590886904592,"183":-0.12021839370050683,"184":0.21430651957022018,"185":0.044523680597659106,"186":-0.051019239266609125,"187":-0.029565349104017515,"188":-0.1938575400769097,"189":-0.07965311791311329,"190":-0.06688615287302901,"191":-0.097424100241116,"192":0.0015474192040014177,"193":-0.019069012774793993,"194":-0.0442901362774526,"195":0.006928660700252925,"196":-0.12005634228500742,"197":-0.02466074619867689,"198":0.20007068710596101,"199":-0.09492603309999237}}],"biases":{"sx":1,"sy":1,"depth":16,"w":{"0":0.1207991665954586,"1":0.04325915679460621,"2":0.0037085590406180768,"3":0.04024177557541128,"4":0.08073248714824459,"5":0.12310005293187548,"6":0.04710758374826103,"7":0.07067122403257013,"8":0.12815858910003536,"9":0.06354911482385261,"10":0.045000131376081116,"11":0.08958274079479876,"12":0.04519493257815245,"13":0.18249262175878567,"14":0.04425609910588708,"15":0.08728321470011115}}},{"out_depth":16,"out_sx":12,"out_sy":12,"layer_type":"relu"},{"sx":3,"sy":3,"stride":3,"in_depth":16,"out_depth":16,"out_sx":4,"out_sy":4,"layer_type":"pool","pad":0},{"out_depth":10,"out_sx":1,"out_sy":1,"layer_type":"fc","num_inputs":256,"l1_decay_mul":0,"l2_decay_mul":1,"filters":[{"sx":1,"sy":1,"depth":256,"w":{"0":-0.10862358059456234,"1":0.021903589936039858,"2":-0.1622956951838107,"3":0.09951981897532018,"4":-0.10279041687442894,"5":0.03044210141789465,"6":-0.0669045191158551,"7":0.06693859760281391,"8":0.08200258510638551,"9":0.00905730658819259,"10":0.013898814137493906,"11":0.03923909942405686,"12":-0.0754104594546669,"13":0.04118740380052747,"14":0.01881268842660098,"15":0.0069317524469702275,"16":-0.08787749920254677,"17":0.1440125136043447,"18":-0.030034547667577426,"19":0.22113319626732822,"20":0.034069416767145214,"21":0.03528279095955591,"22":-0.04824080230793751,"23":-0.04099270489372903,"24":0.07584596145870406,"25":0.02304369809187201,"26":0.0795289283589088,"27":-0.008607302826637844,"28":0.07030032286496687,"29":-0.10208413782883569,"30":-0.003472412264241383,"31":0.03807895137038003,"32":0.003967557958774588,"33":0.08383391601494526,"34":0.01055041598683898,"35":0.06679651563522875,"36":0.012921409520381216,"37":-0.13164034114063863,"38":-0.014129197036271357,"39":0.077017531798926,"40":0.030204113500284527,"41":0.03660882270017484,"42":0.02500875079692025,"43":0.018174291773569332,"44":0.05076206550865184,"45":-0.24951695748514377,"46":0.05776889223693186,"47":-0.13145612946888108,"48":-0.14733726508438444,"49":0.1421396773982884,"50":0.0007091634233963522,"51":-0.009161772507838645,"52":-0.014406798898274693,"53":-0.08027336082477106,"54":0.07097165001689527,"55":0.12759768464172155,"56":0.1692129933089373,"57":0.09457561429339899,"58":0.03622183015968083,"59":0.013776795134178121,"60":0.02762022748250312,"61":-0.03442327682994753,"62":0.14112233269602445,"63":0.08761111324271124,"64":0.014515012363045341,"65":-0.1875337983167748,"66":-0.15159667289104276,"67":-0.1270586727754395,"68":0.020812524946921995,"69":-0.12368621752456357,"70":0.1431133591060663,"71":0.0961474701928042,"72":-0.0026866768573737556,"73":0.09535719551736234,"74":0.01729671137079516,"75":-0.07823872180843891,"76":0.07627528559168636,"77":0.14637494487635755,"78":-0.013096561876639918,"79":0.19114578280632888,"80":0.13620577448121285,"81":-0.03678490025451297,"82":-0.09909232941366251,"83":-0.03573786010483819,"84":-0.01746578100824306,"85":0.08633740258662603,"86":0.04393035023739132,"87":0.0036662074458428265,"88":0.038794567665470805,"89":-0.021756548104566117,"90":0.023476780617964755,"91":-0.057106942597319466,"92":-0.052588879828269,"93":0.015400873256784442,"94":-0.014256999600639916,"95":0.028918690447223408,"96":0.19713935741430644,"97":-0.068098531961257,"98":0.07327429285384604,"99":0.051909681887326274,"100":0.05751966921013175,"101":0.04044757661016757,"102":-0.029441933534125154,"103":-0.06926928817867642,"104":-0.044167483063087376,"105":0.03139966400666793,"106":0.051430535537977225,"107":-0.06291864563224774,"108":0.0043124879090398775,"109":-0.026815001733312922,"110":-0.008190623502955364,"111":-0.05569459264561542,"112":0.1437162544913321,"113":-0.027570905976277,"114":0.061178980277631745,"115":0.04575091241707363,"116":0.08536908357174493,"117":-0.10694505550852651,"118":0.05690919984092689,"119":-0.021254338845266035,"120":-0.14681865940156932,"121":-0.023567280561653824,"122":0.05201322099086573,"123":-0.06153248582388913,"124":-0.020065543161160136,"125":-0.008477739327486172,"126":-0.03363416307600785,"127":-0.2124504442679345,"128":0.01227497368309614,"129":0.008488340890458763,"130":0.04412653253912889,"131":-0.08205637927528012,"132":-0.02566746556652737,"133":0.08716810755009508,"134":0.013857266307507225,"135":-0.2787440050157409,"136":0.018746960418915427,"137":-0.0674736270981623,"138":-0.08405834749087583,"139":-0.1651793111235284,"140":0.03530956927226598,"141":-0.23466777722338852,"142":-0.1325707595976567,"143":-0.08810713510395493,"144":-0.07397990093911552,"145":-0.26075270229914743,"146":0.0946768620612506,"147":0.07649553093901823,"148":-0.10373595852843953,"149":-0.08296554008231156,"150":-0.017888048245848272,"151":-0.17097620417844572,"152":-0.04943770334256231,"153":0.04463752621474938,"154":0.05559269845530693,"155":-0.16159179469309776,"156":0.08104228651576445,"157":0.1102759716102202,"158":-0.05220032981507309,"159":-0.194113726947864,"160":-0.04741775379745208,"161":-0.035526380517885016,"162":0.04725732997902989,"163":-0.10501253412450816,"164":-0.044497465341838544,"165":-0.015971581523941163,"166":0.12386547476119598,"167":-0.15385614380719173,"168":-0.15558239518962685,"169":0.035113540990475776,"170":-0.07360605153833533,"171":-0.05055643251227117,"172":-0.17288846173662928,"173":-0.09682493899629889,"174":0.026892079042895044,"175":0.005058932364864052,"176":-0.11400312147493268,"177":-0.12454431970594416,"178":0.19045780961862616,"179":-0.19843195268188993,"180":-0.22053512812652196,"181":-0.2073850312642642,"182":-0.05532829140938279,"183":-0.1188193938718139,"184":-0.03020620330939341,"185":0.015287053802239296,"186":0.013605966066142242,"187":-0.05893606140953382,"188":-0.09187739300398934,"189":-0.28979122463680934,"190":0.10777483667761462,"191":0.06790454476982125,"192":-0.02684036676952461,"193":-0.27636617578549527,"194":-0.17352095137728812,"195":-0.14578596825654705,"196":0.11815212203819667,"197":0.07533539492416762,"198":-0.12268723826546635,"199":0.09811701549677117,"200":-0.027250638576753874,"201":-0.1743417254699817,"202":0.0007154944298566927,"203":0.1257438716026477,"204":-0.11889543902767968,"205":-0.10621379709356212,"206":-0.2090663761709382,"207":0.08400447966359138,"208":-0.13241519232419985,"209":0.03122035851595799,"210":0.16288195792852697,"211":-0.08471627362363607,"212":-0.01912609768672569,"213":-0.07877785138627069,"214":-0.045129595617795025,"215":-0.07795236151173827,"216":-0.2851689935869245,"217":0.007544238856483745,"218":-0.011747987205481593,"219":0.13822199763422352,"220":0.03493729641668895,"221":-0.22889571466663736,"222":0.1295638564320092,"223":-0.0045386089244183365,"224":-0.07693448134860698,"225":-0.28170090972838,"226":0.04361958871283289,"227":-0.02713982788083619,"228":0.05885902077946394,"229":-0.06301694857095617,"230":-0.08124379978109497,"231":0.03049086902355836,"232":0.0635928711267462,"233":-0.11216493585129185,"234":0.08974430963666401,"235":-0.13267611334493884,"236":0.03970689607069853,"237":-0.14467902795511317,"238":-0.030127399186465037,"239":-0.11483306711551057,"240":-0.07328353502627388,"241":-0.09137764587068799,"242":-0.044724525948776864,"243":0.04017595299183771,"244":0.13275757109954384,"245":-0.06781004749413969,"246":-0.11821288123930745,"247":0.09504652298470898,"248":-0.06430202177451715,"249":-0.09501233986395131,"250":0.015736271553007698,"251":0.05290825201832868,"252":-0.09263116310310159,"253":-0.12444044479787868,"254":0.17395417148198333,"255":0.18080116780917513}},{"sx":1,"sy":1,"depth":256,"w":{"0":0.1502339818674204,"1":-0.15667037691712166,"2":0.01731844230363057,"3":-0.05654625579348803,"4":0.06852094120625443,"5":-0.029834178268558206,"6":-0.18708744975061653,"7":-0.15177764636128635,"8":-0.04317512575279205,"9":-0.0036544966460248106,"10":0.005990615496036316,"11":-0.042254820075772616,"12":-0.07338752914795046,"13":0.03187039311334096,"14":-0.09834572729113088,"15":-0.025532237051210556,"16":0.03595968289991137,"17":-0.007043364010778096,"18":0.011503456288216947,"19":-0.009092561436027418,"20":-0.1139596116311269,"21":-0.011026883091318421,"22":-0.0045757330616488495,"23":-0.13371676538027827,"24":0.05666389326745771,"25":-0.011247340264558888,"26":-0.051171118335394075,"27":0.031508538407013224,"28":-0.07638018932984116,"29":-0.012571527273087668,"30":-0.11655665941575362,"31":-0.050030253817251666,"32":-0.07148481785293237,"33":0.07651693205303488,"34":-0.11049299067111608,"35":-0.009861709101181936,"36":0.07813790174733641,"37":-0.059909546775996525,"38":-0.04090208972585914,"39":-0.2702380008537695,"40":0.017121433068307514,"41":0.03760836717628075,"42":-0.06151046136196752,"43":0.11406798022714146,"44":0.021514783026985028,"45":-0.18080424140549453,"46":-0.01985913591357488,"47":-0.07291784228067583,"48":-0.11353828919824438,"49":-0.044756968473499144,"50":0.044937310636027475,"51":0.00855081503335575,"52":0.12631721123076067,"53":0.0049469411506220485,"54":0.03979690964782834,"55":-0.18037317146887177,"56":0.04057859006586938,"57":-0.04457228638570535,"58":0.007816625099921442,"59":0.042577484725932035,"60":0.04207245870241359,"61":0.021128444713237923,"62":-0.010572054889642524,"63":-0.02424086839300552,"64":-0.00572060444710871,"65":0.0661647305440514,"66":0.04950607113838856,"67":0.03581475999757045,"68":0.06544196061528648,"69":0.11274737363633248,"70":0.006318631534494849,"71":-0.10016413972251427,"72":-0.18470884007134625,"73":-0.036715399853520965,"74":0.014328194418040587,"75":0.07963154005748022,"76":-0.10007780335422262,"77":-0.04023408266599902,"78":-0.01717072670743208,"79":-0.05800852850196288,"80":-0.10893998043019482,"81":0.013593675555458314,"82":0.013412658955621054,