let pretrained_binary = JSON.stringify({"layers":[{"out_depth":1,"out_sx":28,"out_sy":28,"layer_type":"input"},{"sx":5,"sy":5,"stride":1,"in_depth":1,"out_depth":8,"out_sx":28,"out_sy":28,"layer_type":"conv","l1_decay_mul":0,"l2_decay_mul":1,"pad":2,"filters":[{"sx":5,"sy":5,"depth":1,"w":{"0":0.29867948454684673,"1":0.43364142147299406,"2":-0.14279514593661982,"3":0.2833019014320585,"4":0.19563658068242373,"5":-0.19160174421810197,"6":0.2076517088581868,"7":0.32616776405646103,"8":0.042826798616850986,"9":0.25701244867430084,"10":-0.1446725088582238,"11":-0.36468707103492837,"12":-0.23030679216024133,"13":-0.3661411222294078,"14":-0.598949004232462,"15":-0.520199676474161,"16":-0.011803581307198253,"17":-0.2979724629694744,"18":-0.5707318699065573,"19":0.13719825144145434,"20":-0.17695516902091663,"21":-0.32483384140645843,"22":-0.22328177926245302,"23":0.19219157753085267,"24":-0.048986365348997724}},{"sx":5,"sy":5,"depth":1,"w":{"0":0.0525393833959083,"1":-0.4854230549482403,"2":-0.2925759280747046,"3":0.09942482592027593,"4":-0.29379032054989923,"5":-0.20882262326430476,"6":-0.31333756175941546,"7":0.025340373585428972,"8":-0.17709906995444413,"9":-0.1972688708342852,"10":-0.07223246128666959,"11":0.18771679489126744,"12":0.3565346114674514,"13":-0.1855752145618702,"14":0.17506571907969257,"15":0.1622715405069192,"16":0.11487924319695193,"17":0.3944893442443274,"18":-0.04155061091584214,"19":0.48648414281644076,"20":0.48425487793021743,"21":-0.09274971045232315,"22":0.4892413159735372,"23":-0.018113151653436278,"24":-0.15218322468058745}},{"sx":5,"sy":5,"depth":1,"w":{"0":-0.23389354808423599,"1":0.10401968090499546,"2":-0.08751090223657561,"3":0.21267320797666203,"4":0.4320415447204786,"5":-0.10398569849609918,"6":0.1315947579279973,"7":0.05497134095143928,"8":0.40142191132586386,"9":-0.1369024848640359,"10":-0.13395498413043716,"11":0.14875080402880173,"12":0.03552421923887402,"13":-0.04904800499409197,"14":0.11490107709160935,"15":0.29039735519840454,"16":-0.11769320980861293,"17":-0.16102446314192126,"18":-0.22940527366605795,"19":0.29481742583343606,"20":-0.0196957223180249,"21":-0.22516348347455598,"22":-0.1787371456499902,"23":-0.2675381434095945,"24":-0.5019788016630127}},{"sx":5,"sy":5,"depth":1,"w":{"0":0.12333130154351361,"1":0.1758641725542531,"2":0.5103178693851147,"3":0.27215972853954573,"4":0.6570199946042417,"5":0.058762414331539094,"6":-0.18325873256615682,"7":-0.10397099425902012,"8":0.05221622296935561,"9":0.3110415414287589,"10":-0.18554484361139223,"11":-0.015018960982682556,"12":-0.11423126679647393,"13":0.35100868464455537,"14":0.2243360849303866,"15":-0.1058101248690874,"16":-0.05486415308533952,"17":0.163685573334783,"18":-0.08232453654138401,"19":-0.2492640732847651,"20":-0.1971413667716381,"21":0.17065331908940343,"22":-0.02112485886432926,"23":-0.12335583576838051,"24":-0.10798031722237739}},{"sx":5,"sy":5,"depth":1,"w":{"0":-0.22419219394366913,"1":-0.19763941629729376,"2":-0.11216385704041333,"3":-0.28782644383482453,"4":0.12165447565926134,"5":-0.30086179420387643,"6":-0.04806018219942287,"7":-0.16035913569887292,"8":-0.16686507387955088,"9":-0.4344668643976893,"10":-0.3055585256768183,"11":-0.3912421172460565,"12":-0.1350238241503918,"13":0.1691620567460252,"14":0.04310345414346727,"15":0.5394837543241533,"16":-0.05455176094916072,"17":-0.4230592082232585,"18":-0.2183145101572178,"19":-0.2778167779401061,"20":0.44341446186875827,"21":0.10310605137023482,"22":-0.19444519348940037,"23":-0.2554778466217733,"24":-0.15169217556660478}},{"sx":5,"sy":5,"depth":1,"w":{"0":-0.4257904751381817,"1":-0.34944279146373697,"2":-0.41548957707111217,"3":-0.15921263704316294,"4":-0.08078788864423606,"5":-0.011889186058031267,"6":-0.257814427625111,"7":-0.14721660917734608,"8":-0.4832373757966411,"9":-0.2489587980713542,"10":0.25721212099204904,"11":0.0756467750445023,"12":0.06626021246566537,"13":0.2849503152719277,"14":0.17946162771036,"15":0.14597924468176954,"16":-0.11477780520584982,"17":0.38732626946574267,"18":0.37869692455162723,"19":0.4456091641739455,"20":0.2949512288890508,"21":0.286562544899815,"22":0.4285440903472319,"23":0.36246039871417257,"24":-0.2215114765108734}},{"sx":5,"sy":5,"depth":1,"w":{"0":0.14726725755984524,"1":0.284978917820596,"2":-0.2191655496718646,"3":0.0026569975010540758,"4":-0.07195375783820354,"5":-0.07898060372105202,"6":0.007236519517591548,"7":0.12617502051087567,"8":-0.03477139248469969,"9":-0.14385639728774682,"10":0.05502670433342601,"11":0.0413724469566025,"12":-0.3186104410514705,"13":-0.05589028300125736,"14":-0.015701878436869748,"15":0.30878966453048023,"16":0.7210754398400955,"17":-0.11311322245787409,"18":-0.0743416882957526,"19":0.2646269569334347,"20":0.1453792908670798,"21":0.13718504024741784,"22":0.08846656851726521,"23":0.18925484504073126,"24":0.012658609233352058}},{"sx":5,"sy":5,"depth":1,"w":{"0":-0.008979673793418711,"1":0.1421049442850988,"2":0.0000469116673822306,"3":-0.04660917867933086,"4":-0.21111190351163925,"5":0.5201486928492038,"6":-0.07890075738993835,"7":-0.1604412240435182,"8":-0.4004663584005646,"9":-0.1399114616069232,"10":0.5847515336679816,"11":0.07969704094080798,"12":-0.13247563205196877,"13":-0.572502730478138,"14":-0.08913728852105852,"15":0.2927409246907617,"16":0.28154819425885114,"17":-0.34489856653109663,"18":-0.1747997911643448,"19":-0.3810651348702201,"20":0.4239603266988838,"21":0.24194638845427954,"22":0.07100294720680275,"23":0.02288386647886535,"24":-0.13528959494066653}}],"biases":{"sx":1,"sy":1,"depth":8,"w":{"0":0.216677899034579,"1":0.00844719507482477,"2":0.026324037211334833,"3":-0.015363941244635233,"4":0.22524520103558368,"5":0.06556025694783159,"6":-0.11338310166076947,"7":0.08803969671669658}}},{"out_depth":8,"out_sx":28,"out_sy":28,"layer_type":"relu"},{"sx":2,"sy":2,"stride":2,"in_depth":8,"out_depth":8,"out_sx":14,"out_sy":14,"layer_type":"pool","pad":0},{"sx":5,"sy":5,"stride":1,"in_depth":8,"out_depth":16,"out_sx":14,"out_sy":14,"layer_type":"conv","l1_decay_mul":0,"l2_decay_mul":1,"pad":2,"filters":[{"sx":5,"sy":5,"depth":8,"w":{"0":0.04344582672158009,"1":0.0627238965768305,"2":0.1463938880929617,"3":0.036715670641895806,"4":-0.02963054236349669,"5":-0.06478499765209131,"6":-0.10697529731366177,"7":0.24037547029341194,"8":0.16649124169697677,"9":-0.13323740529095188,"10":0.2165231229127166,"11":-0.033160991090910204,"12":0.03487185792509345,"13":-0.1863946756130025,"14":-0.03145128643696015,"15":0.11355983938383515,"16":0.2515297248376569,"17":-0.17709286371435168,"18":-0.14289238682783717,"19":0.08442181213601996,"20":0.04546412365003744,"21":-0.230539606601395,"22":-0.1438738615446446,"23":0.020034217830755773,"24":-0.08202763513008779,"25":-0.05097869368870871,"26":-0.2510387746054939,"27":-0.0976772679954356,"28":-0.029051162186914524,"29":-0.14337809731175089,"30":0.017978678720224878,"31":-0.1639844133043855,"32":-0.05158928741457045,"33":0.16593023649477182,"34":-0.30965879638572713,"35":-0.15986137391180427,"36":-0.09715932758480343,"37":0.002050998639952229,"38":0.21813318864900458,"39":0.36663006137298215,"40":0.13073259741333285,"41":-0.2393053991569931,"42":0.024621604438794884,"43":-0.03145328438480385,"44":0.05333881678006153,"45":-0.0801984370279926,"46":0.10871352236956776,"47":0.08856701506649509,"48":0.1879345176521417,"49":-0.09633330369838675,"50":-0.03434784361226045,"51":-0.09614472197925293,"52":0.10951506848521031,"53":-0.15119935994690337,"54":-0.09577014469329023,"55":0.08338518880205109,"56":0.22901588475384224,"57":-0.12489867165561351,"58":-0.03667813317104368,"59":-0.07477495948042158,"60":0.03070015182082287,"61":-0.03898818318291055,"62":-0.12002714562020798,"63":-0.14243030876746907,"64":-0.08975249388891418,"65":0.049383552281728596,"66":-0.07877416422367728,"67":0.11182404061379209,"68":-0.009781884497862083,"69":0.06123042948948297,"70":-0.06478893299144158,"71":-0.13710037703534925,"72":-0.08261100044458759,"73":0.006873263092032622,"74":-0.13404509860072936,"75":-0.05952363398353303,"76":-0.08312004743284339,"77":0.08548082990570634,"78":0.01951544208642447,"79":0.13163183964317166,"80":0.09446927324793868,"81":-0.10532327960224813,"82":-0.026192630828199996,"83":0.027609540158270048,"84":-0.1198601272080933,"85":0.0369593564099794,"86":0.0495126025632314,"87":0.177926090394005,"88":0.02841944353930424,"89":-0.14197203829854352,"90":-0.09512060896563726,"91":-0.3023042746209727,"92":0.14556924167950175,"93":-0.0740237304803691,"94":-0.09759989981655003,"95":-0.10655131844856965,"96":-0.0007145036746449622,"97":0.052057471973738806,"98":-0.20274680532430076,"99":0.04642116094362309,"100":-0.03579288050308387,"101":0.0289017806987316,"102":-0.16717449738294832,"103":-0.18871602800056467,"104":-0.1342893099327166,"105":0.10926064661801309,"106":-0.025784753838803316,"107":0.15756704255538553,"108":-0.11765038408989327,"109":0.003192178649076352,"110":0.012541710161278396,"111":0.007425665399754275,"112":-0.18463025763144747,"113":-0.10792355671747658,"114":0.038015385780363266,"115":0.02423000291172743,"116":0.02939881408280662,"117":-0.03602622982693889,"118":0.2353056055910311,"119":0.113968200030093,"120":0.011282120014787912,"121":-0.039826863375097415,"122":-0.035512652041994046,"123":-0.1323766490110314,"124":-0.06334233734447091,"125":-0.17851087359022422,"126":-0.07216280037159443,"127":-0.00902644564671697,"128":0.1328603671583641,"129":-0.09839382464326817,"130":-0.039273369103704804,"131":-0.07774929430301872,"132":-0.14300261146851087,"133":0.0708081046234669,"134":-0.19975792808485354,"135":-0.14566669021016065,"136":-0.21428659577981662,"137":-0.003926547797838776,"138":-0.2170168888999118,"139":0.1004515106629879,"140":-0.11849927314409947,"141":0.09386415548282433,"142":-0.13457525481064703,"143":-0.17957291545024398,"144":-0.31631972833464755,"145":0.028125737069064922,"146":0.04018509869861868,"147":0.15354184426567086,"148":-0.00028739180016362775,"149":0.0645434274465135,"150":0.0006006593736200994,"151":-0.026645590270782567,"152":-0.044318681503954,"153":-0.012902045088570586,"154":-0.03312927358305021,"155":0.04602751266299219,"156":-0.12305623953756611,"157":-0.02367398218120747,"158":0.12456246268453552,"159":0.15968920574532997,"160":0.04887474733863781,"161":0.0262849670013617,"162":-0.16814363277399852,"163":-0.05087101240208814,"164":0.17885204578783748,"165":0.022606906039801967,"166":0.017840554225852734,"167":0.08446976079995047,"168":-0.16296457404338013,"169":0.04215665113372978,"170":-0.20051375165171395,"171":0.04357217929203885,"172":-0.15338726112531195,"173":0.08171227205207073,"174":-0.06592198804497182,"175":-0.08088839744571756,"176":-0.36256047548557624,"177":-0.07813688005355082,"178":0.09077071400677084,"179":0.08739686899373242,"180":-0.24104094763869133,"181":0.06605721137575847,"182":0.05645725478439867,"183":0.11253138639622885,"184":-0.1249253476231948,"185":-0.04001279406844266,"186":0.17960735815203266,"187":-0.030751259264704046,"188":-0.07580956089146464,"189":-0.09886383300104265,"190":0.20181087522187408,"191":0.3246071580747742,"192":-0.1401425427951663,"193":-0.006187441589016524,"194":-0.1429916794359702,"195":0.07719692967751107,"196":-0.01438367635798418,"197":-0.1360254427476111,"198":0.12578675229429823,"199":0.05083470094644945}},{"sx":5,"sy":5,"depth":8,"w":{"0":-0.08523826008042903,"1":-0.10657489918812223,"2":-0.004550656672922091,"3":-0.06030032705535082,"4":0.233358015005335,"5":-0.15591814973718657,"6":-0.1864290024846905,"7":-0.04366869338525869,"8":0.11624795979041874,"9":-0.07495635899207855,"10":-0.1188506679641141,"11":0.05217026451408047,"12":0.13750584307145564,"13":-0.1008426608647686,"14":-0.022550094565901367,"15":-0.08165642175497195,"16":-0.026596284852366932,"17":0.07592949369131038,"18":0.040749368899675995,"19":0.026052024090032787,"20":-0.019252807709328974,"21":0.022538563169107934,"22":0.016613400738110712,"23":0.04206867432213414,"24":-0.060132082492390125,"25":-0.009536913898523883,"26":0.12804776947614135,"27":0.17210092332322358,"28":0.04481327913249102,"29":-0.06726425942912408,"30":-0.10350314162683773,"31":0.012554931796902553,"32":0.06364719420284788,"33":0.001014030455682466,"34":0.050472731218257655,"35":-0.0784049315538102,"36":-0.20807626017099412,"37":0.002034906905500725,"38":0.1455185152480699,"39":0.05486603461886788,"40":-0.0270826529924469,"41":-0.04154603212579185,"42":-0.12727146235873996,"43":-0.14516712045472366,"44":0.0879939228326542,"45":-0.013978201464641382,"46":-0.057555815757309274,"47":0.009037510953139267,"48":0.020479475176540876,"49":-0.13792788153659602,"50":-0.12202509333735038,"51":-0.003185156617585484,"52":0.2125578705539974,"53":0.13345976899959058,"54":0.012831912677506564,"55":-0.07989308877916045,"56":-0.1219798008805148,"57":0.12477102540118422,"58":0.0544826193545045,"59":0.031214981154682436,"60":0.020412147955259967,"61":-0.045210250025916325,"62":-0.16470215479457154,"63":-0.03789317990970361,"64":-0.005307671202723236,"65":-0.09616478819608977,"66":0.14978699044403693,"67":0.030154006826166535,"68":0.0071385273157551915,"69":0.09354080737656571,"70":-0.027049118325074898,"71":0.016856968654540925,"72":0.18674206902723728,"73":-0.10121367121843558,"74":0.01531442155749335,"75":0.05420865728794173,"76":-0.03309751622902964,"77":-0.20089594026732466,"78":0.04469945354372929,"79":-0.10793026703914389,"80":0.027496310201996176,"81":0.08556892390899518,"82":-0.07201239020213819,"83":-0.013342659287069928,"84":0.013350476352389572,"85":0.1216172979628557,"86":-0.04625341465180641,"87":-0.08841748343277427,"88":-0.1323391478285163,"89":0.00945921954498858,"90":-0.035390041577195976,"91":0.014081560275966852,"92":0.00004464137562706916,"93":0.15518956191408842,"94":0.005610960921021627,"95":0.15031117747906042,"96":-0.034715955578818465,"97":0.1387916237890798,"98":0.12324216516786145,"99":-0.004842603943637094,"100":-0.03934406437970213,"101":0.06239637700907626,"102":0.038434593530633984,"103":-0.04228039423910496,"104":0.008082827658257106,"105":-0.1172752323257902,"106":0.1000756792776262,"107":-0.03439643258188605,"108":0.11367483433020295,"109":-0.20991222949401533,"110":-0.04201954198024197,"111":0.08073912378770497,"112":0.08621965858576931,"113":-0.06362906223191113,"114":0.04992829645533665,"115":-0.035836430193620705,"116":-0.16791218689498008,"117":-0.11670017485070297,"118":-0.08360282087276417,"119":-0.11252681113619727,"120":-0.10736127183979939,"121":0.03679315302251818,"122":0.030104074093136073,"123":-0.07907472572663103,"124":-0.08922113258829696,"125":0.05617707803641277,"126":0.07442003396927774,"127":-0.01860222619490657,"128":-0.16579198587950214,"129":0.12013945805798988,"130":-0.020144831934308757,"131":0.03352556341500251,"132":0.1264013228543357,"133":0.0322932148139003,"134":0.09095258023625434,"135":0.20576970108287646,"136":-0.0400779329488183,"137":-0.02964740285777377,"138":0.07324563048534063,"139":-0.09053882346307855,"140":-0.08316874826741533,"141":-0.10620758859293856,"142":-0.02137883430139055,"143":0.1801314593193553,"144":0.2405812385917222,"145":-0.09327474135642454,"146":0.0020236969433638924,"147":-0.01879928523981471,"148":-0.12738415766251882,"149":-0.03819076005098184,"150":-0.07572013766476007,"151":-0.008000620773441372,"152":-0.07335547036026835,"153":0.09462640763528442,"154":-0.19662924296584094,"155":-0.2021227189889706,"156":-0.1707418027237154,"157":0.06932203657330259,"158":-0.03334225894771816,"159":-0.13498334615044258,"160":-0.15273501997834824,"161":0.03028731906301627,"162":-0.10090576156274429,"163":0.007292993654393343,"164":0.049866971188386,"165":0.06718096150478255,"166":0.02962523044101961,"167":0.08636390436027316,"168":-0.19457683163598458,"169":0.015039185037010952,"170":-0.1411233440501842,"171":-0.016912140661798258,"172":0.07873155410318768,"173":-0.05573608112935949,"174":0.007689115673482809,"175":0.07414729859768492,"176":0.0066716820962223825,"177":-0.09043744796787315,"178":-0.002000392546577803,"179":-0.08277601240460301,"180":0.007257251083147021,"181":-0.0138826715447746,"182":-0.07216338042919809,"183":0.11614893845502625,"184":-0.008954524349498772,"185":-0.10643143849529886,"186":0.05776477819808402,"187":-0.04998731095240061,"188":-0.0976730627402945,"189":-0.08226488341066043,"190":-0.07940718084896943,"191":0.004326874333529236,"192":-0.09052851394596967,"193":-0.0033863063820016017,"194":-0.04480945206794409,"195":0.07513769277879076,"196":0.05813133012917427,"197":0.071710048312988,"198":-0.09331497484657908,"199":-0.1262541053737499}},{"sx":5,"sy":5,"depth":8,"w":{"0":0.03831591452488516,"1":0.08632389387878879,"2":0.01863719434268783,"3":-0.22062095946444849,"4":0.03372849483826399,"5":0.2246780986262097,"6":0.02821278688501347,"7":-0.03959284324610462,"8":-0.01356514613873687,"9":0.10783290712118207,"10":-0.10086437626350671,"11":-0.19316180146901785,"12":0.07257481750795111,"13":0.09886337234672449,"14":-0.051144788759790304,"15":0.15202069829791243,"16":-0.1519694029283634,"17":0.12954356782885237,"18":-0.09697294781799756,"19":-0.11510990525192107,"20":0.17711313330467984,"21":0.28648911400427685,"22":0.08817411824947471,"23":-0.05124606785115566,"24":-0.13626826275207318,"25":0.07470143008837715,"26":-0.07788513209492488,"27":-0.10184375980308048,"28":0.19172689455521946,"29":0.09478940056310253,"30":-0.09821402003671802,"31":0.007158633299760099,"32":0.05652835894132239,"33":-0.002462852927915553,"34":-0.01991119120884401,"35":-0.02063933991926834,"36":-0.016168080007657702,"37":-0.039736067507628314,"38":-0.12058692543813766,"39":-0.08637425578078048,"40":0.034564506934339316,"41":-0.1026894516944726,"42":0.10843672479943281,"43":0.07738672152674417,"44":0.03451302866065121,"45":-0.12321581095610214,"46":0.00698069096751173,"47":-0.05071388351119007,"48":-0.0846251897723542,"49":-0.056789624683981334,"50":-0.12146817732204357,"51":0.021563192048536822,"52":0.020612547405083684,"53":-0.001959459681478095,"54":-0.03174874611079338,"55":0.10096335590616984,"56":-0.02648486595382972,"57":0.010123095753495005,"58":0.018549228473977115,"59":-0.11529563254701851,"60":-0.007810503861067509,"61":-0.08322739129460086,"62":0.05099741065571983,"63":0.14398964641375706,"64":0.05569783867635064,"65":-0.0180677879231808,"66":-0.022351595236591644,"67":0.0061488909019460115,"68":0.05890526984578064,"69":-0.0764873248157213,"70":0.030983879702930074,"71":0.1490381395943719,"72":0.0745028355669092,"73":-0.011872332382153034,"74":-0.03024304461337297,"75":-0.11203252922559598,"76":0.04866715242353799,"77":-0.08625951145112713,"78":-0.01714745172751344,"79":0.06192980248191284,"80":0.016870184915594503,"81":-0.016771471242790402,"82":0.10270453294196932,"83":-0.11636072826798562,"84":-0.03315486195663537,"85":-0.07132124097260774,"86":-0.16649935351539763,"87":0.0366240291067842,"88":-0.10389401273176821,"89":-0.0036116831635240746,"90":-0.09081961801238675,"91":0.10016388665410586,"92":-0.10385122401218688,"93":-0.013983782236055321,"94":0.02679042366274482,"95":-0.151779982800324,"96":0.06638522334497339,"97":0.0827083205809331,"98":-0.030085948304242587,"99":0.04481045940446038,"100":0.06301241532768917,"101":0.10583634484102276,"102":0.06639206244093093,"103":0.14380227676070098,"104":-0.07170998434669776,"105":0.10480434153430862,"106":0.08502908387241029,"107":-0.05500315337061426,"108":0.3087932863272983,"109":0.020450449840545164,"110":0.06835818221922925,"111":0.27466270798923975,"112":-0.10133939405215378,"113":0.09982446118887198,"114":-0.09205269404858253,"115":0.02198667858160693,"116":0.15943689991905804,"117":-0.09980546335820976,"118":-0.08755739444904898,"119":0.08715116163305504,"120":0.110139788691866,"121":-0.11711057173557121,"122":0.05679055679616274,"123":0.013589048769052717,"124":0.07496979256886518,"125":-0.2694600752035837,"126":-0.0881820755403426,"127":-0.07460666389323939,"128":-0.024330484350800295,"129":-0.1032981829127986,"130":-0.013107991787807957,"131":0.1229546896311559,"132":-0.08385747877455021,"133":-0.044950063915941973,"134":-0.07261989196274939,"135":-0.1382869982419869,"136":-0.1196782854683086,"137":0.04436038528242014,"138":-0.020734232497784933,"139":0.11385674019579964,"140":-0.1334640540247347,"141":-0.05822661307248935,"142":-0.050807771594332904,"143":0.088881261231707,"144":-0.05498136126966542,"145":0.10120770856140571,"146":-0.08508056546281964,"147":-0.010126230264320062,"148":0.11990515491364473,"149":-0.08689894375274602,"150":-0.015075035998217863,"151":0.3427533628447286,"152":-0.08420915740140335,"153":-0.09684124054304301,"154":0.02743425602695807,"155":-0.15871825799693698,"156":0.0794734923351146,"157":-0.016583821834485143,"158":0.05353726345233291,"159":-0.006401996024478332,"160":-0.05387010525249821,"161":-0.10245708639432631,"162":-0.14603974401445416,"163":0.011863272020470132,"164":-0.06462474578302706,"165":-0.1039418365506369,"166":-0.011582181474839436,"167":-0.0777801844297577,"168":-0.11800130989820146,"169":-0.008331867929519175,"170":-0.13170872208218726,"171":0.11046988957076148,"172":-0.1835260283457771,"173":0.1597763011790889,"174":-0.10788509404822959,"175":-0.1086806054451372,"176":-0.11622449523132179,"177":0.08846017485324986,"178":0.018210872338590447,"179":0.10288954911606328,"180":-0.10086011589423237,"181":0.15876285754863947,"182":0.05176268592212113,"183":-0.037574820838858505,"184":-0.15476594091869086,"185":-0.09928634697828602,"186":-0.1853941764544213,"187":0.021731055398527876,"188":-0.08604529100618397,"189":-0.11157813950250425,"190":-0.012250835810261878,"191":0.14773730325186563,"192":-0.13356680717855987,"193":-0.06596746436574716,"194":0.09282001041635687,"195":-0.03601187286667243,"196":0.026904871892557893,"197":-0.08023371828004183,"198":0.018110152877298242,"199":0.06934956832773877}},{"sx":5,"sy":5,"depth":8,"w":{"0":-0.027078471432446242,"1":0.06711005474011852,"2":-0.052333094680392704,"3":0.0064702987113345435,"4":-0.006965625180172989,"5":0.11658844024145833,"6":-0.017050022304005714,"7":0.04051620609820463,"8":0.06354214837716216,"9":0.09560561455128642,"10":-0.05837944988561949,"11":-0.07617697472455433,"12":-0.1285841893284278,"13":0.14570962116179817,"14":0.02781553180773653,"15":-0.012934091769929256,"16":0.022813359007543547,"17":-0.056236438621051994,"18":-0.18250264115641665,"19":-0.07772698600659506,"20":-0.07509431540328106,"21":0.17154590939368825,"22":0.014700203458999646,"23":-0.054311495594673645,"24":-0.047054398182269835,"25":0.09138370324267117,"26":-0.017553832506493137,"27":-0.01611590907353016,"28":0.0283153065706186,"29":0.1569708556872771,"30":-0.09718326922098279,"31":-0.0711062774975646,"32":-0.013724249075469139,"33":0.15389768614685082,"34":0.06392046587836983,"35":-0.0021947879768273405,"36":-0.03809462917079497,"37":0.11398688593029721,"38":0.11483325581301194,"39":-0.06493906724621253,"40":-0.022147675807008358,"41":-0.027927354276366223,"42":-0.17551233000890856,"43":0.17708496201377108,"44":0.16590291830863857,"45":-0.10275332728293828,"46":0.04307676457337792,"47":-0.02643310379629919,"48":-0.11111011594290231,"49":-0.015265834594139972,"50":0.018785929618726317,"51":0.10361939430217212,"52":-0.0611372017438416,"53":0.11517986543649351,"54":0.01890511798368287,"55":-0.025881705089769325,"56":0.04659630551882602,"57":0.08480298454044113,"58":-0.013409041221133958,"59":0.16244771113659495,"60":-0.0999483000390317,"61":0.06850537332220778,"62":0.002825254465709116,"63":-0.06523032532929116,"64":0.07160877802198704,"65":-0.04460482288232912,"66":0.13862700315835466,"67":-0.01754457605529624,"68":-0.17631001316974607,"69":0.03637231891119853,"70":0.0039716513270447815,"71":-0.020267077469704697,"72":0.10325460986770404,"73":0.009649804065684922,"74":0.15170892555577598,"75":0.1876146498442082,"76":-0.01265061281004599,"77":-0.10160393200243897,"78":-0.02911406510841173,"79":0.043594481119243716,"80":-0.15639227863516547,"81":-0.09849601436245865,"82":0.06309937972566317,"83":-0.10245934966704855,"84":0.1929825945718457,"85":-0.20829098520200887,"86":-0.029179166929110486,"87":0.01743285972066284,"88":0.11055860431222993,"89":-0.14220428549127706,"90":0.018005387907173345,"91":-0.020550893318959783,"92":0.06533178297951525,"93":-0.20296469692399205,"94":0.07631850521078025,"95":-0.06262711681418875,"96":0.08465343876309835,"97":-0.0958984563248728,"98":0.07932922869812194,"99":0.106001363522639,"100":-0.0016384599889305077,"101":-0.09645725169029926,"102":-0.012313571523388578,"103":-0.11505721628643048,"104":0.2157094352435778,"105":-0.1753284963944275,"106":0.06604162012254851,"107":0.10534557708351916,"108":-0.16029010704107843,"109":-0.11789338357003865,"110":-0.13644781600038325,"111":0.00003486765066831426,"112":0.2487730229639875,"113":-0.09683021185009477,"114":0.20481599563786343,"115":-0.009121244786087057,"116":-0.02503431531629717,"117":-0.056024398537840844,"118":-0.09998367490969652,"119":-0.2080684476100662,"120":-0.09057816625310636,"121":0.0998742458704559,"122":-0.05644283674720471,"123":-0.04360154934834201,"124":0.0914214359666969,"125":0.04943372334560098,"126":0.11267527943794632,"127":-0.05841578208387426,"128":-0.12255647941735023,"129":-0.10255556457157888,"130":-0.11524266535527354,"131":-0.0687770198769065,"132":0.09722058697970706,"133":0.09130929368433116,"134":-0.047245395346654194,"135":0.15523708335715816,"136":0.04525503155591667,"137":0.07443206944324773,"138":-0.08017764583529147,"139":-0.06612379932012993,"140":0.03935122573647595,"141":0.03490711220584997,"142":0.028492986542527254,"143":-0.006192079028037964,"144":0.05889138057318372,"145":0.016063845764565838,"146":-0.053437178069944274,"147":-0.17195648845779649,"148":0.058135851345603444,"149":0.012257355667809522,"150":-0.12950879512586833,"151":-0.15641496073567304,"152":0.007862497482677488,"153":-0.022164499993478325,"154":-0.08271100426358281,"155":-0.24998785746612176,"156":-0.05827018321997355,"157":0.12459582376816715,"158":-0.07329323657245898,"159":-0.029833223505290437,"160":0.0369038596159739,"161":-0.02220217787627626,"162":-0.10245416120734409,"163":0.055110350017512674,"164":0.02991974620806534,"165":0.15695638137357604,"166":0.02612673926062944,"167":-0.04702748853075909,"168":-0.03574273225173255,"169":0.04622765770398944,"170":-0.043414448160885924,"171":-0.15041440772612852,"172":0.09066451377956461,"173":0.00782781210711751,"174":0.03039224644157253,"175":0.01724041242844876,"176":-0.12401753792690065,"177":0.09784411029203344,"178":-0.011488544480892857,"179":-0.20161036905309707,"180":0.17059394178151355,"181":0.07852138018200881,"182":-0.017975960171729623,"183":0.012221235943608619,"184":-0.035498920178507344,"185":0.0782623273628277,"186":0.043304122904900655,"187":-0.12458116536186498,"188":-0.12083882810923892,"189":-0.05416767143170557,"190":-0.054129339651116846,"191":-0.08417733127762386,"192":-0.0606815955605538,"193":0.04781225627466399,"194":0.007455972119010165,"195":-0.02655150800800989,"196":-0.12696736543384396,"197":0.05081113166681855,"198":-0.09206626511247137,"199":-0.13609666255469513}},{"sx":5,"sy":5,"depth":8,"w":{"0":0.12538830601364043,"1":-0.05964216105156173,"2":-0.045309716656908375,"3":-0.009873337928109781,"4":-0.0874780000295767,"5":0.04454950746617071,"6":0.02409815385207425,"7":-0.09499269240074934,"8":-0.007382196986930132,"9":-0.06639437593566948,"10":-0.13740041717664256,"11":-0.054539394273609064,"12":-0.039770880964431696,"13":0.07153639505370861,"14":-0.016769486012810003,"15":-0.1690872262108707,"16":-0.08810707057320105,"17":-0.12228766394899729,"18":-0.02222349543685358,"19":0.08372277446952542,"20":-0.1584979369711479,"21":-0.02496198640753754,"22":-0.024488169392608856,"23":-0.04008855134662424,"24":-0.08577748297764994,"25":0.2001008013490346,"26":-0.028420964293239485,"27":0.10174698694709246,"28":-0.16463280079097503,"29":0.1540521372746515,"30":0.04464188064550315,"31":0.007907930038431371,"32":-0.012980643061781866,"33":0.011580205859539502,"34":0.10178450309731765,"35":0.0815032179287012,"36":-0.1179623886465957,"37":0.04959644015963479,"38":0.045279423031211304,"39":0.027997893672957398,"40":-0.07808638933290336,"41":0.05336540589640045,"42":-0.01867480913238883,"43":0.22670439727721908,"44":0.053001082577413004,"45":-0.0031625215042683104,"46":-0.12742638589144126,"47":0.024456523079954308,"48":-0.0028180073747295126,"49":-0.08840105139511714,"50":0.0583470887302433,"51":0.13540911697467856,"52":-0.1359110121671506,"53":-0.11951342843702917,"54":0.07833657682963927,"55":-0.05926370620969605,"56":-0.15024171788638152,"57":-0.11309525315030339,"58":-0.0907773149776762,"59":0.008030400051176532,"60":-0.015243378289261193,"61":-0.024940960112512393,"62":-0.10330746887263237,"63":-0.09294937497442321,"64":-0.1217847331432102,"65":-0.024476546387404076,"66":0.0015673960138101993,"67":-0.027807313923863524,"68":-0.16510325097203427,"69":-0.0687919808274862,"70":0.060374189493980095,"71":0.11818661079478293,"72":-0.14526220885015148,"73":0.021169546661544573,"74":0.04913628160669444,"75":0.06838495672139479,"76":0.02836763730367931,"77":-0.0902477058129369,"78":0.01763302212013307,"79":0.17269641929040147,"80":0.09073207229763015,"81":-0.023848719519281657,"82":-0.051710491631399624,"83":0.06783533417772382,"84":-0.06314780635851189,"85":-0.11275883808514738,"86":-0.07248696627782135,"87":0.08711938753301104,"88":0.10303637695058643,"89":-0.04447295676956463,"90":0.08417405586902177,"91":-0.06662983582820838,"92":-0.06304096573473827,"93":-0.10441084599352025,"94":0.0388885626330473,"95":-0.03675175537484082,"96":-0.07647570367843891,"97":-0.0733523567798881,"98":-0.09210352309506326,"99":0.005763661138066179,"100":-0.1781543366525969,"101":0.03184917407907265,"102":-0.11679914394430327,"103":0.08707309571229575,"104":-0.051932333135785116,"105":-0.03361656669553541,"106":-0.03609177455260208,"107":-0.08359810805750004,"108":-0.11920976723819546,"109":-0.04571267330601038,"110":-0.04289416382450249,"111":0.025359667613008185,"112":-0.11280659048862847,"113":-0.00014957537710002478,"114":-0.07305358777527059,"115":0.10824427345940943,"116":0.011512410938646982,"117":0.05754667337534078,"118":0.12791121663855842,"119":0.24261948241896156,"120":0.019478289351719958,"121":-0.04777944761703785,"122":0.04253717752074116,"123":-0.03551611893242106,"124":0.016731899878926614,"125":-0.1577789005271673,"126":0.07244864168701651,"127":0.04144942033307313,"128":0.007070961050303914,"129":0.048848438698849334,"130":-0.02978144522986988,"131":-0.027321353910233458,"132":0.09816981520304417,"133":-0.18124458478965697,"134":-0.09648134991214838,"135":0.11772879679632789,"136":0.11223726091407114,"137":-0.20288851563924618,"138":-0.10441740969813315,"139":0.034046384035579684,"140":-0.19263971562117913,"141":-0.18220963541157215,"142":-0.08747630487186321,"143":-0.08522311271661323,"144":-0.041772027034071624,"145":-0.03180582749715935,"146":-0.012864965550660148,"147":0.05803950648870901,"148":-0.04628978601922471,"149":-0.14806241348961022,"150":-0.06753546097646425,"151":-0.24951170326896677,"152":0.0698886327647128,"153":-0.1388697869828682,"154":0.210787534375894,"155":0.03617972952476691,"156":-0.06482046476104099,"157":0.029341828949599733,"158":-0.03855165242115761,"159":-0.10834824424224858,"160":0.07516299628256572,"161":0.003449533236621294,"162":0.0894678209416977,"163":-0.12465985568856003,"164":-0.20709367407276574,"165":-0.05323321634354403,"166":0.04300012251004473,"167":0.1356055815571277,"168":0.10571273429723897,"169":-0.07427305310754374,"170":-0.2015157005089186,"171":-0.08002524208248249,"172":-0.10565308938548773,"173":-0.20032630785453953,"174":-0.15841101540194616,"175":0.016640417926464347,"176":0.021254811264677445,"177":0.08230755014831893,"178":-0.151764095204195,"179":-0.12028164888586948,"180":-0.0212102955950159,"181":0.04174091263929263,"182":-0.17785484569358587,"183":0.11129642619670752,"184":0.16251332302843988,"185":-0.005448551077363374,"186":0.06283297414851992,"187":0.08095248093018964,"188":0.09580847568523282,"189":0.019521279810651295,"190":-0.04474405369805064,"191":0.07972454349538506,"192":0.15548482327557178,"193":-0.0393437561904379,"194":0.1502948909972756,"195":0.2047229255483272,"196":0.16824640100955524,"197":-0.2926066042264978,"198":0.08038995956520156,"199":-0.12811236034183154}},{"sx":5,"sy":5,"depth":8,"w":{"0":-0.014720544033568855,"1":-0.08111233348110915,"2":0.08522687524357586,"3":0.22546842134053854,"4":-0.05644467909808726,"5":-0.05683107711700323,"6":-0.07841605874576495,"7":-0.05518842153897742,"8":0.1848671490068055,"9":-0.07210062412975353,"10":0.1596536726119152,"11":0.10111927405704753,"12":0.0858877938243022,"13":-0.09602284047583225,"14":0.059668471736529824,"15":-0.05680984241462425,"16":0.053092522569715576,"17":-0.0680815010814114,"18":0.10908536930114711,"19":0.22263650975594113,"20":-0.0003543034583910087,"21":-0.05185272693694343,"22":-0.028626565413295172,"23":-0.2385723121786089,"24":-0.10868877257774713,"25":-0.01943269448707353,"26":-0.11954876187826614,"27":0.1718967669144683,"28":-0.12949897387623566,"29":0.004694943824064254,"30":0.027502580105833695,"31":-0.12919101910840258,"32":-0.18343634836138398,"33":0.02727386793662512,"34":-0.12224075915611647,"35":0.14107571980196915,"36":-0.07949556178173553,"37":-0.18000138844636052,"38":0.12245922437836218,"39":0.1438792555084109,"40":0.013763632341273903,"41":-0.1355974493416713,"42":0.03485368336641702,"43":0.056679000659127385,"44":0.10277615067015315,"45":-0.032212105804548544,"46":-0.09944621376138466,"47":-0.06878570265870913,"48":0.16556140734498903,"49":-0.2093984157605152,"50":0.0037261489866883767,"51":0.0436283021130635,"52":-0.0011279601201013005,"53":0.03906036238224882,"54":-0.09773115567699896,"55":-0.03208941399379144,"56":-0.005607165073435527,"57":-0.07996802154617434,"58":-0.013994855124805382,"59":0.16204070495738226,"60":-0.041728767957500745,"61":-0.13550019008110736,"62":0.01233598711848618,"63":0.005740621259363657,"64":-0.15912844806139934,"65":-0.020763098240262266,"66":-0.054691577146227785,"67":0.04820336386121372,"68":-0.1158381575018343,"69":-0.09932719678762328,"70":0.12016615832795037,"71":-0.09332608608955621,"72":-0.0722364310342301,"73":-0.10155254201848146,"74":0.024713914982265186,"75":0.1431604136125174,"76":-0.01727392621792916,"77":-0.011893030354224829,"78":0.2535023667611803,"79":0.24145735663483336,"80":-0.05388942940565816,"81":-0.0929393098759797,"82":-0.08729108750617046,"83":-0.18247586346241856,"84":-0.00015468104117863677,"85":-0.15381650519880025,"86":-0.1590399919921518,"87":-0.05463014982277099,"88":0.01065094152332474,"89":-0.13268314791732488,"90":-0.07241505826925262,"91":-0.26231108012294685,"92":0.012237894872305704,"93":-0.07276713506123927,"94":-0.1350280507608985,"95":-0.14545922715326326,"96":-0.03164802845762933,"97":-0.022507196974048183,"98":0.0713001578220417,"99":0.002660271403585169,"100":-0.06003197958547877,"101":-0.07250105888407309,"102":-0.031025808201375984,"103":0.06907754877996335,"104":-0.04093282730651013,"105":-0.04468786237696504,"106":0.14925269046835582,"107":0.052366660091411596,"108":-0.08810751730138558,"109":-0.04537640242279589,"110":-0.0995503861696967,"111":0.009235975843864448,"112":-0.1776965071688914,"113":-0.017370318630168566,"114":0.011617302424540643,"115":0.051053594140604175,"116":-0.14929358460795303,"117":-0.02400565824383668,"118":-0.02727394067887775,"119":0.043658553996044715,"120":0.004662394426447781,"121":0.005029772789566347,"122":-0.04775972024964861,"123":-0.07437125111778123,"124":-0.12389804661949916,"125":0.04257072300434769,"126":-0.09561933181173353,"127":-0.0006920223441719221,"128":-0.027527909880982703,"129":-0.09746873890297658,"130":-0.031211015860294913,"131":-0.12004746118604602,"132":-0.017623654562097413,"133":-0.019070212764975947,"134":-0.07267867520993389,"135":0.09606187013149226,"136":0.07116484157283498,"137":0.09964217352757687,"138":-0.016420507283680334,"139":0.08686332627971151,"140":-0.11590515809914624,"141":-0.13472534697848873,"142":-0.13955937035612984,"143":0.027505864762378797,"144":0.14898648397192862,"145":-0.034761857870734963,"146":-0.06630603289694285,"147":0.17843967253524642,"148":-0.11931739343613516,"149":-0.18810115376158984,"150":-0.09081139784540104,"151":0.0670887083425905,"152":0.02713938650903948,"153":-0.05610250182020988,"154":0.17322135230941163,"155":0.12606904061340848,"156":-0.08508212508891114,"157":-0.1052079373615454,"158":-0.012822370624275582,"159":-0.0370791453719985,"160":0.01349867011313567,"161":0.05272847461573384,"162":-0.011250820728633773,"163":0.009678384814787036,"164":-0.028879452882912156,"165":0.014023576694532558,"166":0.001853162168513517,"167":-0.16382348204852434,"168":-0.03471356434585654,"169":0.09337622947034938,"170":-0.08133291277147726,"171":-0.10873139760532662,"172":0.011649627502372297,"173":0.16589239186033486,"174":0.006156091895506773,"175":0.0195298320516861,"176":-0.056766495790018766,"177":-0.06295485343895982,"178":-0.09382209870160058,"179":-0.12999950512792774,"180":-0.14803948984101528,"181":-0.01882436515636648,"182":0.05071884432754264,"183":0.06813980068079582,"184":-0.10631497320402813,"185":0.08132794473462526,"186":0.021824827503442223,"187":-0.11617122750992358,"188":-0.10959122334819014,"189":0.011190483044867486,"190":-0.05850182742679208,"191":0.05854830812800181,"192":-0.03704479652944544,"193":-0.11290187133202424,"194":0.12994731348428215,"195":0.06997362931176673,"196":-0.14355797754778982,"197":-0.14324641107157993,"198":0.017268218087801206,"199":-0.008745251149043978}},{"sx":5,"sy":5,"depth":8,"w":{"0":0.10761144246025216,"1":-0.10676510248498747,"2":-0.0289408528290013,"3":-0.09892487349460131,"4":-0.10413459527097452,"5":-0.04483223490888444,"6":-0.023196640524915112,"7":0.05805412229134981,"8":0.07861398792164069,"9":0.06840663917159359,"10":-0.1235439256240442,"11":-0.015238604006692004,"12":-0.0328361616654972,"13":0.0384874772535891,"14":-0.015231644629601098,"15":-0.061962141556633224,"16":-0.1491997256388515,"17":0.11392535861089252,"18":-0.1943340605960702,"19":-0.10417369120664641,"20":-0.07078582995276474,"21":0.2047460338773916,"22":0.017275931217794614,"23":-0.008165339744289974,"24":-0.17211546311378623,"25":0.05150389185495598,"26":-0.04469137322066996,"27":-0.19862744445626934,"28":-0.025673420579394323,"29":0.1010082036576883,"30":0.03266595083252051,"31":0.06402838734865207,"32":-0.1584811815152615,"33":0.17042348375405073,"34":-0.1387016196793454,"35":-0.032471590872696965,"36":0.08894237035851932,"37":-0.05068927712721661,"38":0.03722607782861086,"39":0.10787568798103311,"40":-0.029754726028000153,"41":0.0979027519279971,"42":-0.11343277263034639,"43":-0.04240927569160622,"44":-0.08644265657520227,"45":0.2055708221996808,"46":0.07116407522747227,"47":-0.04619011457332206,"48":-0.05065529953633562,"49":0.1399980595582267,"50":0.07692942907470202,"51":0.04665559052490651,"52":-0.15216059241173932,"53":0.17026341585146718,"54":0.13888951207841999,"55":-0.1962915438670953,"56":-0.15957659519277712,"57":0.09150014560062385,"58":0.12884895735549665,"59":-0.011584560377741611,"60":-0.07839992841745155,"61":0.0648815440209332,"62":0.07535257285061804,"63":-0.1281721881939643,"64":-0.09836229890872153,"65":-0.004620334288007241,"66":0.0074426205265373975,"67":0.0020816194735471514,"68":0.021589084428733342,"69":0.113334213767441,"70":0.02264690783161418,"71":-0.003345194964688266,"72":-0.10769304591710119,"73":0.13546578841593204,"74":-0.17586971925674247,"75":-0.0388814921850348,"76":0.12597331998502487,"77":0.2532484421687521,"78":0.07454525225351345,"79":-0.1436360158001562,"80":-0.09326917889415175,"81":0.04094859977905807,"82":0.19139837195691506,"83":-0.04600621224168299,"84":-0.021979317130603665,"85":0.19917655932209466,"86":0.12147824452070567,"87":-0.020789078099040407,"88":-0.09299020567912897,"89":-0.07470976220382133,"90":0.09952314511685822,"91":-0.09203594201675641,"92":-0.19788847789998745,"93":-0.10800323695404507,"94":-0.14284034179482133,"95":0.05044041550963705,"96":0.08377394535417113,"97":-0.09380342841713568,"98":0.014776656471398857,"99":0.009288386472475176,"100":-0.12132691824635015,"101":-0.04813573973519489,"102":-0.011444968253153817,"103":-0.15946597610769278,"104":0.1047696407567639,"105":0.11357331182078977,"106":-0.01848891144978681,"107":0.08616423735038711,"108":-0.12790770771449708,"109":-0.031668179413698073,"110":0.06856013497388876,"111":-0.09675517340979944,"112":-0.014972083581365394,"113":-0.05981608675014724,"114":-0.041562027439839326,"115":0.13276404628876068,"116":-0.05802012919213948,"117":-0.05302648361704127,"118":-0.019322592777991303,"119":-0.164038981522338,"120":-0.030378813110241508,"121":0.02995338350161022,"122":0.07912204764395266,"123":0.14969101666043463,"124":-0.19142934199544714,"125":0.05163127855827253,"126":0.039188519406208704,"127":-0.013475732155675026,"128":0.11911065323052811,"129":0.014138357725176486,"130":-0.03187511357032895,"131":0.11518096983383994,"132":-0.06904988216632564,"133":0.01871661621833584,"134":0.04748564270127643,"135":0.05799338772378242,"136":0.2347432643794456,"137":0.06974655139440528,"138":-0.08224824280327152,"139":0.07656092857019381,"140":-0.10009396628296972,"141":0.03696129439894205,"142":-0.051817010889343734,"143":-0.060614706094202525,"144":0.12217038475427755,"145":-0.059237263224962144,"146":0.10074466887549564,"147":0.028836670565355386,"148":-0.017643484728072513,"149":-0.13314075017461466,"150":-0.034694615746004256,"151":-0.15270769670535406,"152":-0.052976015622710204,"153":-0.12014106304466322,"154":0.0018440783060962916,"155":0.14433708668126397,"156":0.021188237373263447,"157":-0.11661109755998504,"158":-0.03945576429660558,"159":-0.10020553021675524,"160":0.003814810599887244,"161":-0.08652350051050126,"162":0.08018225521954957,"163":-0.05061061315526576,"164":0.08423450880012848,"165":0.004292865522225021,"166":-0.06434899842186949,"167":0.05575315904579049,"168":0.059867159671289236,"169":0.057686388105780737,"170":0.02152340480417564,"171":-0.05137636497528382,"172":-0.03927152266182262,"173":0.007251846787269258,"174":-0.06557310670931939,"175":-0.009365695789239733,"176":0.17331549590934178,"177":0.006007247398897267,"178":-0.03722874065601679,"179":-0.0663194661309324,"180":-0.019094147574593445,"181":-0.10798838766722728,"182":0.05355097331273295,"183":-0.025317328168910386,"184":0.07819149576304817,"185":0.05813818155287401,"186":-0.17923716160589095,"187":-0.05899420931963975,"188":0.08996987524391346,"189":-0.09730118736264713,"190":-0.0751303499035849,"191":0.016875785881136262,"192":0.06556947581620434,"193":-0.06985682279161033,"194":0.11746808516569462,"195":-0.07416920856438695,"196":-0.0431720109045744,"197":-0.12146587841565615,"198":-0.1557303001862489,"199":-0.017145735778859843}},{"sx":5,"sy":5,"depth":8,"w":{"0":-0.06387702902103484,"1":-0.0383520862933721,"2":-0.07630450725247824,"3":-0.14374847053451417,"4":-0.07778888467818387,"5":-0.08474042084774415,"6":-0.1343819730316527,"7":0.05219678596170052,"8":-0.11819589589478018,"9":-0.017214656354806977,"10":-0.017793420219992247,"11":-0.10178049528735633,"12":0.024407899795289303,"13":0.025647102635968085,"14":-0.1517920453540685,"15":-0.25445302274328346,"16":0.03501466279269938,"17":0.07525412469472023,"18":-0.09535267959022789,"19":-0.03559205354980552,"20":0.04217077640859558,"21":0.16259004970939042,"22":0.0722975011796547,"23":-0.041818073403245885,"24":-0.14854120718575026,"25":0.09547884839600604,"26":-0.04911699901494576,"27":0.01657634432219953,"28":-0.036426420768344604,"29":0.15154863662011786,"30":0.053916497347493375,"31":-0.06364514747091589,"32":-0.09626985621793886,"33":0.12252678495969156,"34":0.08164886504975079,"35":0.12846452445361903,"36":0.047175804539963465,"37":-0.044551579309713284,"38":-0.061939713842300764,"39":0.047389619530032144,"40":-0.0572995762674498,"41":-0.011867206615392367,"42":-0.1672919830696047,"43":-0.18503451998759887,"44":0.025132391120156094,"45":0.08193325829037804,"46":-0.13880785190726372,"47":-0.08615433370748868,"48":0.015746481461908466,"49":0.09155975931502772,"50":-0.08004526997783146,"51":-0.07846207755671541,"52":0.08295304615042011,"53":0.0014244701521527096,"54":0.010773644365992657,"55":-0.08458573576260929,"56":-0.17256518960328668,"57":0.023899584866353636,"58":0.027817247858291542,"59":-0.1296953274879482,"60":-0.03700034790969534,"61":0.12746262904462566,"62":0.08755406655315186,"63":-0.04967334781811241,"64":-0.04088517171501133,"65":0.059740829995124284,"66":0.018671299462564746,"67":-0.08919957032711125,"68":-0.10433953645254469,"69":-0.09402378204026189,"70":-0.022731191419033216,"71":-0.0009965922397336094,"72":0.018055749394930296,"73":0.028425172768114366,"74":-0.029275306342652702,"75":0.028647878193880448,"76":-0.061773171651296456,"77":-0.09089959430003254,"78":-0.028247499971431902,"79":0.030756807746455093,"80":0.04394651839572585,"81":-0.022378205138608578,"82":-0.08699603615495925,"83":-0.12772024934412918,"84":-0.1485555637784514,"85":0.0848065744664687,"86":-0.019592803160083813,"87":-0.06648417250087367,"88":-0.16096024552786833,"89":0.092587903848733,"90":0.029707526213254773,"91":0.05924336279191909,"92":-0.10418409211804067,"93":0.0916054341187902,"94":0.024876879517283155,"95":-0.15508415989375124,"96":-0.23358109965826443,"97":0.02791655480347928,"98":0.10889790434882553,"99":-0.007562036933805225,"100":0.04285982766156462,"101":-0.06412474753287153,"102":0.22200778891028483,"103":0.07029056819720178,"104":-0.01518031260971632,"105":-0.05291387290953549,"106":-0.01573898073225928,"107":0.07238777840650823,"108":-0.10088031307083911,"109":-0.04483011058500803,"110":-0.00180292879525684,"111":0.07933081595062744,"112":-0.05497321279625736,"113":-0.05274987632696101,"114":0.07768516289360271,"115":0.14731387424791204,"116":-0.11724805823607182,"117":0.09304170410947744,"118":0.007423799845908923,"119":-0.0973155227535262,"120":-0.31979204700198893,"121":-0.016742942680751823,"122":-0.10603559259486045,"123":0.03545641481502593,"124":-0.036649293399420246,"125":0.08928486286127016,"126":-0.08671480742155185,"127":0.03483200635390826,"128":-0.2115088720622096,"129":0.016258442610021937,"130":0.1492333223232013,"131":0.03360802747077921,"132":-0.10328343779590204,"133":-0.0975710309587429,"134":0.1477049577641371,"135":0.1865164257207769,"136":-0.05230055175671692,"137":-0.07958136995624533,"138":0.01579987641690716,"139":-0.09011530329212439,"140":-0.16897033389436425,"141":-0.16183892349036955,"142":0.12287072775310486,"143":0.119292476903746,"144":0.04076275092067772,"145":0.048689485527496634,"146":-0.16604840924572645,"147":0.05095115266282742,"148":-0.11211894985100997,"149":0.08561671457950229,"150":0.12458099636665146,"151":-0.06387006562483592,"152":0.03308119679651791,"153":0.06557974539712332,"154":0.02985403714695373,"155":-0.010402150614915485,"156":-0.057516101055107634,"157":-0.05388089044326059,"158":0.061761981700128935,"159":-0.13602728289594512,"160":-0.10781589062170922,"161":0.18359743561202124,"162":-0.0875662790366561,"163":0.1255798229585879,"164":-0.2621762958669975,"165":-0.10137085769788681,"166":-0.11372788059949407,"167":0.12033327500854311,"168":-0.22619440723598,"169":0.014996765474127465,"170":-0.03214147652795715,"171":0.011563075230404452,"172":-0.06115737484248497,"173":-0.03976704567253981,"174":0.24008998616149177,"175":0.2842238962886845,"176":0.10813930411209725,"177":0.056354657249249734,"178":0.09978905918132693,"179":0.0565255622754416,"180":0.023149101472922224,"181":-0.10377018017513769,"182":0.06284609047337786,"183":0.032605885629891314,"184":-0.009480842458148188,"185":-0.014336758926404305,"186":0.012923895790560353,"187":-0.1113115815393732,"188":0.014609088252965618,"189":-0.17331286565761772,"190":-0.14238006689925498,"191":-0.08463752419270057,"192":0.12143983076042435,"193":-0.06088133037492998,"194":-0.052000512159685916,"195":0.07845184841387999,"196":-0.05306229992515023,"197":0.05145450800564047,"198":-0.08346026495919776,"199":-0.07778572616705014}},{"sx":5,"sy":5,"depth":8,"w":{"0":-0.011697575993847832,"1":0.017669577552503733,"2":0.06728118064394738,"3":-0.0037612990858937136,"4":0.04296192581021003,"5":0.025322901650447312,"6":0.009562310946710312,"7":0.02350706451788214,"8":-0.1347922811941489,"9":-0.056325730758983186,"10":0.03960302006463689,"11":0.024970683991603463,"12":-0.04244573262192262,"13":-0.12616629751857705,"14":-0.0818698749310511,"15":0.09792725761519243,"16":-0.07149790407362575,"17":0.08345816053734784,"18":-0.0055134668322463385,"19":-0.005672103716088481,"20":0.04911353149696358,"21":0.009658027670998609,"22":-0.022781963655627707,"23":0.08607781642298556,"24":-0.14578901972318292,"25":-0.017558512302224882,"26":0.03878568750449284,"27":0.1237155484393489,"28":-0.03408073790083533,"29":-0.11490977710457241,"30":-0.009528562941639328,"31":0.01168157804485268,"32":0.16678746236282985,"33":-0.033821083792284726,"34":-0.07494137634552998,"35":-0.14960683135710132,"36":0.16826060100038537,"37":0.034966323222210216,"38":-0.016425374400197326,"39":0.00743957700579767,"40":-0.09666353187380776,"41":0.05801303012899739,"42":-0.07505893505171457,"43":0.06020418973156551,"44":-0.11882978685458569,"45":-0.044125609904334256,"46":0.06042384164859913,"47":0.021961885792056966,"48":-0.1672547170353158,"49":-0.0711523514023617,"50":0.014561946032505836,"51":0.18209565758715554,"52":-0.0546176649871179,"53":-0.004373690087662226,"54":0.0019523411581837027,"55":-0.1030488027850386,"56":-0.0925615793661538,"57":0.13048675861832557,"58":-0.09821436076185414,"59":-0.17595075843583396,"60":-0.11486411143762139,"61":0.0927277992220867,"62":0.10489471635759862,"63":0.07063895450013985,"64":-0.13666076058931875,"65":-0.16264992030002276,"66":-0.04341915105901225,"67":-0.15167650018034393,"68":-0.04070834996948512,"69":-0.04591238892286518,"70":0.006988974013972022,"71":0.13542939351147218,"72":-0.008881158026976105,"73":0.11814433969492899,"74":-0.10044792349731545,"75":-0.17043770036975747,"76":-0.03607045903939314,"77":0.11481436081074763,"78":-0.14566774786273573,"79":-0.09497750722605174,"80":-0.13765633160429097,"81":-0.1546379658189796,"82":-0.10832956573923626,"83":0.11791281222881843,"84":0.08423732931672376,"85":-0.21365482830824525,"86":0.022543596412004877,"87":0.017371836951547735,"88":-0.019841463915980965,"89":-0.03863370076315904,"90":0.08665309405960682,"91":0.15029158630031159,"92":0.009918746360080458,"93":-0.12055778109195792,"94":0.01688012645374846,"95":-0.09405519767380015,"96":-0.1025642039795538,"97":-0.11662431225857073,"98":0.02324016505592096,"99":0.06317429943768976,"100":-0.11897685702079892,"101":-0.10538825572715495,"102":0.11898261653649615,"103":0.0337897937976668,"104":0.013196531355508054,"105":-0.13698078160087393,"106":-0.03561139193947983,"107":-0.014239561166999358,"108":-0.1536914953208144,"109":-0.084077825004453,"110":0.08075039885510867,"111":0.10486654738872249,"112":-0.070622802677552,"113":-0.03955241873421154,"114":-0.12157814149679659,"115":0.062125758531337595,"116":-0.15061139158819065,"117":0.10871156266937945,"118":0.04247279141375184,"119":0.005429776106395534,"120":0.038031990847708703,"121":-0.1024654402043805,"122":-0.02808862364129523,"123":0.041726472144156104,"124":0.03735354006516881,"125":-0.0765058569595098,"126":-0.004864483921665568,"127":-0.060586626262847366,"128":0.05867298171186905,"129":0.07105253569351733,"130":0.08752227077839332,"131":-0.03560929348362665,"132":0.06485555179405243,"133":0.021454056420739723,"134":-0.04239871720331182,"135":-0.11665104215337103,"136":-0.029057014314240136,"137":0.023610135154728495,"138":-0.019401164694562753,"139":0.07055109837183687,"140":0.012817021240548239,"141":0.07795966836589406,"142":0.048699837896964984,"143":0.006178115051807533,"144":-0.06491119951236508,"145":0.1156708851584618,"146":-0.12607701920052514,"147":0.037240899762438974,"148":0.01493916959441397,"149":0.23920081439833432,"150":0.21199385023481543,"151":0.02022372202998089,"152":-0.15147998313749653,"153":0.0341135909054079,"154":-0.03417143027535491,"155":0.06707406335063186,"156":-0.10864209912106772,"157":0.09277543265910608,"158":0.05851926534452402,"159":-0.2763145257981667,"160":0.07498886984092198,"161":-0.01311411640306857,"162":0.05198927388720021,"163":-0.03671486200303391,"164":-0.07156080113384704,"165":0.08661732510417726,"166":-0.005155380416176156,"167":-0.08959725644851539,"168":-0.10173471295507949,"169":0.023420642649472558,"170":-0.02280188795111741,"171":0.14499139298475064,"172":-0.06987445622262298,"173":-0.054485442646662746,"174":0.0029759536944282084,"175":-0.15970103843729824,"176":0.006870984795544479,"177":-0.09683766296720682,"178":0.05805275971244869,"179":0.1354914873147659,"180":-0.07597185423231725,"181":0.06100345511056832,"182":-0.06696145218000411,"183":-0.0771934913521167,"184":0.05087528451741932,"185":0.1456324210263612,"186":-0.020827432552961808,"187":0.07230776418960878,"188":-0.12722260057855378,"189":-0.09898316669302573,"190":-0.0461426593594257,"191":-0.00735919366934727,"192":-0.008692107651563696,"193":0.06880175332585575,"194":0.020192415228423223,"195":0.07193724622158829,"196":-0.22281789639482993,"197":0.01784077715357039,"198":-0.05428462567024977,"199":-0.1074622884210394}},{"sx":5,"sy":5,"depth":8,"w":{"0":-0.037512964472093784,"1":-0.05067908716628542,"2":0.0836239585886803,"3":0.07562221892223063,"4":-0.06911223872034479,"5":0.05263741074763603,"6":0.05621609915073936,"7":-0.041048840933085064,"8":0.12240566693970305,"9":-0.04629094367237858,"10":0.08009959504899858,"11":-0.10826148613395287,"12":-0.09109130222673646,"13":-0.19859159303125196,"14":-0.07017698680602026,"15":0.052663875333425356,"16":0.11293459156721346,"17":-0.1567169737692497,"18":-0.1121585782347452,"19":-0.04782834625381825,"20":-0.031153223531038853,"21":-0.12879274181312486,"22":-0.09431299763286859,"23":-0.05225511013644725,"24":0.0820511916026074,"25":-0.11740732973723014,"26":-0.13528320911535127,"27":-0.2267617963134432,"28":-0.01452894676235089,"29":-0.006724605274601644,"30":-0.027501252722181797,"31":-0.04909901746092288,"32":0.08237576662107134,"33":-0.010408062344984098,"34":0.015654827736150654,"35":-0.05578283150160111,"36":-0.02174058933220856,"37":-0.11490346834582094,"38":-0.12493475307537671,"39":-0.1022047329624592,"40":0.18509297441793304,"41":-0.04069569740492599,"42":-0.00647848071882857,"43":0.03556520647239383,"44":-0.05854535899546101,"45":0.099588372738314,"46":0.07710118500475553,"47":-0.0119253248637559,"48":0.024113181962171163,"49":-0.11035973427565328,"50":-0.07556394020344996,"51":-0.02475239175035105,"52":-0.0013926948059538322,"53":-0.1309753226345506,"54":0.01632110745548576,"55":0.027072949506675905,"56":-0.0504160944810563,"57":-0.039928345902329965,"58":-0.06003880437309417,"59":-0.01918987136965069,"60":0.10259697806283409,"61":-0.059829559274754245,"62":-0.04016332533529248,"63":0.065712758410964,"64":-0.07798715294601045,"65":-0.12068786497501019,"66":-0.15455348771811542,"67":-0.18345589219595548,"68":-0.03549001717615267,"69":0.006272355495102541,"70":-0.10718401464048935,"71":-0.07083185045100318,"72":0.00695148433434659,"73":-0.08234317830502359,"74":-0.09423615067565527,"75":0.03458526885984606,"76":0.011235528327135995,"77":-0.15692678291285103,"78":-0.148269188070693,"79":-0.13632664273220213,"80":-0.12475514917882223,"81":0.16789400549505235,"82":-0.04169059361355314,"83":0.05226686924791485,"84":-0.05318510094606462,"85":-0.0625206368703447,"86":-0.015178496060250039,"87":-0.05403597199749392,"88":-0.010193335583496487,"89":0.005444707719316941,"90":-0.018367101843430916,"91":-0.05417544657076698,"92":-0.02558178231195151,"93":0.14164948563732363,"94":0.11503093666398832,"95":-0.04533121015061714,"96":-0.1524131962099316,"97":0.10035612924696727,"98":0.00532498293849076,"99":-0.208031099841392,"100":0.07957089316165952,"101":0.10144193024573754,"102":0.013892079656774284,"103":0.01841818095764664,"104":-0.11500945203033874,"105":0.08715317093464003,"106":-0.0119803466064101,"107":-0.13684159665658346,"108":-0.0038124316938770806,"109":0.06453848756579009,"110":0.07857331480438011,"111":0.028095541228266116,"112":-0.037565854135442445,"113":-0.014187386692885441,"114":-0.09417956554935739,"115":-0.01932977474193243,"116":0.05150439123712345,"117":0.1867077132935706,"118":0.12955974129280765,"119":-0.0382609437263429,"120":0.08997874093421045,"121":0.11749338359831116,"122":0.000867042967378737,"123":0.06392577750491561,"124":-0.03334832013274848,"125":0.003903069655570382,"126":-0.044002995808862355,"127":0.020999420821860584,"128":-0.03164522864475582,"129":0.07871025923648693,"130":0.04058080506410966,"131":-0.009083799522957516,"132":-0.06129336711122759,"133":0.12952012505954083,"134":-0.0019925427178622223,"135":-0.1167519394064977,"136":-0.07167436909141549,"137":0.1539166111955564,"138":0.04781448732958504,"139":-0.10018942859749008,"140":-0.022157030499173683,"141":0.09078618075120522,"142":0.033233838892479765,"143":0.049769920276278974,"144":-0.08474442028769483,"145":0.1889837479642326,"146":-0.09193806286183642,"147":-0.0057862903172491865,"148":0.12754422273181604,"149":0.15531003525447407,"150":0.0062727589266497455,"151":0.05868777451791216,"152":-0.21212226849479154,"153":-0.02765949750744545,"154":-0.07597827125255834,"155":0.061136057976262245,"156":0.11575565112620173,"157":0.0730715924882044,"158":-0.031334970465904985,"159":0.02691182651438151,"160":-0.057123375329592156,"161":-0.04328278280944569,"162":0.04105943751638545,"163":0.00907752808607982,"164":0.0016769663644789444,"165":-0.005063210257938164,"166":-0.01926369915160253,"167":0.16657032031000685,"168":-0.1383601066085694,"169":-0.0729678392758453,"170":0.10118152234142852,"171":0.0068991852869656305,"172":-0.007010826865719611,"173":-0.05059129969805784,"174":0.027798428274568684,"175":-0.09496884837362171,"176":-0.1001344329274847,"177":-0.17350272970531117,"178":-0.10306099264239986,"179":0.06502519434751712,"180":-0.014354973247035576,"181":-0.1017353986140613,"182":0.09627204872833572,"183":-0.021308548914981237,"184":-0.09239894229313848,"185":-0.03321373407543827,"186":0.00591034793152053,"187":0.008603210221807588,"188":0.06087280312762314,"189":-0.00686396318742485,"190":0.0673974146802484,"191":-0.08141855397284388,"192":-0.02081771807523772,"193":0.00015284264466353266,"194":0.1413451746115899,"195":0.041190894611649057,"196":0.01715754306248412,"197":0.04743602417426671,"198":0.13367626031301622,"199":0.055560248436096984}},{"sx":5,"sy":5,"depth":8,"w":{"0":-0.11694624265205568,"1":0.1364511020264854,"2":0.029356544406998267,"3":-0.06344156320638816,"4":0.04064858515062523,"5":0.022677267806429126,"6":-0.021292000726307405,"7":0.0659685585807317,"8":-0.10061095584945193,"9":-0.004030154386118493,"10":0.021092588190910172,"11":0.016982500801210675,"12":0.1346793664094904,"13":0.03167249970416652,"14":-0.09305600888533963,"15":0.05263315757613336,"16":-0.18546945266101017,"17":-0.07675416791680714,"18":0.1048131247587396,"19":0.05391355786644871,"20":0.00413027063856244,"21":-0.12846083351478307,"22":-0.13349689794229508,"23":-0.16448709297316497,"24":0.11307644657016289,"25":0.0036816210477980445,"26":-0.11766501552969147,"27":-0.04665560595922158,"28":-0.0342510289662955,"29":-0.09514522040994053,"30":-0.03480624146781614,"31":-0.1633050871696131,"32":0.089485221189916,"33":0.02119338157438025,"34":-0.18673302422370858,"35":0.006282902593700967,"36":-0.008394022693215106,"37":0.1330738886600984,"38":-0.010128866308324382,"39":-0.11706137104056127,"40":-0.11312116790598777,"41":0.07726848281218061,"42":0.12229929951201834,"43":-0.15665042732539353,"44":0.06891315286065097,"45":0.0770235298821673,"46":0.04343032682540701,"47":0.00398166132542215,"48":-0.11776705283026342,"49":0.08517609934489215,"50":-0.020970081176814204,"51":-0.07472550605594563,"52":0.15147615442491288,"53":0.22822338101136752,"54":0.2076108231040584,"55":0.12622855270998723,"56":0.027295309635996932,"57":0.055677623685993105,"58":-0.09958790391030149,"59":0.008701161555741292,"60":0.09444066208762184,"61":0.2363155332486476,"62":0.11360433864483829,"63":-0.04292822395459712,"64":-0.10592058272754809,"65":0.18782751916719062,"66":-0.19628567820026752,"67":0.03667612797188385,"68":-0.020654964824593773,"69":0.20857026973738413,"70":0.05658870755662779,"71":-0.06984336070118564,"72":-0.1597631887517069,"73":0.06443260374683837,"74":0.1370466616800269,"75":0.06876799088783242,"76":-0.02240988525978594,"77":0.11921821427777002,"78":0.10612714680017052,"79":-0.0014298867178605137,"80":-0.08153221704287039,"81":0.05122924357507248,"82":0.06411689000696415,"83":0.07105067397797388,"84":-0.12901943991352802,"85":0.13473613658217784,"86":-0.03168922023684789,"87":-0.06065393527373601,"88":0.033579761777582054,"89":0.17579237348659965,"90":0.09084779294565999,"91":-0.18927759518963239,"92":-0.01576314176606018,"93":0.10757731752836024,"94":0.12284639223485755,"95":-0.0037030542911838165,"96":-0.04567397620765719,"97":0.20730408403560513,"98":0.08829886232042577,"99":-0.10432744943437947,"100":-0.02723098788482077,"101":0.37901896196498563,"102":0.10630284927414106,"103":-0.09791390750741011,"104":-0.16110251504688797,"105":0.10902154655101061,"106":0.08310165568725598,"107":-0.007627999761489465,"108":-0.13648021394885373,"109":0.047868730236294794,"110":-0.026042531181904974,"111":-0.2480903840383514,"112":0.06097034317599728,"113":-0.07954912266915573,"114":0.1268272592805037,"115":0.0771552000224554,"116":-0.1004270097474852,"117":-0.08969634702914764,"118":-0.06277312826137997,"119":-0.08825230799403463,"120":0.029159611834922095,"121":0.033174696360487345,"122":0.08570735481966363,"123":0.14633309805855582,"124":-0.035354296337830125,"125":-0.11976371053087441,"126":-0.0016870082882288217,"127":-0.013883639443838056,"128":-0.018450487424557557,"129":-0.11108520735749487,"130":0.06579884052133604,"131":0.0013724325667872155,"132":0.00906195547240929,"133":-0.22255086474624006,"134":-0.0838596821107559,"135":-0.08912295922090771,"136":0.11845636469728373,"137":-0.23907912420290744,"138":0.13085199575807818,"139":0.10516801589579146,"140":-0.27852813122210696,"141":-0.16868065987706496,"142":-0.10176969677315972,"143":-0.07999559835317885,"144":0.0723531915846774,"145":-0.273565231676511,"146":0.11800683074658092,"147":0.01735996659861479,"148":-0.15509975219502262,"149":-0.32142831381524883,"150":-0.20780433868778656,"151":0.0011588598293422732,"152":0.04887087893534902,"153":-0.07913445857085133,"154":-0.1092358955531393,"155":-0.015525441580758515,"156":0.0173104250756752,"157":-0.17622584867534938,"158":-0.08120929145052805,"159":-0.019472460185453858,"160":-0.01850376046404075,"161":0.07369694045648828,"162":0.027668734363199242,"163":0.008213897609645405,"164":0.023189276585992177,"165":0.02096968954274062,"166":-0.05307344856428176,"167":0.016807672873524943,"168":0.036035068320968484,"169":-0.0623248976358695,"170":0.03327328810690597,"171":-0.01653752063867164,"172":-0.12168583014877532,"173":-0.21476307401336367,"174":0.014205910215536164,"175":-0.152896679342086,"176":0.29686656402929895,"177":-0.12144075565107203,"178":-0.17473293547528576,"179":-0.024290775640627628,"180":-0.07089692580699397,"181":-0.22689175917258417,"182":-0.13996180535614033,"183":-0.00791313725733088,"184":0.13748877483637528,"185":-0.16096731460795277,"186":-0.13513380988255805,"187":-0.17022876089054798,"188":-0.06123042399687932,"189":-0.09465315024226496,"190":-0.09730389677370636,"191":-0.18621148624058295,"192":0.0981634452159436,"193":-0.09968333817064554,"194":-0.21131497211663935,"195":-0.09899942354728866,"196":0.001121536276670326,"197":-0.07591127481939135,"198":-0.15851330582434695,"199":-0.004525707419992189}},{"sx":5,"sy":5,"depth":8,"w":{"0":0.019574029647818184,"1":0.06598340412957887,"2":0.03289408013295017,"3":0.05758126457845326,"4":0.2132392458925079,"5":-0.006619721145366089,"6":0.01038753316418633,"7":0.11312729558344403,"8":0.028422739147775624,"9":-0.004588113244286669,"10":0.022308148003977155,"11":-0.059472021127064,"12":-0.042722349312757285,"13":0.025635802134623416,"14":-0.09212897491562617,"15":-0.007120001577649233,"16":0.0030903568310890637,"17":0.04683215017927945,"18":0.0137574257551729,"19":-0.040845980864106256,"20":0.07243022105352155,"21":-0.13804943455946642,"22":0.055690541400229776,"23":0.03741946372505814,"24":-0.10489151726786598,"25":-0.13350883967753235,"26":-0.07527397677106354,"27":-0.15813280540737065,"28":0.14133953875402178,"29":-0.11182581358055817,"30":-0.055634842243791297,"31":0.011102809230265518,"32":-0.0003864261418674407,"33":-0.01017838047728266,"34":-0.07074048403522491,"35":-0.14781660886466813,"36":-0.06282993919299146,"37":-0.07622004473569907,"38":-0.11227752472674062,"39":-0.008406185957964264,"40":-0.0656804683689385,"41":-0.12640769136188645,"42":0.01570196280356984,"43":-0.011319030503518285,"44":0.1913507175498972,"45":0.00018114844740056777,"46":-0.014422401629018174,"47":0.06599004718888778,"48":0.07808736387220247,"49":-0.017278762805775342,"50":0.07166007104154151,"51":0.025831856565404123,"52":0.07115857656748548,"53":0.0858348090503557,"54":-0.02153681617035055,"55":-0.0319834371441933,"56":-0.00044568741638440564,"57":-0.05256112934875362,"58":-0.03657511482759807,"59":-0.04612630010056146,"60":0.00015731210874072915,"61":0.1891530640609034,"62":0.05584389012925706,"63":0.027907339619776695,"64":-0.0033336177047991146,"65":-0.0670170700822814,"66":0.03897092699347668,"67":-0.16644632422411307,"68":0.1659999179657916,"69":0.060686179770524436,"70":-0.0814255384595376,"71":0.04386216847772609,"72":-0.22041397826048104,"73":-0.16097564402377643,"74":-0.028578594408372272,"75":-0.0194861042863794,"76":-0.03927822548161019,"77":0.04022180326640655,"78":-0.0085150744726451,"79":-0.12273163320925969,"80":-0.08938696372057481,"81":0.1888756397284269,"82":-0.103733297722237,"83":-0.04806437965212475,"84":-0.034149279929162515,"85":0.0943268399058527,"86":-0.03875252572368983,"87":-0.07541074136081366,"88":-0.10623184440149554,"89":0.0045840943920156235,"90":0.03649892830992099,"91":-0.11146369458505041,"92":0.04062929312406793,"93":0.16327324919081748,"94":0.17104961422488812,"95":0.009439670604037456,"96":-0.13539307550796653,"97":0.23358104313003775,"98":0.024556742796573047,"99":-0.09557521774800137,"100":-0.021778942484087786,"101":0.1386818570263365,"102":0.03081752792860405,"103":-0.11504207717868359,"104":-0.0714332793793172,"105":-0.013378732361868513,"106":-0.04544150781653436,"107":0.016522163254555484,"108":0.10038371836944958,"109":0.12283680125192553,"110":0.10293728805291326,"111":0.15706000269941536,"112":-0.07581068225027432,"113":0.08777499105305553,"114":0.027398050963481347,"115":-0.02431288045659399,"116":0.04686922778176788,"117":-0.06149458750269281,"118":-0.07893867417938027,"119":0.05202098404116011,"120":0.08592234997914014,"121":-0.1406610908032954,"122":-0.08407783725300329,"123":0.07454051490817147,"124":-0.16777334042802122,"125":-0.050376534838615754,"126":-0.035060565040472835,"127":0.050910093701129186,"128":0.025510670626435226,"129":-0.04738955692988997,"130":0.09590852775590657,"131":0.08317070941475459,"132":-0.013220991063000431,"133":-0.025784657713581734,"134":-0.07487821461544368,"135":-0.11014209053751288,"136":-0.03398747949325078,"137":-0.03353480457944278,"138":0.09692074725839592,"139":0.0717916798959337,"140":0.007123906626602217,"141":-0.03640337446979242,"142":0.05451181049603063,"143":-0.03156195775666454,"144":-0.19815216157929974,"145":0.02911142073515213,"146":0.045507224224269074,"147":0.04079857892079451,"148":0.022873265059661814,"149":0.01764887393911109,"150":-0.11458498230516906,"151":0.06994739473454917,"152":-0.16510670732781269,"153":-0.025238247208578493,"154":-0.019386590754260254,"155":0.00013540153165746117,"156":0.10311393487788333,"157":0.0015700965138502106,"158":0.08886724348331727,"159":0.06341319863734239,"160":0.2308427127770724,"161":-0.20815729235897484,"162":-0.025077256114805362,"163":0.042301635271896426,"164":-0.10448198554844827,"165":-0.25031242616559896,"166":-0.020396239868963016,"167":-0.21864993770445096,"168":0.07726811970532783,"169":-0.0243275802078802,"170":-0.0016953447685534783,"171":0.058791554765597345,"172":-0.0677855964451293,"173":0.008101713082001532,"174":-0.07901360889715114,"175":-0.15149311263584955,"176":-0.012305604099885823,"177":-0.040015518848972316,"178":-0.06323754066617064,"179":0.13714709304503,"180":-0.09704969228330987,"181":-0.08407877874641277,"182":0.008551375296521795,"183":-0.13864944962195305,"184":-0.08733863683398913,"185":0.1396688716001663,"186":-0.14115011882170114,"187":-0.008190156658751474,"188":-0.21280078827378987,"189":-0.11709811891079916,"190":0.036533822385360626,"191":0.0687571443012651,"192":-0.013982534010658583,"193":-0.03129450949033185,"194":-0.050158932029497366,"195":-0.0584519894660628,"196":-0.0834186442762223,"197":-0.13101861684026483,"198":0.15384045646113045,"199":0.08834336391531358}},{"sx":5,"sy":5,"depth":8,"w":{"0":-0.02244779616665774,"1":0.029993660363494903,"2":-0.09509936068716718,"3":0.04760037733317489,"4":-0.06707527415674663,"5":0.11476549843452878,"6":0.011763149488993834,"7":-0.178340118912689,"8":-0.134931882808574,"9":0.07695652345151462,"10":0.10232783352864172,"11":0.020089528540702027,"12":-0.1571105812125466,"13":0.09946384286371407,"14":-0.038101240881472036,"15":-0.11318396699657693,"16":-0.051437500895705306,"17":0.09194615146697105,"18":-0.017135094319805037,"19":0.03482179912802672,"20":-0.12073436884892956,"21":0.12544180001740013,"22":0.027163558072085536,"23":-0.13921188435417026,"24":0.014125782459271319,"25":0.1237679757066549,"26":0.13794086455071788,"27":-0.06696502425502429,"28":-0.07458276692327645,"29":-0.028527085441302284,"30":-0.14993023883345827,"31":-0.03900412892506774,"32":-0.23156102710128532,"33":-0.021060540539206352,"34":-0.04121690243588137,"35":0.007428018032593865,"36":0.009778521048015076,"37":-0.04967069337545037,"38":-0.10132174137029239,"39":0.04777060550193134,"40":-0.07096012153468718,"41":0.0344698984708126,"42":0.12142199514049345,"43":-0.013939883468684768,"44":-0.03506806128819426,"45":-0.047713259790604055,"46":0.01768281558966703,"47":0.010565811418162435,"48":-0.047279862970969325,"49":-0.07561724689795833,"50":0.09750698644861618,"51":0.06775419885183864,"52":-0.10432121818324612,"53":-0.08604834775397721,"54":-0.09874142591898277,"55":-0.0334814260064494,"56":0.15236888882638044,"57":-0.06885500142046727,"58":-0.09112814527977814,"59":0.007416762149224637,"60":-0.09176272203528575,"61":-0.03977624521430442,"62":-0.21445704919508632,"63":-0.1967179660297423,"64":0.1826910892735772,"65":-0.03496722857149551,"66":-0.0033295476885235814,"67":0.11007689324042481,"68":-0.06065395098197539,"69":-0.26859910257404845,"70":-0.06100529628749784,"71":-0.06849836152396023,"72":-0.07853706896220758,"73":-0.0016825393020490453,"74":-0.05095501307850863,"75":0.003755452893387415,"76":-0.06763488696090261,"77":-0.05412638677213315,"78":-0.01718197667498084,"79":-0.12207487562914116,"80":-0.3080574723988249,"81":0.10405643331094108,"82":-0.10762005534830506,"83":-0.016069592304631206,"84":-0.14205933727015485,"85":0.023103756309579473,"86":0.004503933124901799,"87":0.19191487719671574,"88":-0.006135489377635273,"89":-0.016249271550514973,"90":0.018405623537664985,"91":-0.031282302241545226,"92":0.16745662732386007,"93":-0.04771500138381466,"94":0.17027403284119844,"95":0.1433267609066027,"96":0.11530783722984542,"97":0.020480922339508687,"98":-0.02379448179484058,"99":-0.04786401300310532,"100":0.016700703695135946,"101":-0.09402593553694646,"102":0.009341200657398154,"103":-0.05025202333346441,"104":-0.052719267609744144,"105":-0.087443528618143,"106":-0.08807800822726819,"107":0.024184905034495368,"108":-0.050624237529878345,"109":-0.01519017842357202,"110":-0.041671793341829085,"111":0.15809690886098401,"112":0.011197416799026316,"113":0.15676879054484869,"114":-0.06166618777568529,"115":-0.018585029868941876,"116":-0.15797680535932854,"117":-0.020945970112709555,"118":-0.07293548162096467,"119":-0.13593559741324468,"120":-0.10433049659322755,"121":0.028223793282478645,"122":-0.06638290198189374,"123":-0.04256468563821997,"124":0.1127954588459595,"125":-0.0277410089116708,"126":0.068290486993094,"127":-0.1913950734529477,"128":-0.1265150184050275,"129":-0.004249717321163799,"130":-0.08443017279356768,"131":-0.08521899455488781,"132":0.12533461104146193,"133":0.0862817636460919,"134":-0.02412679123681625,"135":0.26489016378649655,"136":-0.09385452051255733,"137":0.014312488973423658,"138":0.00950046538605092,"139":-0.0926834345063945,"140":0.15414767958639222,"141":0.01958959646513915,"142":-0.06446713645857706,"143":0.08957298141648988,"144":0.02430447633243475,"145":-0.10463255458260734,"146":0.058993549397698235,"147":-0.025357559791849494,"148":0.017649968681877234,"149":-0.052021758761497894,"150":0.05182698828093606,"151":-0.004139465677062285,"152":-0.1137173917117806,"153":0.04433693718236774,"154":-0.09296898141455505,"155":-0.013611794572309868,"156":0.07453236581469186,"157":0.06422940529298472,"158":0.1262333058222844,"159":-0.11914692471557033,"160":-0.07161071193845493,"161":0.18045584347894408,"162":-0.15268495519087685,"163":0.07867272323253849,"164":-0.029663239707098436,"165":-0.06352048586663106,"166":0.04898962240955251,"167":-0.11909504541710154,"168":0.023838655806195142,"169":0.007550502317035,"170":0.003676355561130764,"171":0.05205994289923315,"172":-0.018160745971139845,"173":-0.048322690160415814,"174":-0.00737464844455693,"175":0.08638608354783321,"176":-0.2689562194688569,"177":-0.04128118868272177,"178":-0.14817391574430414,"179":0.012998966610269577,"180":-0.08550465001820821,"181":-0.0029796567978604494,"182":0.0692308101150291,"183":0.01891878475167182,"184":-0.12492930590425251,"185":0.077542470633027,"186":-0.058753392673322004,"187":0.07716898580005427,"188":-0.10110327561852436,"189":0.06067070602641411,"190":0.04504446094261072,"191":0.061062237078277355,"192":-0.025762029604744652,"193":0.05114448516801242,"194":0.12612986500006557,"195":0.06440027464985322,"196":-0.08871330033362693,"197":-0.0845040562481445,"198":-0.09472987449611482,"199":-0.0435283353003031}},{"sx":5,"sy":5,"depth":8,"w":{"0":0.0975801274759391,"1":-0.06184776498318062,"2":0.1066025877582925,"3":0.10665121942020611,"4":0.06280049228234667,"5":-0.19397425206193092,"6":-0.10453273997934544,"7":-0.09439817312153635,"8":0.19733603060220675,"9":-0.11259377273133639,"10":0.07415585827424598,"11":0.20333465902362682,"12":-0.030595149362224246,"13":-0.013189057463813273,"14":-0.1724282451990475,"15":-0.10450179404594034,"16":0.10416597928164384,"17":-0.19635804345926358,"18":0.09119676884599252,"19":0.22128767612711073,"20":-0.15864842900837917,"21":-0.08455679081610733,"22":0.002597486578715069,"23":-0.1715314676119142,"24":0.10152721027072097,"25":-0.09331301292115797,"26":0.18572802360149468,"27":0.12868115664893673,"28":-0.035750068322635324,"29":-0.040820679678953795,"30":-0.08529570803484807,"31":-0.1644915077869693,"32":0.11058225379640019,"33":-0.14628109488755903,"34":0.1422967741405061,"35":0.06938814965827948,"36":-0.0970360825291099,"37":-0.2012693941795831,"38":-0.08716671535025716,"39":-0.06955431008347175,"40":-0.15699760629809972,"41":-0.14769770098724866,"42":-0.06908171492063463,"43":-0.10418659912471148,"44":0.07326025763622032,"45":-0.1753054060530415,"46":-0.18253824189835555,"47":-0.18889381566041216,"48":0.09593563108654231,"49":-0.09191799789764989,"50":-0.00019778852337027394,"51":0.12420751910173326,"52":-0.0505189378925525,"53":-0.19889560076470644,"54":-0.09118700224747668,"55":-0.1833546646332995,"56":0.04359702820275909,"57":-0.007455774840445941,"58":0.05121975306795723,"59":0.08813336749700289,"60":-0.05578177133356993,"61":-0.12448352797877339,"62":-0.032378262141505076,"63":-0.2880466767315273,"64":0.2575938583741568,"65":0.013794421959998662,"66":-0.03605208715942857,"67":0.08624947160491502,"68":0.09034925518737477,"69":0.06935754699704212,"70":-0.0995153812102995,"71":-0.16551862498638004,"72":0.06925402854000376,"73":-0.159665964667892,"74":0.052847090547657856,"75":0.24584017063685706,"76":-0.11208066736970604,"77":-0.041059182620492615,"78":-0.11452761498187872,"79":-0.11463139906460008,"80":0.09006344023156775,"81":-0.027266621328299157,"82":-0.029999658704808505,"83":-0.21868038857469138,"84":0.010994815440466165,"85":0.038557871327682375,"86":-0.02542818717584065,"87":-0.08346743537686911,"88":0.029935316649762386,"89":0.17409178887520485,"90":0.03855264330341856,"91":-0.1341719555229339,"92":0.05799691675879588,"93":0.08421353822036519,"94":0.15369304660477953,"95":0.006200019695237595,"96":0.02705043697872882,"97":0.05512033627576382,"98":-0.010335919078191787,"99":-0.1862412980605007,"100":0.007161158701299713,"101":0.12319808742361268,"102":0.004806579680427641,"103":-0.05938365475003743,"104":-0.11023570171573634,"105":0.07331851250080416,"106":-0.05153863179456915,"107":-0.09634885136358419,"108":0.057169922122320575,"109":0.1857801357924166,"110":-0.1387851256863828,"111":-0.09369363715043279,"112":-0.2110438063172275,"113":-0.0015404753800147882,"114":-0.1375630688066264,"115":0.010173502103227467,"116":0.023301648524148854,"117":0.006749313637720484,"118":0.031601080765055994,"119":-0.07893445288116296,"120":0.10336753980976571,"121":0.13677664207850956,"122":-0.10126388261509703,"123":-0.1579930454491761,"124":-0.049388149757273285,"125":0.11444860003542734,"126":-0.05723093293362024,"127":-0.05499878873424513,"128":-0.15897785485803692,"129":0.09012935570709898,"130":0.08038541109212584,"131":-0.024931828052069418,"132":-0.12817915772224753,"133":0.058392157950239394,"134":0.09041885242678473,"135":-0.16634421215242187,"136":-0.0842076757285454,"137":0.15893187878876594,"138":-0.14704543137363635,"139":-0.09852240855417724,"140":0.043505924281653854,"141":0.09455615926108057,"142":0.1613765580852017,"143":0.015556737204407232,"144":-0.09116375852193519,"145":-0.003610434580643956,"146":-0.07422937853530615,"147":-0.018007457531519444,"148":0.1714673858469275,"149":-0.013699981387882308,"150":-0.04593781561896376,"151":0.035266233091770884,"152":-0.26308914093049923,"153":0.014434009937246589,"154":-0.12500986401001862,"155":-0.11949957585721797,"156":-0.07382774074406727,"157":-0.019064819303790666,"158":0.04253937972898557,"159":-0.02887281861357797,"160":0.028606787428868397,"161":0.019927017035458013,"162":0.13155741415278438,"163":-0.004015967590776543,"164":-0.04574521909482718,"165":-0.073801494879021,"166":-0.021794934592639228,"167":-0.1021451026085089,"168":0.015109011532749836,"169":-0.04171020379647502,"170":-0.0750642760690277,"171":0.08817238203772769,"172":0.11494949196411211,"173":-0.047033920413510635,"174":-0.13774321073984686,"175":-0.14108969914709718,"176":-0.021919888588387924,"177":-0.12183582180177169,"178":0.05541200815532525,"179":0.09030327829355024,"180":-0.045011565583714115,"181":0.08690248447150968,"182":0.07627267761355173,"183":0.019886899838587033,"184":-0.03419366647480278,"185":0.05313522213487829,"186":0.012204987123270582,"187":0.0019617958445964424,"188":0.29276299045717524,"189":0.010091982094579687,"190":0.01228050377226106,"191":0.10426312165098407,"192":-0.16807111661581953,"193":-0.046243930984317054,"194":-0.11722850997654453,"195":-0.028629036817259177,"196":-0.010163032059846056,"197":-0.03788801830284662,"198":-0.04170491736070967,"199":0.021828194989010806}},{"sx":5,"sy":5,"depth":8,"w":{"0":0.06864211953926616,"1":0.0765725323815477,"2":0.015977003862587703,"3":-0.07580139511631241,"4":0.19016359095557023,"5":0.11920316281261491,"6":-0.17406597692103853,"7":0.16825552499844637,"8":0.1531394374682715,"9":0.06645860067351171,"10":0.10761549874563764,"11":-0.049409013941820804,"12":0.04467252117059044,"13":-0.07954022600754908,"14":-0.15480063069670147,"15":-0.1239518732928139,"16":-0.023435933969582382,"17":-0.04744205403183719,"18":0.04498691374005114,"19":-0.14061076200505487,"20":0.05716309498365662,"21":0.024991783208854895,"22":-0.052995965403363716,"23":-0.060997159718255145,"24":-0.07828207650166771,"25":-0.010674459608962046,"26":-0.004643466296457015,"27":-0.009230283864192846,"28":0.06024293286269982,"29":-0.14482948195105966,"30":0.0715098906133971,"31":0.0033255235174176837,"32":-0.13922548214272984,"33":-0.014659974603465206,"34":-0.04822991937363421,"35":0.009748846968443041,"36":0.14299232141779109,"37":-0.034708451098771166,"38":0.03732499699783439,"39":0.014615676566964587,"40":0.10571963006178742,"41":-0.0309714480841104,"42":-0.1032736200540984,"43":-0.06659204157448767,"44":0.05172330595914451,"45":0.10003647083592644,"46":0.0006026576764609638,"47":0.19669965598858094,"48":-0.05150579387005415,"49":0.011992470209818553,"50":-0.025343731126783405,"51":0.06139577802280395,"52":0.0649966539471977,"53":0.18339457180734467,"54":-0.024623555688014668,"55":0.08480299771667946,"56":-0.027651144918854537,"57":-0.04374713159377757,"58":0.03238325030671692,"59":-0.18682009384626416,"60":0.08931040619694042,"61":-0.07501143615258879,"62":-0.14549918289712163,"63":-0.12157605915065592,"64":0.08272794226781206,"65":0.11550985366981838,"66":0.041756258516014,"67":-0.11213947495531246,"68":0.04836967281223792,"69":-0.04373839576393395,"70":-0.10221201008529178,"71":-0.12358706204304432,"72":-0.04254994879645706,"73":0.0069461142438660495,"74":-0.008299384030781797,"75":-0.03669897453055827,"76":0.07691054485191323,"77":-0.041420930075700066,"78":-0.04260291657068367,"79":0.12057505767884807,"80":-0.2635327235943537,"81":0.13543354872879615,"82":0.024449247998503933,"83":0.04152750525365785,"84":-0.05113034079866782,"85":-0.04321893534498821,"86":0.08055576622158428,"87":0.17886080809525867,"88":-0.08686734277068003,"89":-0.015874663410338056,"90":-0.05213367270953143,"91":-0.008210783328759266,"92":-0.09044844988774954,"93":-0.10613239379097371,"94":-0.01653542781611004,"95":0.12491552058134346,"96":0.05159648985099889,"97":0.090575098129153,"98":0.06439745870560058,"99":-0.13166222909677233,"100":-0.1118659694838253,"101":-0.015138528942195816,"102":-0.08345729680739472,"103":-0.077600239421483,"104":0.05970764751989877,"105":0.10317296046107195,"106":-0.04155980853400677,"107":-0.08192875653229599,"108":-0.07636393788451727,"109":-0.05691054599566825,"110":-0.0914098587945798,"111":-0.019145553118447383,"112":0.07338002595503781,"113":-0.11394194786814792,"114":0.07261872895659942,"115":-0.1091530363527267,"116":0.07182845928145011,"117":0.0009813807840920773,"118":0.06531044494017159,"119":0.06007302801951533,"120":-0.0555410431806122,"121":-0.1456392001833966,"122":0.09202805476785698,"123":-0.07816103399751818,"124":-0.16653565249146884,"125":-0.20188358394042627,"126":0.1413544997898468,"127":0.14222393174089948,"128":-0.01194315183848546,"129":-0.025941775145228087,"130":-0.06404851150603884,"131":-0.005111871447876606,"132":-0.06978075224190078,"133":-0.0068414500001788645,"134":-0.06732290793916133,"135":-0.008231308367216743,"136":-0.20223965340292382,"137":0.09614991573189419,"138":-0.1045278799094216,"139":0.047556084218841464,"140":-0.09955094128104792,"141":-0.03626525002931816,"142":0.04454736792784078,"143":0.05861721013864887,"144":-0.1574930663440181,"145":-0.07380496973976589,"146":-0.02613550687741184,"147":0.07262387391090325,"148":-0.027404619429613565,"149":0.01784159498374494,"150":0.053137306186125874,"151":0.04409365339188999,"152":-0.00715938833894563,"153":-0.13266536208813964,"154":0.11101821788754837,"155":-0.03823911822826446,"156":0.09536138133336088,"157":-0.10539885952624728,"158":0.037936699549041206,"159":0.007026365773024992,"160":0.140317401141283,"161":0.086757023657561,"162":0.04555444439775064,"163":-0.028675050197197963,"164":-0.1022156101482515,"165":0.06384179764220514,"166":0.10658389904634256,"167":0.11311878643707328,"168":-0.10422240858156563,"169":0.18048007587118078,"170":0.09391251147824589,"171":0.09469662438781193,"172":-0.015666448948881532,"173":0.11339115538691831,"174":0.09468784897746643,"175":0.0076561122289178045,"176":-0.14053293642471876,"177":0.17944887095450732,"178":-0.01636842648274552,"179":-0.13819181979725018,"180":-0.17039649523773268,"181":0.08061029181232894,"182":0.05581849928058635,"183":-0.19053334524858634,"184":-0.09997101973853438,"185":0.18217648860975091,"186":-0.0324753466865765,"187":-0.1416951664343477,"188":-0.13388052656784163,"189":0.03384501773158722,"190":0.10640231464578118,"191":0.0667252565288737,"192":-0.09010423343781652,"193":0.11542831607431041,"194":-0.0640774879138741,"195":0.001762927262988603,"196":-0.01894067349029798,"197":-0.047844924556755125,"198":0.15519626449998128,"199":0.08650573558521071}},{"sx":5,"sy":5,"depth":8,"w":{"0":-0.06668963278658369,"1":0.010686451257991347,"2":0.10278562779531542,"3":0.10975811357313228,"4":0.03158098294954741,"5":0.006353006275234743,"6":0.1262611124807286,"7":-0.05832272500456553,"8":-0.003066489344771446,"9":0.12104522946529317,"10":0.018091922496184902,"11":0.058750628166651664,"12":-0.04029326559810801,"13":0.004500272282326733,"14":0.04394375532482837,"15":-0.08260921152857864,"16":-0.14307077507580537,"17":0.02761639500263523,"18":0.19396348966569657,"19":0.06545343446935162,"20":-0.14814290878982297,"21":-0.022682060198937558,"22":0.002179210825239735,"23":0.1080303887964816,"24":-0.07454856977292096,"25":-0.0015714750318633272,"26":-0.047195266471724805,"27":-0.1805079925178855,"28":-0.0700181181884694,"29":0.06721421380494004,"30":0.09367761295209244,"31":0.03758464264391138,"32":0.013114932385100255,"33":0.07990318400954578,"34":0.017252369299688985,"35":-0.020736651747271365,"36":-0.10587187196650309,"37":0.26628866062652734,"38":-0.09453956609459371,"39":-0.001002057498449962,"40":-0.09226890991637546,"41":-0.08670108475478752,"42":0.14845702434990776,"43":0.026667024904272325,"44":-0.04464331774389093,"45":-0.12514318435278016,"46":0.0631383449489676,"47":0.10971340815798383,"48":0.09697309546530426,"49":-0.042336377120899764,"50":0.20832329889211898,"51":0.11092736704756474,"52":-0.12082546485924851,"53":-0.23761126234259855,"54":-0.06910496624935417,"55":0.1834050112126449,"56":0.18582260277962456,"57":-0.13402615696140094,"58":-0.009822942330289266,"59":0.07979736250965673,"60":-0.048702550234153964,"61":-0.04569600539040969,"62":-0.028646099155514734,"63":0.03397322597478696,"64":0.11970925743732484,"65":-0.13115376051612057,"66":0.006488505708406145,"67":0.2420838716233259,"68":-0.006458234468225292,"69":-0.20573525035532703,"70":0.013459174861923277,"71":0.06412477166093354,"72":0.23687577766571122,"73":-0.1726269542014816,"74":0.1587078498988017,"75":0.07326116346917085,"76":-0.045083517319916444,"77":-0.1035481155212582,"78":-0.28865003942801787,"79":-0.09643983942822909,"80":-0.006878257447649825,"81":-0.10765558320559598,"82":0.08855347126239105,"83":-0.03745377710750855,"84":-0.0646529682104662,"85":-0.16816476476720593,"86":-0.04360706595806512,"87":-0.05342391477112132,"88":-0.03684986950251498,"89":-0.09414468994492411,"90":-0.006651590043225711,"91":-0.06418353752305282,"92":-0.017862320038195538,"93":-0.11697511017259588,"94":-0.007888566379875263,"95":-0.05577647446140324,"96":-0.14822198207049955,"97":-0.021686897681371865,"98":-0.00479239608388984,"99":-0.025132675123088078,"100":0.09241094472559078,"101":0.009722179448130754,"102":0.007702709418633365,"103":-0.057827343873389336,"104":0.07201089951563529,"105":-0.1503444350951632,"106":-0.03147679544592456,"107":0.021276809780810882,"108":-0.011980788837671993,"109":-0.09340228319148094,"110":-0.0713070847536242,"111":0.06355483372320327,"112":0.07800515040680647,"113":0.005376472652102055,"114":-0.04767550818189193,"115":-0.1404812586174366,"116":0.00022407580746992362,"117":-0.037373257610757764,"118":-0.1497293580338574,"119":-0.09528046202375663,"120":-0.036583067968454314,"121":-0.004421355591805955,"122":0.021684618850420386,"123":-0.13953963335786487,"124":0.08222567474172877,"125":0.028105441516133166,"126":0.000826953119922135,"127":-0.126293133907983,"128":-0.05184234140809398,"129":0.04152298717014777,"130":-0.01636904535147177,"131":-0.1272775190308365,"132":-0.08832734971363208,"133":-0.07907096974912571,"134":-0.07566623812777028,"135":-0.06503021815993379,"136":0.0011203784611929601,"137":0.14293359213958717,"138":-0.1352549481057338,"139":-0.07624646345148606,"140":0.05806206855686101,"141":-0.03534820010758327,"142":0.08128650160273297,"143":0.04578889092500552,"144":-0.016503711577304788,"145":0.23687207867401056,"146":0.0140439792001078,"147":-0.05740961488884931,"148":0.019026066693646825,"149":0.08699160090391832,"150":0.023839275049291148,"151":0.20156218913411597,"152":-0.14470983837816775,"153":0.08817132793934618,"154":-0.0004582722608207969,"155":-0.06321948780796038,"156":0.28768582775276663,"157":0.10092298546187346,"158":0.14191803686498589,"159":-0.10887720548210754,"160":-0.11823208980908519,"161":-0.059601073559918255,"162":-0.14408358547764838,"163":-0.060657434969131556,"164":0.13123679627180712,"165":0.026307234825699157,"166":-0.012082389720701739,"167":0.006923664145912494,"168":0.0817913306363279,"169":0.04574726538405469,"170":0.028266965553580922,"171":-0.05860059381092986,"172":0.028597518423571357,"173":0.08927338469156523,"174":-0.03241407589213578,"175":-0.07759665872361318,"176":0.016017126863997394,"177":-0.005883953984983762,"178":0.01597982809359135,"179":0.11440055848497657,"180":0.04481296265445972,"181":0.08547171289148493,"182":-0.1107388572570945,"183":0.09952527362891533,"184":-0.14208994058954652,"185":0.00548950945767486,"186":0.1501175429729681,"187":0.06979538065091541,"188":0.11000950512428347,"189":0.08689764844359395,"190":-0.1431986237896857,"191":0.04158613122330285,"192":-0.046886868734713816,"193":0.028881296318733447,"194":0.13549400450329105,"195":-0.0012771650030127901,"196":-0.030767831677189366,"197":-0.03966764527679058,"198":0.01740815985262797,"199":0.04275078074524745}}],"biases":{"sx":1,"sy":1,"depth":16,"w":{"0":0.09686048999089783,"1":0.08920140015822829,"2":0.09426529265252374,"3":0.06491188272484917,"4":0.06703581856135495,"5":0.07054679742105635,"6":0.06851212986091118,"7":0.07841260378327182,"8":0.05304316218139055,"9":0.01816584471127747,"10":0.04330320605302297,"11":0.06782770834906715,"12":0.0688747895161729,"13":0.02509732702628614,"14":0.061190043201432134,"15":0.007905483314085027}}},{"out_depth":16,"out_sx":14,"out_sy":14,"layer_type":"relu"},{"sx":3,"sy":3,"stride":3,"in_depth":16,"out_depth":16,"out_sx":4,"out_sy":4,"layer_type":"pool","pad":0},{"out_depth":10,"out_sx":1,"out_sy":1,"layer_type":"fc","num_inputs":256,"l1_decay_mul":0,"l2_decay_mul":1,"filters":[{"sx":1,"sy":1,"depth":256,"w":{"0":-0.0651962011718251,"1":-0.022079041670780883,"2":-0.08227032759119586,"3":0.08931407251891973,"4":-0.1195491325446081,"5":-0.08165239857006605,"6":0.07144159917394764,"7":-0.09249132548992677,"8":-0.08293261697787362,"9":-0.12391149674650355,"10":0.07009604180776932,"11":0.034638217830792156,"12":-0.06604737787625432,"13":-0.023943845848694693,"14":0.058221282299123836,"15":0.021878821343033834,"16":-0.018964130426479462,"17":0.012602811342589101,"18":0.08587313478195858,"19":0.04897807296520329,"20":0.01819745128229749,"21":-0.05070240833521209,"22":0.007998749285982496,"23":-0.15126110921971642,"24":0.011086656429215115,"25":-0.054385629603261466,"26":-0.1292373098354765,"27":-0.14484200356412508,"28":0.034280323811110125,"29":-0.04221156171995883,"30":-0.08898514825809625,"31":-0.024967610636411078,"32":0.15009091740952685,"33":-0.052344891930005744,"34":-0.02580325285120145,"35":-0.057273955854067665,"36":-0.033421574816666064,"37":0.10141447561811796,"38":-0.038591404090039416,"39":-0.16567388412069517,"40":-0.12035525123958597,"41":0.0546190685144126,"42":-0.10019879776907575,"43":0.0904714428297469,"44":-0.04252607852468101,"45":-0.039953434812763415,"46":-0.026924203201043436,"47":-0.024769724254476218,"48":-0.0005943739233014121,"49":-0.02323082372524241,"50":0.056267007001105415,"51":0.04037785332997628,"52":-0.07655742876488754,"53":0.004631836546995636,"54":-0.08431460926867947,"55":-0.06212495841687435,"56":-0.042307570398906855,"57":0.15212867467173308,"58":-0.06245332470170735,"59":0.005585690305547354,"60":-0.03621395151832587,"61":-0.029950782212186056,"62":0.012350185029533044,"63":0.0943253376970687,"64":0.06312016014454902,"65":0.05720444076789841,"66":-0.05840069581392743,"67":-0.06181931861059543,"68":-0.07693115164423647,"69":-0.08447472495628781,"70":-0.07171430619020662,"71":0.04492177565725914,"72":0.09031567613375138,"73":0.004219064382330066,"74":-0.20203823341276836,"75":-0.0008588409601966025,"76":0.02487959874907429,"77":0.04206877555179009,"78":-0.10555797837289518,"79":-0.005431504505969071,"80":0.1090533506343199,"81":-0.03061702391117611,"82":-0.002713227874610592,"83":-0.07708029605989404,"84":0.044759936093258436,"85":-0.16490438759562842,"86":0.06554100447905097,"87":0.05040587556195655,"88":-0.017797114310402644,"89":0.00008893344735611023,"90":-0.06654542380712167,"91":-0.11697428675122368,"92":-0.11990151073688048,"93":0.11990137364705503,"94":-0.011254600688126119,"95":-0.08988158360955475,"96":-0.06547559244172037,"97":0.054404371803861755,"98":-0.04450408604122284,"99":-0.0069073478185568615,"100":0.10921064558682225,"101":0.034911054400022214,"102":0.05632207378773097,"103":0.023667841889393512,"104":0.12897647561294198,"105":-0.08550157333911733,"106":0.09060207993838718,"107":-0.030043696107359744,"108":0.00014515240555952664,"109":-0.020308533026516258,"110":-0.15596646927600452,"111":-0.1334514684225165,"112":0.034551152312010655,"113":-0.011574492435833675,"114":0.11556973550138121,"115":-0.1323217063603559,"116":0.11948010422396914,"117":0.013703041686060924,"118":-0.005492258767062494,"119":-0.22415387595199932,"120":0.14597547901113903,"121":0.09975446971710325,"122":-0.10200424284658578,"123":0.09801197026449042,"124":-0.03918189442303577,"125":0.026739375568640825,"126":-0.01791346106916427,"127":0.016969523005109403,"128":0.06870797745657,"129":-0.09108819541317204,"130":-0.018193168542425215,"131":-0.17051374412131926,"132":0.041585747072186666,"133":0.06619739121488567,"134":0.05200731536807966,"135":0.0045166174030082905,"136":-0.0056416623564984995,"137":-0.023733718868801636,"138":-0.07765896007092538,"139":-0.06381444544918385,"140":-0.03256892211742633,"141":-0.042654614055296795,"142":-0.04921947657426874,"143":-0.13976682710542584,"144":-0.036518309129993154,"145":-0.009812879607522676,"146":0.1009382004873695,"147":0.05868617957956451,"148":-0.1575937805003106,"149":-0.17527197850452605,"150":-0.10733486824511439,"151":0.061643594237587834,"152":0.04675360435223302,"153":-0.05089264940801033,"154":-0.17660494739873095,"155":-0.059520864956237846,"156":0.06933152187413041,"157":-0.09420042911504949,"158":-0.0032678998170429575,"159":0.0051249441401589905,"160":0.11901293338494762,"161":0.006323160720740316,"162":-0.14956026290813837,"163":-0.06509760354732297,"164":0.03521645162327415,"165":0.019262211212414383,"166":-0.004750689933784639,"167":-0.01467370673649134,"168":-0.04408872557119995,"169":-0.10543506224866386,"170":-0.18414393730233666,"171":-0.20242150004199397,"172":0.0639213134665237,"173":-0.14627938390816103,"174":0.28829493143941987,"175":-0.12670064407109602,"176":0.2186131274122737,"177":0.00433535050969988,"178":0.033930601383364574,"179":-0.11842601579011258,"180":-0.017829751453599437,"181":0.05591692321131597,"182":0.00043761640343624225,"183":-0.018291722045606505,"184":-0.005413932123091313,"185":-0.013126936095283323,"186":-0.08798414365636356,"187":-0.02377052386480439,"188":-0.11662041340945865,"189":0.09623593613508918,"190":-0.16519147122653047,"191":0.002620431326217584,"192":-0.018381048795183066,"193":-0.07282915865124674,"194":0.002180750173092764,"195":-0.0019251288670639138,"196":0.08296781002399696,"197":0.16296453097942343,"198":-0.11009599496613741,"199":0.07141675974629395,"200":-0.09221106236732389,"201":-0.012631168137665972,"202":-0.11792022657715256,"203":-0.1141708596745674,"204":0.08304820217514092,"205":-0.04911976459960343,"206":-0.022700241992483324,"207":-0.125048696182696,"208":-0.1317220471280412,"209":-0.09678638439204595,"210":-0.0062420837580579504,"211":0.024186010757831753,"212":-0.09652220282542558,"213":-0.06465992814180364,"214":0.08604326102886801,"215":-0.05682750003698017,"216":0.21655475158552728,"217":0.11337744548520123,"218":-0.09735587169773864,"219":0.11179757915679943,"220":-0.008388743234238782,"221":-0.28359002694813784,"222":-0.015097478541289566,"223":0.05932304438800837,"224":-0.06386333621745534,"225":0.04710364006534581,"226":-0.08634150781298017,"227":0.029756743589860565,"228":0.08738744432844948,"229":-0.28672344832931007,"230":0.04402557408076259,"231":0.05956587306157856,"232":-0.02714331631623095,"233":0.11178090220974828,"234":0.27535433511265583,"235":0.02914688535565366,"236":0.004375183612659422,"237":-0.183693296840807,"238":-0.012947930915686585,"239":-0.05598675217580488,"240":0.06879442429996734,"241":0.12374886560845919,"242":-0.09980746478465426,"243":-0.12741430767044398,"244":0.021275906195821124,"245":-0.104422849798453,"246":0.14298994362173406,"247":0.23043263636304645,"248":0.016612366737065978,"249":-0.07164444342879502,"250":0.03847655373604445,"251":-0.08853553973179795,"252":0.008708142518564447,"253":0.03261600731152476,"254":0.025017789155582646,"255":0.022105885389144122}},{"sx":1,"sy":1,"depth":256,"w":{"0":-0.06539427454003795,"1":-0.012161992951366208,"2":-0.006940349638096727,"3":-0.06973039049697989,"4":0.009152911264419365,"5":0.06166227533749594,"6":0.021223124864554833,"7":0.05989390089853439,"8":-0.029962896927861363,"9":-0.09986278692887533,"10":-0.000334654888762037,"11":-0.07212139926946418,"12":-0.02962038564478452,"13":-0.03386343967956311,"14":-0.00866946085348126,"15":-0.10121649595148687,"16":-0.005773047850657218,"17":-0.11520003750268784,"18":0.06644230771666727,"19":0.005376514706353426,"20":-0.1509547689515958,"21":-0.01112234568303827,"22":0.004495238252775091,"23":-0.09886432959209633,"24":-0.11725891634061059,"25":-0.11740785744835401,"26":0.05417720034784469,"27":-0.12044715256300366,"28":-0.08563182133229759,"29":-0.04090592069985551,"30":-0.043022885636472795,"31":-0.0694324753696205,"32":0.22092268114557242,"33":0.07252538901211163,"34":0.10310646454519688,"35":-0.14756692935179253,"36":0.08976208500782797,"37":0.06041228246486727,"38":-0.1569985847651905,"39":0.009692697906336898,"40":-0.08947384284829535,"41":0.03190089236683926,"42":-0.02626393835149977,"43":0.11246536661640921,"44":0.10672624003394293,"45":0.06783354792794438,"46":-0.02576991404188723,"47":0.05148044244271545,"48":0.08865129561268442,"49":0.08251539621681207,"50":0.12010605857732021,"51":0.10347559830178452,"52":-0.060583671513530876,"53":0.027979307155646855,"54":0.07320592608068772,"55":0.09114746471902306,"56":0.08159017669741121,"57":-0.12198905042985496,"58":0.21384827756022437,"59":0.04722813982908848,"60":0.029308128750322866,"61":-0.10557144458524427,"62":0.05495744500902982,"63":-0.01817184719322531,"64":-0.036767717367085076,"65":0.03473212770800913,"66":0.07867565577577748,"67":-0.09072514828389018,"68":-0.1537526453260178,"69":-0.18483789286677868,"70":-0.15852305144964368,"71":0.03832630988992349,"72":-0.16205384444955917,"73":-0.13593292246347732,"74":-0.10449132722215876,"75":0.16095388953650544,"76":0.00024934551949161416,"77":0.02230459328222196,"78":0.09026161873114193,"79":0.015333826547713597,"80":0.07485309758341291,"81":-0.08699154000008177,"82":-0.11906594231827766,"83":-0.07335587202220514,"84":-0.05017386795527131,"85":0.1574203411553822,"86":-0.0950188479816871,"87":-0.06995280485797913,"88":0.044733243374430624,